
        <?xml version="1.0"?>
        <MethodSetup Method="BDT::bdt">
        <GeneralInfo>
        <Info name="TMVA Release" value=""/>
        <Info name="ROOT Release" value=""/>
        <Info name="Creator" value="mlglue"/>
        <Info name="Date" value=""/>
        <Info name="Host" value=""/>
        <Info name="Dir" value=""/>
        <Info name="Training events" value="-1"/>
        <Info name="TrainingTime" value="-1"/>
        <Info name="AnalysisType" value="Classification"/>
        </GeneralInfo>
        <Options>
        <Option name="NTrees" modified="Yes">1000</Option>
        <Option name="MaxDepth" modified="Yes">2</Option>
        <Option name="BoostType" modified="Yes">Grad</Option>
        <Option name="Shrinkage" modified="Yes">0.01</Option>
        <Option name="UseNvars" modified="Yes">14</Option>
        </Options>

        <Variables NVar="14">
        <Variable VarIndex="0" Expression="bjet1_btagCSV" Label="bjet1_btagCSV" Title="bjet1_btagCSV" Unit="" Internal="bjet1_btagCSV" Type="F" Min="0.0000000000000000000000000000000000000000000000000000000000000000E+00" Max="0.0000000000000000000000000000000000000000000000000000000000000000E+00"/>
<Variable VarIndex="1" Expression="bjet2_ptReg" Label="bjet2_ptReg" Title="bjet2_ptReg" Unit="" Internal="bjet2_ptReg" Type="F" Min="0.0000000000000000000000000000000000000000000000000000000000000000E+00" Max="0.0000000000000000000000000000000000000000000000000000000000000000E+00"/>
<Variable VarIndex="2" Expression="bjet2_btagCSV" Label="bjet2_btagCSV" Title="bjet2_btagCSV" Unit="" Internal="bjet2_btagCSV" Type="F" Min="0.0000000000000000000000000000000000000000000000000000000000000000E+00" Max="0.0000000000000000000000000000000000000000000000000000000000000000E+00"/>
<Variable VarIndex="3" Expression="bjet2_qgDiscr" Label="bjet2_qgDiscr" Title="bjet2_qgDiscr" Unit="" Internal="bjet2_qgDiscr" Type="F" Min="0.0000000000000000000000000000000000000000000000000000000000000000E+00" Max="0.0000000000000000000000000000000000000000000000000000000000000000E+00"/>
<Variable VarIndex="4" Expression="maxwjetbtagCSV" Label="maxwjetbtagCSV" Title="maxwjetbtagCSV" Unit="" Internal="maxwjetbtagCSV" Type="F" Min="0.0000000000000000000000000000000000000000000000000000000000000000E+00" Max="0.0000000000000000000000000000000000000000000000000000000000000000E+00"/>
<Variable VarIndex="5" Expression="wjet2_ptReg" Label="wjet2_ptReg" Title="wjet2_ptReg" Unit="" Internal="wjet2_ptReg" Type="F" Min="0.0000000000000000000000000000000000000000000000000000000000000000E+00" Max="0.0000000000000000000000000000000000000000000000000000000000000000E+00"/>
<Variable VarIndex="6" Expression="wjet2_qgDiscr" Label="wjet2_qgDiscr" Title="wjet2_qgDiscr" Unit="" Internal="wjet2_qgDiscr" Type="F" Min="0.0000000000000000000000000000000000000000000000000000000000000000E+00" Max="0.0000000000000000000000000000000000000000000000000000000000000000E+00"/>
<Variable VarIndex="7" Expression="HadW_mass" Label="HadW_mass" Title="HadW_mass" Unit="" Internal="HadW_mass" Type="F" Min="0.0000000000000000000000000000000000000000000000000000000000000000E+00" Max="0.0000000000000000000000000000000000000000000000000000000000000000E+00"/>
<Variable VarIndex="8" Expression="dR_HadW_lep" Label="dR_HadW_lep" Title="dR_HadW_lep" Unit="" Internal="dR_HadW_lep" Type="F" Min="0.0000000000000000000000000000000000000000000000000000000000000000E+00" Max="0.0000000000000000000000000000000000000000000000000000000000000000E+00"/>
<Variable VarIndex="9" Expression="max_dR_HadW_bjet" Label="max_dR_HadW_bjet" Title="max_dR_HadW_bjet" Unit="" Internal="max_dR_HadW_bjet" Type="F" Min="0.0000000000000000000000000000000000000000000000000000000000000000E+00" Max="0.0000000000000000000000000000000000000000000000000000000000000000E+00"/>
<Variable VarIndex="10" Expression="dR_wjet1wjet2" Label="dR_wjet1wjet2" Title="dR_wjet1wjet2" Unit="" Internal="dR_wjet1wjet2" Type="F" Min="0.0000000000000000000000000000000000000000000000000000000000000000E+00" Max="0.0000000000000000000000000000000000000000000000000000000000000000E+00"/>
<Variable VarIndex="11" Expression="mTop1" Label="mTop1" Title="mTop1" Unit="" Internal="mTop1" Type="F" Min="0.0000000000000000000000000000000000000000000000000000000000000000E+00" Max="0.0000000000000000000000000000000000000000000000000000000000000000E+00"/>
<Variable VarIndex="12" Expression="nBJetMedium" Label="nBJetMedium" Title="nBJetMedium" Unit="" Internal="nBJetMedium" Type="F" Min="0.0000000000000000000000000000000000000000000000000000000000000000E+00" Max="0.0000000000000000000000000000000000000000000000000000000000000000E+00"/>
<Variable VarIndex="13" Expression="Hbb_massReg" Label="Hbb_massReg" Title="Hbb_massReg" Unit="" Internal="Hbb_massReg" Type="F" Min="0.0000000000000000000000000000000000000000000000000000000000000000E+00" Max="0.0000000000000000000000000000000000000000000000000000000000000000E+00"/>

        </Variables>

        <Classes NClass="2">
        <Class Name="Background" Index="0"/>
<Class Name="Signal" Index="1"/>

        </Classes>

        <Targets NTrgt="0">
        
        </Targets>

        <Transformations NTransformations="0"/>
        <MVAPdfs/>
        <Weights NTrees="1000" AnalysisType="1">
        <BinaryTree type="DecisionTree" boostWeight="0.0" itree="0">
    <Node pos="c" depth="1" NCoef="0"     IVar="7" Cut="     1.053940E+02" cType="1"     res="     0.000000E+00" rms="0.0"     purity="0.00000000E+00" nType="0">
        <Node pos="l" depth="2" NCoef="0"     IVar="2" Cut="     1.063830E-01" cType="1"     res="     0.000000E+00" rms="0.0"     purity="0.00000000E+00" nType="0">
            <Node pos="l" depth="3" NCoef="0"     IVar="-1" Cut="     0.000000E+00" cType="1"     res="    -6.900020E-03" rms="0.0e-00"     purity="0.00000000E+00" nType="-99">
            </Node>
            <Node pos="r" depth="3" NCoef="0"     IVar="-1" Cut="     0.000000E+00" cType="1"     res="     1.538730E-02" rms="0.0e-00"     purity="0.00000000E+00" nType="-99">
            </Node>
        </Node>
        <Node pos="r" depth="2" NCoef="0"     IVar="2" Cut="     2.797840E-01" cType="1"     res="     0.000000E+00" rms="0.0"     purity="0.00000000E+00" nType="0">
            <Node pos="l" depth="3" NCoef="0"     IVar="-1" Cut="     0.000000E+00" cType="1"     res="    -1.904500E-02" rms="0.0e-00"     purity="0.00000000E+00" nType="-99">
            </Node>
            <Node pos="r" depth="3" NCoef="0"     IVar="-1" Cut="     0.000000E+00" cType="1"     res="    -1.010620E-02" rms="0.0e-00"     purity="0.00000000E+00" nType="-99">
            </Node>
        </Node>
    </Node>
</BinaryTree>
<BinaryTree type="DecisionTree" boostWeight="0.0" itree="1">
    <Node pos="c" depth="1" NCoef="0"     IVar="7" Cut="     1.053940E+02" cType="1"     res="     0.000000E+00" rms="0.0"     purity="0.00000000E+00" nType="0">
        <Node pos="l" depth="2" NCoef="0"     IVar="2" Cut="     1.063830E-01" cType="1"     res="     0.000000E+00" rms="0.0"     purity="0.00000000E+00" nType="0">
            <Node pos="l" depth="3" NCoef="0"     IVar="-1" Cut="     0.000000E+00" cType="1"     res="    -6.831110E-03" rms="0.0e-00"     purity="0.00000000E+00" nType="-99">
            </Node>
            <Node pos="r" depth="3" NCoef="0"     IVar="-1" Cut="     0.000000E+00" cType="1"     res="     1.523440E-02" rms="0.0e-00"     purity="0.00000000E+00" nType="-99">
            </Node>
        </Node>
        <Node pos="r" depth="2" NCoef="0"     IVar="2" Cut="     2.797840E-01" cType="1"     res="     0.000000E+00" rms="0.0"     purity="0.00000000E+00" nType="0">
            <Node pos="l" depth="3" NCoef="0"     IVar="-1" Cut="     0.000000E+00" cType="1"     res="    -1.885630E-02" rms="0.0e-00"     purity="0.00000000E+00" nType="-99">
            </Node>
            <Node pos="r" depth="3" NCoef="0"     IVar="-1" Cut="     0.000000E+00" cType="1"     res="    -1.000540E-02" rms="0.0e-00"     purity="0.00000000E+00" nType="-99">
            </Node>
        </Node>
    </Node>
</BinaryTree>
<BinaryTree type="DecisionTree" boostWeight="0.0" itree="2">
    <Node pos="c" depth="1" NCoef="0"     IVar="7" Cut="     1.055600E+02" cType="1"     res="     0.000000E+00" rms="0.0"     purity="0.00000000E+00" nType="0">
        <Node pos="l" depth="2" NCoef="0"     IVar="2" Cut="     1.245110E-01" cType="1"     res="     0.000000E+00" rms="0.0"     purity="0.00000000E+00" nType="0">
            <Node pos="l" depth="3" NCoef="0"     IVar="-1" Cut="     0.000000E+00" cType="1"     res="    -6.425430E-03" rms="0.0e-00"     purity="0.00000000E+00" nType="-99">
            </Node>
            <Node pos="r" depth="3" NCoef="0"     IVar="-1" Cut="     0.000000E+00" cType="1"     res="     1.524190E-02" rms="0.0e-00"     purity="0.00000000E+00" nType="-99">
            </Node>
        </Node>
        <Node pos="r" depth="2" NCoef="0"     IVar="2" Cut="     3.247060E-01" cType="1"     res="     0.000000E+00" rms="0.0"     purity="0.00000000E+00" nType="0">
            <Node pos="l" depth="3" NCoef="0"     IVar="-1" Cut="     0.000000E+00" cType="1"     res="    -1.862520E-02" rms="0.0e-00"     purity="0.00000000E+00" nType="-99">
            </Node>
            <Node pos="r" depth="3" NCoef="0"     IVar="-1" Cut="     0.000000E+00" cType="1"     res="    -9.809400E-03" rms="0.0e-00"     purity="0.00000000E+00" nType="-99">
            </Node>
        </Node>
    </Node>
</BinaryTree>
<BinaryTree type="DecisionTree" boostWeight="0.0" itree="3">
    <Node pos="c" depth="1" NCoef="0"     IVar="7" Cut="     1.085120E+02" cType="1"     res="     0.000000E+00" rms="0.0"     purity="0.00000000E+00" nType="0">
        <Node pos="l" depth="2" NCoef="0"     IVar="2" Cut="     1.245110E-01" cType="1"     res="     0.000000E+00" rms="0.0"     purity="0.00000000E+00" nType="0">
            <Node pos="l" depth="3" NCoef="0"     IVar="-1" Cut="     0.000000E+00" cType="1"     res="    -6.692040E-03" rms="0.0e-00"     purity="0.00000000E+00" nType="-99">
            </Node>
            <Node pos="r" depth="3" NCoef="0"     IVar="-1" Cut="     0.000000E+00" cType="1"     res="     1.497650E-02" rms="0.0e-00"     purity="0.00000000E+00" nType="-99">
            </Node>
        </Node>
        <Node pos="r" depth="2" NCoef="0"     IVar="2" Cut="     3.247060E-01" cType="1"     res="     0.000000E+00" rms="0.0"     purity="0.00000000E+00" nType="0">
            <Node pos="l" depth="3" NCoef="0"     IVar="-1" Cut="     0.000000E+00" cType="1"     res="    -1.862270E-02" rms="0.0e-00"     purity="0.00000000E+00" nType="-99">
            </Node>
            <Node pos="r" depth="3" NCoef="0"     IVar="-1" Cut="     0.000000E+00" cType="1"     res="    -1.130220E-02" rms="0.0e-00"     purity="0.00000000E+00" nType="-99">
            </Node>
        </Node>
    </Node>
</BinaryTree>
<BinaryTree type="DecisionTree" boostWeight="0.0" itree="4">
    <Node pos="c" depth="1" NCoef="0"     IVar="7" Cut="     1.052830E+02" cType="1"     res="     0.000000E+00" rms="0.0"     purity="0.00000000E+00" nType="0">
        <Node pos="l" depth="2" NCoef="0"     IVar="2" Cut="     1.040640E-01" cType="1"     res="     0.000000E+00" rms="0.0"     purity="0.00000000E+00" nType="0">
            <Node pos="l" depth="3" NCoef="0"     IVar="-1" Cut="     0.000000E+00" cType="1"     res="    -6.681620E-03" rms="0.0e-00"     purity="0.00000000E+00" nType="-99">
            </Node>
            <Node pos="r" depth="3" NCoef="0"     IVar="-1" Cut="     0.000000E+00" cType="1"     res="     1.477790E-02" rms="0.0e-00"     purity="0.00000000E+00" nType="-99">
            </Node>
        </Node>
        <Node pos="r" depth="2" NCoef="0"     IVar="2" Cut="     2.385240E-01" cType="1"     res="     0.000000E+00" rms="0.0"     purity="0.00000000E+00" nType="0">
            <Node pos="l" depth="3" NCoef="0"     IVar="-1" Cut="     0.000000E+00" cType="1"     res="    -1.837000E-02" rms="0.0e-00"     purity="0.00000000E+00" nType="-99">
            </Node>
            <Node pos="r" depth="3" NCoef="0"     IVar="-1" Cut="     0.000000E+00" cType="1"     res="    -9.831900E-03" rms="0.0e-00"     purity="0.00000000E+00" nType="-99">
            </Node>
        </Node>
    </Node>
</BinaryTree>
<BinaryTree type="DecisionTree" boostWeight="0.0" itree="5">
    <Node pos="c" depth="1" NCoef="0"     IVar="7" Cut="     1.082230E+02" cType="1"     res="     0.000000E+00" rms="0.0"     purity="0.00000000E+00" nType="0">
        <Node pos="l" depth="2" NCoef="0"     IVar="4" Cut="     6.118150E-01" cType="1"     res="     0.000000E+00" rms="0.0"     purity="0.00000000E+00" nType="0">
            <Node pos="l" depth="3" NCoef="0"     IVar="-1" Cut="     0.000000E+00" cType="1"     res="     1.220990E-02" rms="0.0e-00"     purity="0.00000000E+00" nType="-99">
            </Node>
            <Node pos="r" depth="3" NCoef="0"     IVar="-1" Cut="     0.000000E+00" cType="1"     res="    -1.503590E-02" rms="0.0e-00"     purity="0.00000000E+00" nType="-99">
            </Node>
        </Node>
        <Node pos="r" depth="2" NCoef="0"     IVar="2" Cut="     3.737780E-01" cType="1"     res="     0.000000E+00" rms="0.0"     purity="0.00000000E+00" nType="0">
            <Node pos="l" depth="3" NCoef="0"     IVar="-1" Cut="     0.000000E+00" cType="1"     res="    -1.821450E-02" rms="0.0e-00"     purity="0.00000000E+00" nType="-99">
            </Node>
            <Node pos="r" depth="3" NCoef="0"     IVar="-1" Cut="     0.000000E+00" cType="1"     res="    -1.082840E-02" rms="0.0e-00"     purity="0.00000000E+00" nType="-99">
            </Node>
        </Node>
    </Node>
</BinaryTree>
<BinaryTree type="DecisionTree" boostWeight="0.0" itree="6">
    <Node pos="c" depth="1" NCoef="0"     IVar="7" Cut="     1.081050E+02" cType="1"     res="     0.000000E+00" rms="0.0"     purity="0.00000000E+00" nType="0">
        <Node pos="l" depth="2" NCoef="0"     IVar="2" Cut="     1.242670E-01" cType="1"     res="     0.000000E+00" rms="0.0"     purity="0.00000000E+00" nType="0">
            <Node pos="l" depth="3" NCoef="0"     IVar="-1" Cut="     0.000000E+00" cType="1"     res="    -6.553070E-03" rms="0.0e-00"     purity="0.00000000E+00" nType="-99">
            </Node>
            <Node pos="r" depth="3" NCoef="0"     IVar="-1" Cut="     0.000000E+00" cType="1"     res="     1.461380E-02" rms="0.0e-00"     purity="0.00000000E+00" nType="-99">
            </Node>
        </Node>
        <Node pos="r" depth="2" NCoef="0"     IVar="2" Cut="     3.295890E-01" cType="1"     res="     0.000000E+00" rms="0.0"     purity="0.00000000E+00" nType="0">
            <Node pos="l" depth="3" NCoef="0"     IVar="-1" Cut="     0.000000E+00" cType="1"     res="    -1.808630E-02" rms="0.0e-00"     purity="0.00000000E+00" nType="-99">
            </Node>
            <Node pos="r" depth="3" NCoef="0"     IVar="-1" Cut="     0.000000E+00" cType="1"     res="    -1.078340E-02" rms="0.0e-00"     purity="0.00000000E+00" nType="-99">
            </Node>
        </Node>
    </Node>
</BinaryTree>
<BinaryTree type="DecisionTree" boostWeight="0.0" itree="7">
    <Node pos="c" depth="1" NCoef="0"     IVar="7" Cut="     1.052650E+02" cType="1"     res="     0.000000E+00" rms="0.0"     purity="0.00000000E+00" nType="0">
        <Node pos="l" depth="2" NCoef="0"     IVar="4" Cut="     6.738270E-01" cType="1"     res="     0.000000E+00" rms="0.0"     purity="0.00000000E+00" nType="0">
            <Node pos="l" depth="3" NCoef="0"     IVar="-1" Cut="     0.000000E+00" cType="1"     res="     1.196230E-02" rms="0.0e-00"     purity="0.00000000E+00" nType="-99">
            </Node>
            <Node pos="r" depth="3" NCoef="0"     IVar="-1" Cut="     0.000000E+00" cType="1"     res="    -1.575870E-02" rms="0.0e-00"     purity="0.00000000E+00" nType="-99">
            </Node>
        </Node>
        <Node pos="r" depth="2" NCoef="0"     IVar="2" Cut="     2.329090E-01" cType="1"     res="     0.000000E+00" rms="0.0"     purity="0.00000000E+00" nType="0">
            <Node pos="l" depth="3" NCoef="0"     IVar="-1" Cut="     0.000000E+00" cType="1"     res="    -1.788660E-02" rms="0.0e-00"     purity="0.00000000E+00" nType="-99">
            </Node>
            <Node pos="r" depth="3" NCoef="0"     IVar="-1" Cut="     0.000000E+00" cType="1"     res="    -9.545730E-03" rms="0.0e-00"     purity="0.00000000E+00" nType="-99">
            </Node>
        </Node>
    </Node>
</BinaryTree>
<BinaryTree type="DecisionTree" boostWeight="0.0" itree="8">
    <Node pos="c" depth="1" NCoef="0"     IVar="7" Cut="     1.080670E+02" cType="1"     res="     0.000000E+00" rms="0.0"     purity="0.00000000E+00" nType="0">
        <Node pos="l" depth="2" NCoef="0"     IVar="2" Cut="     1.275620E-01" cType="1"     res="     0.000000E+00" rms="0.0"     purity="0.00000000E+00" nType="0">
            <Node pos="l" depth="3" NCoef="0"     IVar="-1" Cut="     0.000000E+00" cType="1"     res="    -6.453760E-03" rms="0.0e-00"     purity="0.00000000E+00" nType="-99">
            </Node>
            <Node pos="r" depth="3" NCoef="0"     IVar="-1" Cut="     0.000000E+00" cType="1"     res="     1.440990E-02" rms="0.0e-00"     purity="0.00000000E+00" nType="-99">
            </Node>
        </Node>
        <Node pos="r" depth="2" NCoef="0"     IVar="2" Cut="     3.745110E-01" cType="1"     res="     0.000000E+00" rms="0.0"     purity="0.00000000E+00" nType="0">
            <Node pos="l" depth="3" NCoef="0"     IVar="-1" Cut="     0.000000E+00" cType="1"     res="    -1.772480E-02" rms="0.0e-00"     purity="0.00000000E+00" nType="-99">
            </Node>
            <Node pos="r" depth="3" NCoef="0"     IVar="-1" Cut="     0.000000E+00" cType="1"     res="    -1.042670E-02" rms="0.0e-00"     purity="0.00000000E+00" nType="-99">
            </Node>
        </Node>
    </Node>
</BinaryTree>
<BinaryTree type="DecisionTree" boostWeight="0.0" itree="9">
    <Node pos="c" depth="1" NCoef="0"     IVar="7" Cut="     1.081040E+02" cType="1"     res="     0.000000E+00" rms="0.0"     purity="0.00000000E+00" nType="0">
        <Node pos="l" depth="2" NCoef="0"     IVar="4" Cut="     6.093740E-01" cType="1"     res="     0.000000E+00" rms="0.0"     purity="0.00000000E+00" nType="0">
            <Node pos="l" depth="3" NCoef="0"     IVar="-1" Cut="     0.000000E+00" cType="1"     res="     1.182370E-02" rms="0.0e-00"     purity="0.00000000E+00" nType="-99">
            </Node>
            <Node pos="r" depth="3" NCoef="0"     IVar="-1" Cut="     0.000000E+00" cType="1"     res="    -1.472610E-02" rms="0.0e-00"     purity="0.00000000E+00" nType="-99">
            </Node>
        </Node>
        <Node pos="r" depth="2" NCoef="0"     IVar="2" Cut="     3.745110E-01" cType="1"     res="     0.000000E+00" rms="0.0"     purity="0.00000000E+00" nType="0">
            <Node pos="l" depth="3" NCoef="0"     IVar="-1" Cut="     0.000000E+00" cType="1"     res="    -1.757430E-02" rms="0.0e-00"     purity="0.00000000E+00" nType="-99">
            </Node>
            <Node pos="r" depth="3" NCoef="0"     IVar="-1" Cut="     0.000000E+00" cType="1"     res="    -1.034920E-02" rms="0.0e-00"     purity="0.00000000E+00" nType="-99">
            </Node>
        </Node>
    </Node>
</BinaryTree>
<BinaryTree type="DecisionTree" boostWeight="0.0" itree="10">
    <Node pos="c" depth="1" NCoef="0"     IVar="7" Cut="     1.053250E+02" cType="1"     res="     0.000000E+00" rms="0.0"     purity="0.00000000E+00" nType="0">
        <Node pos="l" depth="2" NCoef="0"     IVar="2" Cut="     1.063830E-01" cType="1"     res="     0.000000E+00" rms="0.0"     purity="0.00000000E+00" nType="0">
            <Node pos="l" depth="3" NCoef="0"     IVar="-1" Cut="     0.000000E+00" cType="1"     res="    -6.523480E-03" rms="0.0e-00"     purity="0.00000000E+00" nType="-99">
            </Node>
            <Node pos="r" depth="3" NCoef="0"     IVar="-1" Cut="     0.000000E+00" cType="1"     res="     1.411890E-02" rms="0.0e-00"     purity="0.00000000E+00" nType="-99">
            </Node>
        </Node>
        <Node pos="r" depth="2" NCoef="0"     IVar="7" Cut="     1.234140E+02" cType="1"     res="     0.000000E+00" rms="0.0"     purity="0.00000000E+00" nType="0">
            <Node pos="l" depth="3" NCoef="0"     IVar="-1" Cut="     0.000000E+00" cType="1"     res="    -8.464170E-03" rms="0.0e-00"     purity="0.00000000E+00" nType="-99">
            </Node>
            <Node pos="r" depth="3" NCoef="0"     IVar="-1" Cut="     0.000000E+00" cType="1"     res="    -1.719500E-02" rms="0.0e-00"     purity="0.00000000E+00" nType="-99">
            </Node>
        </Node>
    </Node>
</BinaryTree>
<BinaryTree type="DecisionTree" boostWeight="0.0" itree="11">
    <Node pos="c" depth="1" NCoef="0"     IVar="7" Cut="     1.079400E+02" cType="1"     res="     0.000000E+00" rms="0.0"     purity="0.00000000E+00" nType="0">
        <Node pos="l" depth="2" NCoef="0"     IVar="4" Cut="     6.684560E-01" cType="1"     res="     0.000000E+00" rms="0.0"     purity="0.00000000E+00" nType="0">
            <Node pos="l" depth="3" NCoef="0"     IVar="-1" Cut="     0.000000E+00" cType="1"     res="     1.147320E-02" rms="0.0e-00"     purity="0.00000000E+00" nType="-99">
            </Node>
            <Node pos="r" depth="3" NCoef="0"     IVar="-1" Cut="     0.000000E+00" cType="1"     res="    -1.552920E-02" rms="0.0e-00"     purity="0.00000000E+00" nType="-99">
            </Node>
        </Node>
        <Node pos="r" depth="2" NCoef="0"     IVar="2" Cut="     3.312980E-01" cType="1"     res="     0.000000E+00" rms="0.0"     purity="0.00000000E+00" nType="0">
            <Node pos="l" depth="3" NCoef="0"     IVar="-1" Cut="     0.000000E+00" cType="1"     res="    -1.732720E-02" rms="0.0e-00"     purity="0.00000000E+00" nType="-99">
            </Node>
            <Node pos="r" depth="3" NCoef="0"     IVar="-1" Cut="     0.000000E+00" cType="1"     res="    -1.016550E-02" rms="0.0e-00"     purity="0.00000000E+00" nType="-99">
            </Node>
        </Node>
    </Node>
</BinaryTree>
<BinaryTree type="DecisionTree" boostWeight="0.0" itree="12">
    <Node pos="c" depth="1" NCoef="0"     IVar="2" Cut="     1.529530E-01" cType="1"     res="     0.000000E+00" rms="0.0"     purity="0.00000000E+00" nType="0">
        <Node pos="l" depth="2" NCoef="0"     IVar="7" Cut="     1.029200E+02" cType="1"     res="     0.000000E+00" rms="0.0"     purity="0.00000000E+00" nType="0">
            <Node pos="l" depth="3" NCoef="0"     IVar="-1" Cut="     0.000000E+00" cType="1"     res="    -5.424270E-03" rms="0.0e-00"     purity="0.00000000E+00" nType="-99">
            </Node>
            <Node pos="r" depth="3" NCoef="0"     IVar="-1" Cut="     0.000000E+00" cType="1"     res="    -1.713060E-02" rms="0.0e-00"     purity="0.00000000E+00" nType="-99">
            </Node>
        </Node>
        <Node pos="r" depth="2" NCoef="0"     IVar="7" Cut="     1.149280E+02" cType="1"     res="     0.000000E+00" rms="0.0"     purity="0.00000000E+00" nType="0">
            <Node pos="l" depth="3" NCoef="0"     IVar="-1" Cut="     0.000000E+00" cType="1"     res="     1.388240E-02" rms="0.0e-00"     purity="0.00000000E+00" nType="-99">
            </Node>
            <Node pos="r" depth="3" NCoef="0"     IVar="-1" Cut="     0.000000E+00" cType="1"     res="    -1.319220E-02" rms="0.0e-00"     purity="0.00000000E+00" nType="-99">
            </Node>
        </Node>
    </Node>
</BinaryTree>
<BinaryTree type="DecisionTree" boostWeight="0.0" itree="13">
    <Node pos="c" depth="1" NCoef="0"     IVar="7" Cut="     1.077310E+02" cType="1"     res="     0.000000E+00" rms="0.0"     purity="0.00000000E+00" nType="0">
        <Node pos="l" depth="2" NCoef="0"     IVar="4" Cut="     6.103510E-01" cType="1"     res="     0.000000E+00" rms="0.0"     purity="0.00000000E+00" nType="0">
            <Node pos="l" depth="3" NCoef="0"     IVar="-1" Cut="     0.000000E+00" cType="1"     res="     1.146330E-02" rms="0.0e-00"     purity="0.00000000E+00" nType="-99">
            </Node>
            <Node pos="r" depth="3" NCoef="0"     IVar="-1" Cut="     0.000000E+00" cType="1"     res="    -1.443300E-02" rms="0.0e-00"     purity="0.00000000E+00" nType="-99">
            </Node>
        </Node>
        <Node pos="r" depth="2" NCoef="0"     IVar="2" Cut="     3.298330E-01" cType="1"     res="     0.000000E+00" rms="0.0"     purity="0.00000000E+00" nType="0">
            <Node pos="l" depth="3" NCoef="0"     IVar="-1" Cut="     0.000000E+00" cType="1"     res="    -1.704050E-02" rms="0.0e-00"     purity="0.00000000E+00" nType="-99">
            </Node>
            <Node pos="r" depth="3" NCoef="0"     IVar="-1" Cut="     0.000000E+00" cType="1"     res="    -9.934370E-03" rms="0.0e-00"     purity="0.00000000E+00" nType="-99">
            </Node>
        </Node>
    </Node>
</BinaryTree>
<BinaryTree type="DecisionTree" boostWeight="0.0" itree="14">
    <Node pos="c" depth="1" NCoef="0"     IVar="2" Cut="     1.553950E-01" cType="1"     res="     0.000000E+00" rms="0.0"     purity="0.00000000E+00" nType="0">
        <Node pos="l" depth="2" NCoef="0"     IVar="4" Cut="     3.193350E-01" cType="1"     res="     0.000000E+00" rms="0.0"     purity="0.00000000E+00" nType="0">
            <Node pos="l" depth="3" NCoef="0"     IVar="-1" Cut="     0.000000E+00" cType="1"     res="    -5.378170E-03" rms="0.0e-00"     purity="0.00000000E+00" nType="-99">
            </Node>
            <Node pos="r" depth="3" NCoef="0"     IVar="-1" Cut="     0.000000E+00" cType="1"     res="    -1.691720E-02" rms="0.0e-00"     purity="0.00000000E+00" nType="-99">
            </Node>
        </Node>
        <Node pos="r" depth="2" NCoef="0"     IVar="7" Cut="     1.148290E+02" cType="1"     res="     0.000000E+00" rms="0.0"     purity="0.00000000E+00" nType="0">
            <Node pos="l" depth="3" NCoef="0"     IVar="-1" Cut="     0.000000E+00" cType="1"     res="     1.369670E-02" rms="0.0e-00"     purity="0.00000000E+00" nType="-99">
            </Node>
            <Node pos="r" depth="3" NCoef="0"     IVar="-1" Cut="     0.000000E+00" cType="1"     res="    -1.295280E-02" rms="0.0e-00"     purity="0.00000000E+00" nType="-99">
            </Node>
        </Node>
    </Node>
</BinaryTree>
<BinaryTree type="DecisionTree" boostWeight="0.0" itree="15">
    <Node pos="c" depth="1" NCoef="0"     IVar="2" Cut="     1.539300E-01" cType="1"     res="     0.000000E+00" rms="0.0"     purity="0.00000000E+00" nType="0">
        <Node pos="l" depth="2" NCoef="0"     IVar="0" Cut="     2.600090E-01" cType="1"     res="     0.000000E+00" rms="0.0"     purity="0.00000000E+00" nType="0">
            <Node pos="l" depth="3" NCoef="0"     IVar="-1" Cut="     0.000000E+00" cType="1"     res="    -1.766120E-02" rms="0.0e-00"     purity="0.00000000E+00" nType="-99">
            </Node>
            <Node pos="r" depth="3" NCoef="0"     IVar="-1" Cut="     0.000000E+00" cType="1"     res="    -6.141930E-03" rms="0.0e-00"     purity="0.00000000E+00" nType="-99">
            </Node>
        </Node>
        <Node pos="r" depth="2" NCoef="0"     IVar="7" Cut="     1.148250E+02" cType="1"     res="     0.000000E+00" rms="0.0"     purity="0.00000000E+00" nType="0">
            <Node pos="l" depth="3" NCoef="0"     IVar="-1" Cut="     0.000000E+00" cType="1"     res="     1.356900E-02" rms="0.0e-00"     purity="0.00000000E+00" nType="-99">
            </Node>
            <Node pos="r" depth="3" NCoef="0"     IVar="-1" Cut="     0.000000E+00" cType="1"     res="    -1.284800E-02" rms="0.0e-00"     purity="0.00000000E+00" nType="-99">
            </Node>
        </Node>
    </Node>
</BinaryTree>
<BinaryTree type="DecisionTree" boostWeight="0.0" itree="16">
    <Node pos="c" depth="1" NCoef="0"     IVar="7" Cut="     1.078210E+02" cType="1"     res="     0.000000E+00" rms="0.0"     purity="0.00000000E+00" nType="0">
        <Node pos="l" depth="2" NCoef="0"     IVar="4" Cut="     6.059560E-01" cType="1"     res="     0.000000E+00" rms="0.0"     purity="0.00000000E+00" nType="0">
            <Node pos="l" depth="3" NCoef="0"     IVar="-1" Cut="     0.000000E+00" cType="1"     res="     1.123030E-02" rms="0.0e-00"     purity="0.00000000E+00" nType="-99">
            </Node>
            <Node pos="r" depth="3" NCoef="0"     IVar="-1" Cut="     0.000000E+00" cType="1"     res="    -1.414020E-02" rms="0.0e-00"     purity="0.00000000E+00" nType="-99">
            </Node>
        </Node>
        <Node pos="r" depth="2" NCoef="0"     IVar="2" Cut="     3.312980E-01" cType="1"     res="     0.000000E+00" rms="0.0"     purity="0.00000000E+00" nType="0">
            <Node pos="l" depth="3" NCoef="0"     IVar="-1" Cut="     0.000000E+00" cType="1"     res="    -1.671150E-02" rms="0.0e-00"     purity="0.00000000E+00" nType="-99">
            </Node>
            <Node pos="r" depth="3" NCoef="0"     IVar="-1" Cut="     0.000000E+00" cType="1"     res="    -9.698090E-03" rms="0.0e-00"     purity="0.00000000E+00" nType="-99">
            </Node>
        </Node>
    </Node>
</BinaryTree>
<BinaryTree type="DecisionTree" boostWeight="0.0" itree="17">
    <Node pos="c" depth="1" NCoef="0"     IVar="2" Cut="     1.553950E-01" cType="1"     res="     0.000000E+00" rms="0.0"     purity="0.00000000E+00" nType="0">
        <Node pos="l" depth="2" NCoef="0"     IVar="0" Cut="     2.536610E-01" cType="1"     res="     0.000000E+00" rms="0.0"     purity="0.00000000E+00" nType="0">
            <Node pos="l" depth="3" NCoef="0"     IVar="-1" Cut="     0.000000E+00" cType="1"     res="    -1.743160E-02" rms="0.0e-00"     purity="0.00000000E+00" nType="-99">
            </Node>
            <Node pos="r" depth="3" NCoef="0"     IVar="-1" Cut="     0.000000E+00" cType="1"     res="    -6.054930E-03" rms="0.0e-00"     purity="0.00000000E+00" nType="-99">
            </Node>
        </Node>
        <Node pos="r" depth="2" NCoef="0"     IVar="7" Cut="     1.148230E+02" cType="1"     res="     0.000000E+00" rms="0.0"     purity="0.00000000E+00" nType="0">
            <Node pos="l" depth="3" NCoef="0"     IVar="-1" Cut="     0.000000E+00" cType="1"     res="     1.338400E-02" rms="0.0e-00"     purity="0.00000000E+00" nType="-99">
            </Node>
            <Node pos="r" depth="3" NCoef="0"     IVar="-1" Cut="     0.000000E+00" cType="1"     res="    -1.263020E-02" rms="0.0e-00"     purity="0.00000000E+00" nType="-99">
            </Node>
        </Node>
    </Node>
</BinaryTree>
<BinaryTree type="DecisionTree" boostWeight="0.0" itree="18">
    <Node pos="c" depth="1" NCoef="0"     IVar="7" Cut="     1.051180E+02" cType="1"     res="     0.000000E+00" rms="0.0"     purity="0.00000000E+00" nType="0">
        <Node pos="l" depth="2" NCoef="0"     IVar="4" Cut="     6.704090E-01" cType="1"     res="     0.000000E+00" rms="0.0"     purity="0.00000000E+00" nType="0">
            <Node pos="l" depth="3" NCoef="0"     IVar="-1" Cut="     0.000000E+00" cType="1"     res="     1.101070E-02" rms="0.0e-00"     purity="0.00000000E+00" nType="-99">
            </Node>
            <Node pos="r" depth="3" NCoef="0"     IVar="-1" Cut="     0.000000E+00" cType="1"     res="    -1.483000E-02" rms="0.0e-00"     purity="0.00000000E+00" nType="-99">
            </Node>
        </Node>
        <Node pos="r" depth="2" NCoef="0"     IVar="7" Cut="     1.231880E+02" cType="1"     res="     0.000000E+00" rms="0.0"     purity="0.00000000E+00" nType="0">
            <Node pos="l" depth="3" NCoef="0"     IVar="-1" Cut="     0.000000E+00" cType="1"     res="    -7.732460E-03" rms="0.0e-00"     purity="0.00000000E+00" nType="-99">
            </Node>
            <Node pos="r" depth="3" NCoef="0"     IVar="-1" Cut="     0.000000E+00" cType="1"     res="    -1.623320E-02" rms="0.0e-00"     purity="0.00000000E+00" nType="-99">
            </Node>
        </Node>
    </Node>
</BinaryTree>
<BinaryTree type="DecisionTree" boostWeight="0.0" itree="19">
    <Node pos="c" depth="1" NCoef="0"     IVar="2" Cut="     1.542960E-01" cType="1"     res="     0.000000E+00" rms="0.0"     purity="0.00000000E+00" nType="0">
        <Node pos="l" depth="2" NCoef="0"     IVar="0" Cut="     2.539050E-01" cType="1"     res="     0.000000E+00" rms="0.0"     purity="0.00000000E+00" nType="0">
            <Node pos="l" depth="3" NCoef="0"     IVar="-1" Cut="     0.000000E+00" cType="1"     res="    -1.722200E-02" rms="0.0e-00"     purity="0.00000000E+00" nType="-99">
            </Node>
            <Node pos="r" depth="3" NCoef="0"     IVar="-1" Cut="     0.000000E+00" cType="1"     res="    -5.992980E-03" rms="0.0e-00"     purity="0.00000000E+00" nType="-99">
            </Node>
        </Node>
        <Node pos="r" depth="2" NCoef="0"     IVar="7" Cut="     1.188300E+02" cType="1"     res="     0.000000E+00" rms="0.0"     purity="0.00000000E+00" nType="0">
            <Node pos="l" depth="3" NCoef="0"     IVar="-1" Cut="     0.000000E+00" cType="1"     res="     1.304700E-02" rms="0.0e-00"     purity="0.00000000E+00" nType="-99">
            </Node>
            <Node pos="r" depth="3" NCoef="0"     IVar="-1" Cut="     0.000000E+00" cType="1"     res="    -1.326670E-02" rms="0.0e-00"     purity="0.00000000E+00" nType="-99">
            </Node>
        </Node>
    </Node>
</BinaryTree>
<BinaryTree type="DecisionTree" boostWeight="0.0" itree="20">
    <Node pos="c" depth="1" NCoef="0"     IVar="2" Cut="     1.566150E-01" cType="1"     res="     0.000000E+00" rms="0.0"     purity="0.00000000E+00" nType="0">
        <Node pos="l" depth="2" NCoef="0"     IVar="7" Cut="     1.025540E+02" cType="1"     res="     0.000000E+00" rms="0.0"     purity="0.00000000E+00" nType="0">
            <Node pos="l" depth="3" NCoef="0"     IVar="-1" Cut="     0.000000E+00" cType="1"     res="    -4.978240E-03" rms="0.0e-00"     purity="0.00000000E+00" nType="-99">
            </Node>
            <Node pos="r" depth="3" NCoef="0"     IVar="-1" Cut="     0.000000E+00" cType="1"     res="    -1.622460E-02" rms="0.0e-00"     purity="0.00000000E+00" nType="-99">
            </Node>
        </Node>
        <Node pos="r" depth="2" NCoef="0"     IVar="7" Cut="     1.147240E+02" cType="1"     res="     0.000000E+00" rms="0.0"     purity="0.00000000E+00" nType="0">
            <Node pos="l" depth="3" NCoef="0"     IVar="-1" Cut="     0.000000E+00" cType="1"     res="     1.309730E-02" rms="0.0e-00"     purity="0.00000000E+00" nType="-99">
            </Node>
            <Node pos="r" depth="3" NCoef="0"     IVar="-1" Cut="     0.000000E+00" cType="1"     res="    -1.226020E-02" rms="0.0e-00"     purity="0.00000000E+00" nType="-99">
            </Node>
        </Node>
    </Node>
</BinaryTree>
<BinaryTree type="DecisionTree" boostWeight="0.0" itree="21">
    <Node pos="c" depth="1" NCoef="0"     IVar="7" Cut="     1.051080E+02" cType="1"     res="     0.000000E+00" rms="0.0"     purity="0.00000000E+00" nType="0">
        <Node pos="l" depth="2" NCoef="0"     IVar="4" Cut="     6.728510E-01" cType="1"     res="     0.000000E+00" rms="0.0"     purity="0.00000000E+00" nType="0">
            <Node pos="l" depth="3" NCoef="0"     IVar="-1" Cut="     0.000000E+00" cType="1"     res="     1.077850E-02" rms="0.0e-00"     purity="0.00000000E+00" nType="-99">
            </Node>
            <Node pos="r" depth="3" NCoef="0"     IVar="-1" Cut="     0.000000E+00" cType="1"     res="    -1.469520E-02" rms="0.0e-00"     purity="0.00000000E+00" nType="-99">
            </Node>
        </Node>
        <Node pos="r" depth="2" NCoef="0"     IVar="2" Cut="     2.797840E-01" cType="1"     res="     0.000000E+00" rms="0.0"     purity="0.00000000E+00" nType="0">
            <Node pos="l" depth="3" NCoef="0"     IVar="-1" Cut="     0.000000E+00" cType="1"     res="    -1.611350E-02" rms="0.0e-00"     purity="0.00000000E+00" nType="-99">
            </Node>
            <Node pos="r" depth="3" NCoef="0"     IVar="-1" Cut="     0.000000E+00" cType="1"     res="    -8.125140E-03" rms="0.0e-00"     purity="0.00000000E+00" nType="-99">
            </Node>
        </Node>
    </Node>
</BinaryTree>
<BinaryTree type="DecisionTree" boostWeight="0.0" itree="22">
    <Node pos="c" depth="1" NCoef="0"     IVar="2" Cut="     1.563710E-01" cType="1"     res="     0.000000E+00" rms="0.0"     purity="0.00000000E+00" nType="0">
        <Node pos="l" depth="2" NCoef="0"     IVar="0" Cut="     2.536610E-01" cType="1"     res="     0.000000E+00" rms="0.0"     purity="0.00000000E+00" nType="0">
            <Node pos="l" depth="3" NCoef="0"     IVar="-1" Cut="     0.000000E+00" cType="1"     res="    -1.692160E-02" rms="0.0e-00"     purity="0.00000000E+00" nType="-99">
            </Node>
            <Node pos="r" depth="3" NCoef="0"     IVar="-1" Cut="     0.000000E+00" cType="1"     res="    -5.786030E-03" rms="0.0e-00"     purity="0.00000000E+00" nType="-99">
            </Node>
        </Node>
        <Node pos="r" depth="2" NCoef="0"     IVar="7" Cut="     1.185170E+02" cType="1"     res="     0.000000E+00" rms="0.0"     purity="0.00000000E+00" nType="0">
            <Node pos="l" depth="3" NCoef="0"     IVar="-1" Cut="     0.000000E+00" cType="1"     res="     1.278360E-02" rms="0.0e-00"     purity="0.00000000E+00" nType="-99">
            </Node>
            <Node pos="r" depth="3" NCoef="0"     IVar="-1" Cut="     0.000000E+00" cType="1"     res="    -1.287630E-02" rms="0.0e-00"     purity="0.00000000E+00" nType="-99">
            </Node>
        </Node>
    </Node>
</BinaryTree>
<BinaryTree type="DecisionTree" boostWeight="0.0" itree="23">
    <Node pos="c" depth="1" NCoef="0"     IVar="2" Cut="     1.527090E-01" cType="1"     res="     0.000000E+00" rms="0.0"     purity="0.00000000E+00" nType="0">
        <Node pos="l" depth="2" NCoef="0"     IVar="4" Cut="     3.186030E-01" cType="1"     res="     0.000000E+00" rms="0.0"     purity="0.00000000E+00" nType="0">
            <Node pos="l" depth="3" NCoef="0"     IVar="-1" Cut="     0.000000E+00" cType="1"     res="    -4.947030E-03" rms="0.0e-00"     purity="0.00000000E+00" nType="-99">
            </Node>
            <Node pos="r" depth="3" NCoef="0"     IVar="-1" Cut="     0.000000E+00" cType="1"     res="    -1.599570E-02" rms="0.0e-00"     purity="0.00000000E+00" nType="-99">
            </Node>
        </Node>
        <Node pos="r" depth="2" NCoef="0"     IVar="7" Cut="     1.148010E+02" cType="1"     res="     0.000000E+00" rms="0.0"     purity="0.00000000E+00" nType="0">
            <Node pos="l" depth="3" NCoef="0"     IVar="-1" Cut="     0.000000E+00" cType="1"     res="     1.279340E-02" rms="0.0e-00"     purity="0.00000000E+00" nType="-99">
            </Node>
            <Node pos="r" depth="3" NCoef="0"     IVar="-1" Cut="     0.000000E+00" cType="1"     res="    -1.201680E-02" rms="0.0e-00"     purity="0.00000000E+00" nType="-99">
            </Node>
        </Node>
    </Node>
</BinaryTree>
<BinaryTree type="DecisionTree" boostWeight="0.0" itree="24">
    <Node pos="c" depth="1" NCoef="0"     IVar="7" Cut="     1.082240E+02" cType="1"     res="     0.000000E+00" rms="0.0"     purity="0.00000000E+00" nType="0">
        <Node pos="l" depth="2" NCoef="0"     IVar="4" Cut="     6.655260E-01" cType="1"     res="     0.000000E+00" rms="0.0"     purity="0.00000000E+00" nType="0">
            <Node pos="l" depth="3" NCoef="0"     IVar="-1" Cut="     0.000000E+00" cType="1"     res="     1.046270E-02" rms="0.0e-00"     purity="0.00000000E+00" nType="-99">
            </Node>
            <Node pos="r" depth="3" NCoef="0"     IVar="-1" Cut="     0.000000E+00" cType="1"     res="    -1.452410E-02" rms="0.0e-00"     purity="0.00000000E+00" nType="-99">
            </Node>
        </Node>
        <Node pos="r" depth="2" NCoef="0"     IVar="2" Cut="     3.312980E-01" cType="1"     res="     0.000000E+00" rms="0.0"     purity="0.00000000E+00" nType="0">
            <Node pos="l" depth="3" NCoef="0"     IVar="-1" Cut="     0.000000E+00" cType="1"     res="    -1.592160E-02" rms="0.0e-00"     purity="0.00000000E+00" nType="-99">
            </Node>
            <Node pos="r" depth="3" NCoef="0"     IVar="-1" Cut="     0.000000E+00" cType="1"     res="    -9.188650E-03" rms="0.0e-00"     purity="0.00000000E+00" nType="-99">
            </Node>
        </Node>
    </Node>
</BinaryTree>
<BinaryTree type="DecisionTree" boostWeight="0.0" itree="25">
    <Node pos="c" depth="1" NCoef="0"     IVar="2" Cut="     1.542960E-01" cType="1"     res="     0.000000E+00" rms="0.0"     purity="0.00000000E+00" nType="0">
        <Node pos="l" depth="2" NCoef="0"     IVar="0" Cut="     2.609850E-01" cType="1"     res="     0.000000E+00" rms="0.0"     purity="0.00000000E+00" nType="0">
            <Node pos="l" depth="3" NCoef="0"     IVar="-1" Cut="     0.000000E+00" cType="1"     res="    -1.663480E-02" rms="0.0e-00"     purity="0.00000000E+00" nType="-99">
            </Node>
            <Node pos="r" depth="3" NCoef="0"     IVar="-1" Cut="     0.000000E+00" cType="1"     res="    -5.623700E-03" rms="0.0e-00"     purity="0.00000000E+00" nType="-99">
            </Node>
        </Node>
        <Node pos="r" depth="2" NCoef="0"     IVar="7" Cut="     1.183180E+02" cType="1"     res="     0.000000E+00" rms="0.0"     purity="0.00000000E+00" nType="0">
            <Node pos="l" depth="3" NCoef="0"     IVar="-1" Cut="     0.000000E+00" cType="1"     res="     1.250630E-02" rms="0.0e-00"     purity="0.00000000E+00" nType="-99">
            </Node>
            <Node pos="r" depth="3" NCoef="0"     IVar="-1" Cut="     0.000000E+00" cType="1"     res="    -1.255940E-02" rms="0.0e-00"     purity="0.00000000E+00" nType="-99">
            </Node>
        </Node>
    </Node>
</BinaryTree>
<BinaryTree type="DecisionTree" boostWeight="0.0" itree="26">
    <Node pos="c" depth="1" NCoef="0"     IVar="7" Cut="     1.073450E+02" cType="1"     res="     0.000000E+00" rms="0.0"     purity="0.00000000E+00" nType="0">
        <Node pos="l" depth="2" NCoef="0"     IVar="4" Cut="     6.684560E-01" cType="1"     res="     0.000000E+00" rms="0.0"     purity="0.00000000E+00" nType="0">
            <Node pos="l" depth="3" NCoef="0"     IVar="-1" Cut="     0.000000E+00" cType="1"     res="     1.033990E-02" rms="0.0e-00"     purity="0.00000000E+00" nType="-99">
            </Node>
            <Node pos="r" depth="3" NCoef="0"     IVar="-1" Cut="     0.000000E+00" cType="1"     res="    -1.436950E-02" rms="0.0e-00"     purity="0.00000000E+00" nType="-99">
            </Node>
        </Node>
        <Node pos="r" depth="2" NCoef="0"     IVar="2" Cut="     3.740220E-01" cType="1"     res="     0.000000E+00" rms="0.0"     purity="0.00000000E+00" nType="0">
            <Node pos="l" depth="3" NCoef="0"     IVar="-1" Cut="     0.000000E+00" cType="1"     res="    -1.564960E-02" rms="0.0e-00"     purity="0.00000000E+00" nType="-99">
            </Node>
            <Node pos="r" depth="3" NCoef="0"     IVar="-1" Cut="     0.000000E+00" cType="1"     res="    -8.519910E-03" rms="0.0e-00"     purity="0.00000000E+00" nType="-99">
            </Node>
        </Node>
    </Node>
</BinaryTree>
<BinaryTree type="DecisionTree" boostWeight="0.0" itree="27">
    <Node pos="c" depth="1" NCoef="0"     IVar="2" Cut="     1.529530E-01" cType="1"     res="     0.000000E+00" rms="0.0"     purity="0.00000000E+00" nType="0">
        <Node pos="l" depth="2" NCoef="0"     IVar="0" Cut="     2.644030E-01" cType="1"     res="     0.000000E+00" rms="0.0"     purity="0.00000000E+00" nType="0">
            <Node pos="l" depth="3" NCoef="0"     IVar="-1" Cut="     0.000000E+00" cType="1"     res="    -1.644800E-02" rms="0.0e-00"     purity="0.00000000E+00" nType="-99">
            </Node>
            <Node pos="r" depth="3" NCoef="0"     IVar="-1" Cut="     0.000000E+00" cType="1"     res="    -5.556710E-03" rms="0.0e-00"     purity="0.00000000E+00" nType="-99">
            </Node>
        </Node>
        <Node pos="r" depth="2" NCoef="0"     IVar="0" Cut="     7.183740E-02" cType="1"     res="     0.000000E+00" rms="0.0"     purity="0.00000000E+00" nType="0">
            <Node pos="l" depth="3" NCoef="0"     IVar="-1" Cut="     0.000000E+00" cType="1"     res="    -7.094620E-03" rms="0.0e-00"     purity="0.00000000E+00" nType="-99">
            </Node>
            <Node pos="r" depth="3" NCoef="0"     IVar="-1" Cut="     0.000000E+00" cType="1"     res="     1.359020E-02" rms="0.0e-00"     purity="0.00000000E+00" nType="-99">
            </Node>
        </Node>
    </Node>
</BinaryTree>
<BinaryTree type="DecisionTree" boostWeight="0.0" itree="28">
    <Node pos="c" depth="1" NCoef="0"     IVar="7" Cut="     1.075850E+02" cType="1"     res="     0.000000E+00" rms="0.0"     purity="0.00000000E+00" nType="0">
        <Node pos="l" depth="2" NCoef="0"     IVar="4" Cut="     6.625970E-01" cType="1"     res="     0.000000E+00" rms="0.0"     purity="0.00000000E+00" nType="0">
            <Node pos="l" depth="3" NCoef="0"     IVar="-1" Cut="     0.000000E+00" cType="1"     res="     1.021630E-02" rms="0.0e-00"     purity="0.00000000E+00" nType="-99">
            </Node>
            <Node pos="r" depth="3" NCoef="0"     IVar="-1" Cut="     0.000000E+00" cType="1"     res="    -1.411830E-02" rms="0.0e-00"     purity="0.00000000E+00" nType="-99">
            </Node>
        </Node>
        <Node pos="r" depth="2" NCoef="0"     IVar="7" Cut="     1.230990E+02" cType="1"     res="     0.000000E+00" rms="0.0"     purity="0.00000000E+00" nType="0">
            <Node pos="l" depth="3" NCoef="0"     IVar="-1" Cut="     0.000000E+00" cType="1"     res="    -7.842370E-03" rms="0.0e-00"     purity="0.00000000E+00" nType="-99">
            </Node>
            <Node pos="r" depth="3" NCoef="0"     IVar="-1" Cut="     0.000000E+00" cType="1"     res="    -1.528390E-02" rms="0.0e-00"     purity="0.00000000E+00" nType="-99">
            </Node>
        </Node>
    </Node>
</BinaryTree>
<BinaryTree type="DecisionTree" boostWeight="0.0" itree="29">
    <Node pos="c" depth="1" NCoef="0"     IVar="2" Cut="     1.253650E-01" cType="1"     res="     0.000000E+00" rms="0.0"     purity="0.00000000E+00" nType="0">
        <Node pos="l" depth="2" NCoef="0"     IVar="12" Cut="     2.000000E+00" cType="1"     res="     0.000000E+00" rms="0.0"     purity="0.00000000E+00" nType="0">
            <Node pos="l" depth="3" NCoef="0"     IVar="-1" Cut="     0.000000E+00" cType="1"     res="    -4.948310E-03" rms="0.0e-00"     purity="0.00000000E+00" nType="-99">
            </Node>
            <Node pos="r" depth="3" NCoef="0"     IVar="-1" Cut="     0.000000E+00" cType="1"     res="    -1.546160E-02" rms="0.0e-00"     purity="0.00000000E+00" nType="-99">
            </Node>
        </Node>
        <Node pos="r" depth="2" NCoef="0"     IVar="0" Cut="     7.079980E-02" cType="1"     res="     0.000000E+00" rms="0.0"     purity="0.00000000E+00" nType="0">
            <Node pos="l" depth="3" NCoef="0"     IVar="-1" Cut="     0.000000E+00" cType="1"     res="    -7.334410E-03" rms="0.0e-00"     purity="0.00000000E+00" nType="-99">
            </Node>
            <Node pos="r" depth="3" NCoef="0"     IVar="-1" Cut="     0.000000E+00" cType="1"     res="     1.324190E-02" rms="0.0e-00"     purity="0.00000000E+00" nType="-99">
            </Node>
        </Node>
    </Node>
</BinaryTree>
<BinaryTree type="DecisionTree" boostWeight="0.0" itree="30">
    <Node pos="c" depth="1" NCoef="0"     IVar="7" Cut="     1.073380E+02" cType="1"     res="     0.000000E+00" rms="0.0"     purity="0.00000000E+00" nType="0">
        <Node pos="l" depth="2" NCoef="0"     IVar="4" Cut="     6.049790E-01" cType="1"     res="     0.000000E+00" rms="0.0"     purity="0.00000000E+00" nType="0">
            <Node pos="l" depth="3" NCoef="0"     IVar="-1" Cut="     0.000000E+00" cType="1"     res="     1.024380E-02" rms="0.0e-00"     purity="0.00000000E+00" nType="-99">
            </Node>
            <Node pos="r" depth="3" NCoef="0"     IVar="-1" Cut="     0.000000E+00" cType="1"     res="    -1.309320E-02" rms="0.0e-00"     purity="0.00000000E+00" nType="-99">
            </Node>
        </Node>
        <Node pos="r" depth="2" NCoef="0"     IVar="7" Cut="     1.222560E+02" cType="1"     res="     0.000000E+00" rms="0.0"     purity="0.00000000E+00" nType="0">
            <Node pos="l" depth="3" NCoef="0"     IVar="-1" Cut="     0.000000E+00" cType="1"     res="    -7.492420E-03" rms="0.0e-00"     purity="0.00000000E+00" nType="-99">
            </Node>
            <Node pos="r" depth="3" NCoef="0"     IVar="-1" Cut="     0.000000E+00" cType="1"     res="    -1.508750E-02" rms="0.0e-00"     purity="0.00000000E+00" nType="-99">
            </Node>
        </Node>
    </Node>
</BinaryTree>
<BinaryTree type="DecisionTree" boostWeight="0.0" itree="31">
    <Node pos="c" depth="1" NCoef="0"     IVar="2" Cut="     1.529530E-01" cType="1"     res="     0.000000E+00" rms="0.0"     purity="0.00000000E+00" nType="0">
        <Node pos="l" depth="2" NCoef="0"     IVar="0" Cut="     2.617180E-01" cType="1"     res="     0.000000E+00" rms="0.0"     purity="0.00000000E+00" nType="0">
            <Node pos="l" depth="3" NCoef="0"     IVar="-1" Cut="     0.000000E+00" cType="1"     res="    -1.615590E-02" rms="0.0e-00"     purity="0.00000000E+00" nType="-99">
            </Node>
            <Node pos="r" depth="3" NCoef="0"     IVar="-1" Cut="     0.000000E+00" cType="1"     res="    -5.387520E-03" rms="0.0e-00"     purity="0.00000000E+00" nType="-99">
            </Node>
        </Node>
        <Node pos="r" depth="2" NCoef="0"     IVar="0" Cut="     7.079980E-02" cType="1"     res="     0.000000E+00" rms="0.0"     purity="0.00000000E+00" nType="0">
            <Node pos="l" depth="3" NCoef="0"     IVar="-1" Cut="     0.000000E+00" cType="1"     res="    -6.967970E-03" rms="0.0e-00"     purity="0.00000000E+00" nType="-99">
            </Node>
            <Node pos="r" depth="3" NCoef="0"     IVar="-1" Cut="     0.000000E+00" cType="1"     res="     1.327190E-02" rms="0.0e-00"     purity="0.00000000E+00" nType="-99">
            </Node>
        </Node>
    </Node>
</BinaryTree>
<BinaryTree type="DecisionTree" boostWeight="0.0" itree="32">
    <Node pos="c" depth="1" NCoef="0"     IVar="7" Cut="     1.072050E+02" cType="1"     res="     0.000000E+00" rms="0.0"     purity="0.00000000E+00" nType="0">
        <Node pos="l" depth="2" NCoef="0"     IVar="4" Cut="     6.625970E-01" cType="1"     res="     0.000000E+00" rms="0.0"     purity="0.00000000E+00" nType="0">
            <Node pos="l" depth="3" NCoef="0"     IVar="-1" Cut="     0.000000E+00" cType="1"     res="     9.978400E-03" rms="0.0e-00"     purity="0.00000000E+00" nType="-99">
            </Node>
            <Node pos="r" depth="3" NCoef="0"     IVar="-1" Cut="     0.000000E+00" cType="1"     res="    -1.375620E-02" rms="0.0e-00"     purity="0.00000000E+00" nType="-99">
            </Node>
        </Node>
        <Node pos="r" depth="2" NCoef="0"     IVar="7" Cut="     1.224930E+02" cType="1"     res="     0.000000E+00" rms="0.0"     purity="0.00000000E+00" nType="0">
            <Node pos="l" depth="3" NCoef="0"     IVar="-1" Cut="     0.000000E+00" cType="1"     res="    -7.423380E-03" rms="0.0e-00"     purity="0.00000000E+00" nType="-99">
            </Node>
            <Node pos="r" depth="3" NCoef="0"     IVar="-1" Cut="     0.000000E+00" cType="1"     res="    -1.494900E-02" rms="0.0e-00"     purity="0.00000000E+00" nType="-99">
            </Node>
        </Node>
    </Node>
</BinaryTree>
<BinaryTree type="DecisionTree" boostWeight="0.0" itree="33">
    <Node pos="c" depth="1" NCoef="0"     IVar="2" Cut="     1.274400E-01" cType="1"     res="     0.000000E+00" rms="0.0"     purity="0.00000000E+00" nType="0">
        <Node pos="l" depth="2" NCoef="0"     IVar="12" Cut="     2.000000E+00" cType="1"     res="     0.000000E+00" rms="0.0"     purity="0.00000000E+00" nType="0">
            <Node pos="l" depth="3" NCoef="0"     IVar="-1" Cut="     0.000000E+00" cType="1"     res="    -4.746300E-03" rms="0.0e-00"     purity="0.00000000E+00" nType="-99">
            </Node>
            <Node pos="r" depth="3" NCoef="0"     IVar="-1" Cut="     0.000000E+00" cType="1"     res="    -1.516330E-02" rms="0.0e-00"     purity="0.00000000E+00" nType="-99">
            </Node>
        </Node>
        <Node pos="r" depth="2" NCoef="0"     IVar="7" Cut="     1.180720E+02" cType="1"     res="     0.000000E+00" rms="0.0"     purity="0.00000000E+00" nType="0">
            <Node pos="l" depth="3" NCoef="0"     IVar="-1" Cut="     0.000000E+00" cType="1"     res="     1.180850E-02" rms="0.0e-00"     purity="0.00000000E+00" nType="-99">
            </Node>
            <Node pos="r" depth="3" NCoef="0"     IVar="-1" Cut="     0.000000E+00" cType="1"     res="    -1.214780E-02" rms="0.0e-00"     purity="0.00000000E+00" nType="-99">
            </Node>
        </Node>
    </Node>
</BinaryTree>
<BinaryTree type="DecisionTree" boostWeight="0.0" itree="34">
    <Node pos="c" depth="1" NCoef="0"     IVar="7" Cut="     1.071160E+02" cType="1"     res="     0.000000E+00" rms="0.0"     purity="0.00000000E+00" nType="0">
        <Node pos="l" depth="2" NCoef="0"     IVar="4" Cut="     6.625970E-01" cType="1"     res="     0.000000E+00" rms="0.0"     purity="0.00000000E+00" nType="0">
            <Node pos="l" depth="3" NCoef="0"     IVar="-1" Cut="     0.000000E+00" cType="1"     res="     9.847950E-03" rms="0.0e-00"     purity="0.00000000E+00" nType="-99">
            </Node>
            <Node pos="r" depth="3" NCoef="0"     IVar="-1" Cut="     0.000000E+00" cType="1"     res="    -1.360810E-02" rms="0.0e-00"     purity="0.00000000E+00" nType="-99">
            </Node>
        </Node>
        <Node pos="r" depth="2" NCoef="0"     IVar="2" Cut="     3.740220E-01" cType="1"     res="     0.000000E+00" rms="0.0"     purity="0.00000000E+00" nType="0">
            <Node pos="l" depth="3" NCoef="0"     IVar="-1" Cut="     0.000000E+00" cType="1"     res="    -1.499350E-02" rms="0.0e-00"     purity="0.00000000E+00" nType="-99">
            </Node>
            <Node pos="r" depth="3" NCoef="0"     IVar="-1" Cut="     0.000000E+00" cType="1"     res="    -8.015160E-03" rms="0.0e-00"     purity="0.00000000E+00" nType="-99">
            </Node>
        </Node>
    </Node>
</BinaryTree>
<BinaryTree type="DecisionTree" boostWeight="0.0" itree="35">
    <Node pos="c" depth="1" NCoef="0"     IVar="2" Cut="     1.271960E-01" cType="1"     res="     0.000000E+00" rms="0.0"     purity="0.00000000E+00" nType="0">
        <Node pos="l" depth="2" NCoef="0"     IVar="12" Cut="     2.000000E+00" cType="1"     res="     0.000000E+00" rms="0.0"     purity="0.00000000E+00" nType="0">
            <Node pos="l" depth="3" NCoef="0"     IVar="-1" Cut="     0.000000E+00" cType="1"     res="    -4.690300E-03" rms="0.0e-00"     purity="0.00000000E+00" nType="-99">
            </Node>
            <Node pos="r" depth="3" NCoef="0"     IVar="-1" Cut="     0.000000E+00" cType="1"     res="    -1.500060E-02" rms="0.0e-00"     purity="0.00000000E+00" nType="-99">
            </Node>
        </Node>
        <Node pos="r" depth="2" NCoef="0"     IVar="0" Cut="     7.079980E-02" cType="1"     res="     0.000000E+00" rms="0.0"     purity="0.00000000E+00" nType="0">
            <Node pos="l" depth="3" NCoef="0"     IVar="-1" Cut="     0.000000E+00" cType="1"     res="    -7.175270E-03" rms="0.0e-00"     purity="0.00000000E+00" nType="-99">
            </Node>
            <Node pos="r" depth="3" NCoef="0"     IVar="-1" Cut="     0.000000E+00" cType="1"     res="     1.284360E-02" rms="0.0e-00"     purity="0.00000000E+00" nType="-99">
            </Node>
        </Node>
    </Node>
</BinaryTree>
<BinaryTree type="DecisionTree" boostWeight="0.0" itree="36">
    <Node pos="c" depth="1" NCoef="0"     IVar="7" Cut="     1.104380E+02" cType="1"     res="     0.000000E+00" rms="0.0"     purity="0.00000000E+00" nType="0">
        <Node pos="l" depth="2" NCoef="0"     IVar="4" Cut="     6.562490E-01" cType="1"     res="     0.000000E+00" rms="0.0"     purity="0.00000000E+00" nType="0">
            <Node pos="l" depth="3" NCoef="0"     IVar="-1" Cut="     0.000000E+00" cType="1"     res="     9.642650E-03" rms="0.0e-00"     purity="0.00000000E+00" nType="-99">
            </Node>
            <Node pos="r" depth="3" NCoef="0"     IVar="-1" Cut="     0.000000E+00" cType="1"     res="    -1.353300E-02" rms="0.0e-00"     purity="0.00000000E+00" nType="-99">
            </Node>
        </Node>
        <Node pos="r" depth="2" NCoef="0"     IVar="2" Cut="     3.740220E-01" cType="1"     res="     0.000000E+00" rms="0.0"     purity="0.00000000E+00" nType="0">
            <Node pos="l" depth="3" NCoef="0"     IVar="-1" Cut="     0.000000E+00" cType="1"     res="    -1.503630E-02" rms="0.0e-00"     purity="0.00000000E+00" nType="-99">
            </Node>
            <Node pos="r" depth="3" NCoef="0"     IVar="-1" Cut="     0.000000E+00" cType="1"     res="    -9.341340E-03" rms="0.0e-00"     purity="0.00000000E+00" nType="-99">
            </Node>
        </Node>
    </Node>
</BinaryTree>
<BinaryTree type="DecisionTree" boostWeight="0.0" itree="37">
    <Node pos="c" depth="1" NCoef="0"     IVar="2" Cut="     1.556390E-01" cType="1"     res="     0.000000E+00" rms="0.0"     purity="0.00000000E+00" nType="0">
        <Node pos="l" depth="2" NCoef="0"     IVar="0" Cut="     2.609850E-01" cType="1"     res="     0.000000E+00" rms="0.0"     purity="0.00000000E+00" nType="0">
            <Node pos="l" depth="3" NCoef="0"     IVar="-1" Cut="     0.000000E+00" cType="1"     res="    -1.576310E-02" rms="0.0e-00"     purity="0.00000000E+00" nType="-99">
            </Node>
            <Node pos="r" depth="3" NCoef="0"     IVar="-1" Cut="     0.000000E+00" cType="1"     res="    -5.058800E-03" rms="0.0e-00"     purity="0.00000000E+00" nType="-99">
            </Node>
        </Node>
        <Node pos="r" depth="2" NCoef="0"     IVar="0" Cut="     7.104390E-02" cType="1"     res="     0.000000E+00" rms="0.0"     purity="0.00000000E+00" nType="0">
            <Node pos="l" depth="3" NCoef="0"     IVar="-1" Cut="     0.000000E+00" cType="1"     res="    -6.815740E-03" rms="0.0e-00"     purity="0.00000000E+00" nType="-99">
            </Node>
            <Node pos="r" depth="3" NCoef="0"     IVar="-1" Cut="     0.000000E+00" cType="1"     res="     1.288170E-02" rms="0.0e-00"     purity="0.00000000E+00" nType="-99">
            </Node>
        </Node>
    </Node>
</BinaryTree>
<BinaryTree type="DecisionTree" boostWeight="0.0" itree="38">
    <Node pos="c" depth="1" NCoef="0"     IVar="7" Cut="     1.071160E+02" cType="1"     res="     0.000000E+00" rms="0.0"     purity="0.00000000E+00" nType="0">
        <Node pos="l" depth="2" NCoef="0"     IVar="4" Cut="     6.625970E-01" cType="1"     res="     0.000000E+00" rms="0.0"     purity="0.00000000E+00" nType="0">
            <Node pos="l" depth="3" NCoef="0"     IVar="-1" Cut="     0.000000E+00" cType="1"     res="     9.609790E-03" rms="0.0e-00"     purity="0.00000000E+00" nType="-99">
            </Node>
            <Node pos="r" depth="3" NCoef="0"     IVar="-1" Cut="     0.000000E+00" cType="1"     res="    -1.327910E-02" rms="0.0e-00"     purity="0.00000000E+00" nType="-99">
            </Node>
        </Node>
        <Node pos="r" depth="2" NCoef="0"     IVar="7" Cut="     1.222960E+02" cType="1"     res="     0.000000E+00" rms="0.0"     purity="0.00000000E+00" nType="0">
            <Node pos="l" depth="3" NCoef="0"     IVar="-1" Cut="     0.000000E+00" cType="1"     res="    -6.999470E-03" rms="0.0e-00"     purity="0.00000000E+00" nType="-99">
            </Node>
            <Node pos="r" depth="3" NCoef="0"     IVar="-1" Cut="     0.000000E+00" cType="1"     res="    -1.450250E-02" rms="0.0e-00"     purity="0.00000000E+00" nType="-99">
            </Node>
        </Node>
    </Node>
</BinaryTree>
<BinaryTree type="DecisionTree" boostWeight="0.0" itree="39">
    <Node pos="c" depth="1" NCoef="0"     IVar="2" Cut="     1.254870E-01" cType="1"     res="     0.000000E+00" rms="0.0"     purity="0.00000000E+00" nType="0">
        <Node pos="l" depth="2" NCoef="0"     IVar="12" Cut="     2.000000E+00" cType="1"     res="     0.000000E+00" rms="0.0"     purity="0.00000000E+00" nType="0">
            <Node pos="l" depth="3" NCoef="0"     IVar="-1" Cut="     0.000000E+00" cType="1"     res="    -4.554520E-03" rms="0.0e-00"     purity="0.00000000E+00" nType="-99">
            </Node>
            <Node pos="r" depth="3" NCoef="0"     IVar="-1" Cut="     0.000000E+00" cType="1"     res="    -1.474480E-02" rms="0.0e-00"     purity="0.00000000E+00" nType="-99">
            </Node>
        </Node>
        <Node pos="r" depth="2" NCoef="0"     IVar="0" Cut="     7.079980E-02" cType="1"     res="     0.000000E+00" rms="0.0"     purity="0.00000000E+00" nType="0">
            <Node pos="l" depth="3" NCoef="0"     IVar="-1" Cut="     0.000000E+00" cType="1"     res="    -7.030670E-03" rms="0.0e-00"     purity="0.00000000E+00" nType="-99">
            </Node>
            <Node pos="r" depth="3" NCoef="0"     IVar="-1" Cut="     0.000000E+00" cType="1"     res="     1.255480E-02" rms="0.0e-00"     purity="0.00000000E+00" nType="-99">
            </Node>
        </Node>
    </Node>
</BinaryTree>
<BinaryTree type="DecisionTree" boostWeight="0.0" itree="40">
    <Node pos="c" depth="1" NCoef="0"     IVar="7" Cut="     1.069480E+02" cType="1"     res="     0.000000E+00" rms="0.0"     purity="0.00000000E+00" nType="0">
        <Node pos="l" depth="2" NCoef="0"     IVar="4" Cut="     6.596670E-01" cType="1"     res="     0.000000E+00" rms="0.0"     purity="0.00000000E+00" nType="0">
            <Node pos="l" depth="3" NCoef="0"     IVar="-1" Cut="     0.000000E+00" cType="1"     res="     9.510180E-03" rms="0.0e-00"     purity="0.00000000E+00" nType="-99">
            </Node>
            <Node pos="r" depth="3" NCoef="0"     IVar="-1" Cut="     0.000000E+00" cType="1"     res="    -1.309000E-02" rms="0.0e-00"     purity="0.00000000E+00" nType="-99">
            </Node>
        </Node>
        <Node pos="r" depth="2" NCoef="0"     IVar="7" Cut="     1.220650E+02" cType="1"     res="     0.000000E+00" rms="0.0"     purity="0.00000000E+00" nType="0">
            <Node pos="l" depth="3" NCoef="0"     IVar="-1" Cut="     0.000000E+00" cType="1"     res="    -6.792030E-03" rms="0.0e-00"     purity="0.00000000E+00" nType="-99">
            </Node>
            <Node pos="r" depth="3" NCoef="0"     IVar="-1" Cut="     0.000000E+00" cType="1"     res="    -1.436440E-02" rms="0.0e-00"     purity="0.00000000E+00" nType="-99">
            </Node>
        </Node>
    </Node>
</BinaryTree>
<BinaryTree type="DecisionTree" boostWeight="0.0" itree="41">
    <Node pos="c" depth="1" NCoef="0"     IVar="2" Cut="     1.571030E-01" cType="1"     res="     0.000000E+00" rms="0.0"     purity="0.00000000E+00" nType="0">
        <Node pos="l" depth="2" NCoef="0"     IVar="0" Cut="     2.609850E-01" cType="1"     res="     0.000000E+00" rms="0.0"     purity="0.00000000E+00" nType="0">
            <Node pos="l" depth="3" NCoef="0"     IVar="-1" Cut="     0.000000E+00" cType="1"     res="    -1.552180E-02" rms="0.0e-00"     purity="0.00000000E+00" nType="-99">
            </Node>
            <Node pos="r" depth="3" NCoef="0"     IVar="-1" Cut="     0.000000E+00" cType="1"     res="    -4.882250E-03" rms="0.0e-00"     purity="0.00000000E+00" nType="-99">
            </Node>
        </Node>
        <Node pos="r" depth="2" NCoef="0"     IVar="0" Cut="     5.877590E-02" cType="1"     res="     0.000000E+00" rms="0.0"     purity="0.00000000E+00" nType="0">
            <Node pos="l" depth="3" NCoef="0"     IVar="-1" Cut="     0.000000E+00" cType="1"     res="    -7.095570E-03" rms="0.0e-00"     purity="0.00000000E+00" nType="-99">
            </Node>
            <Node pos="r" depth="3" NCoef="0"     IVar="-1" Cut="     0.000000E+00" cType="1"     res="     1.248750E-02" rms="0.0e-00"     purity="0.00000000E+00" nType="-99">
            </Node>
        </Node>
    </Node>
</BinaryTree>
<BinaryTree type="DecisionTree" boostWeight="0.0" itree="42">
    <Node pos="c" depth="1" NCoef="0"     IVar="7" Cut="     1.070530E+02" cType="1"     res="     0.000000E+00" rms="0.0"     purity="0.00000000E+00" nType="0">
        <Node pos="l" depth="2" NCoef="0"     IVar="4" Cut="     6.577140E-01" cType="1"     res="     0.000000E+00" rms="0.0"     purity="0.00000000E+00" nType="0">
            <Node pos="l" depth="3" NCoef="0"     IVar="-1" Cut="     0.000000E+00" cType="1"     res="     9.398470E-03" rms="0.0e-00"     purity="0.00000000E+00" nType="-99">
            </Node>
            <Node pos="r" depth="3" NCoef="0"     IVar="-1" Cut="     0.000000E+00" cType="1"     res="    -1.293530E-02" rms="0.0e-00"     purity="0.00000000E+00" nType="-99">
            </Node>
        </Node>
        <Node pos="r" depth="2" NCoef="0"     IVar="7" Cut="     1.214730E+02" cType="1"     res="     0.000000E+00" rms="0.0"     purity="0.00000000E+00" nType="0">
            <Node pos="l" depth="3" NCoef="0"     IVar="-1" Cut="     0.000000E+00" cType="1"     res="    -6.641530E-03" rms="0.0e-00"     purity="0.00000000E+00" nType="-99">
            </Node>
            <Node pos="r" depth="3" NCoef="0"     IVar="-1" Cut="     0.000000E+00" cType="1"     res="    -1.420450E-02" rms="0.0e-00"     purity="0.00000000E+00" nType="-99">
            </Node>
        </Node>
    </Node>
</BinaryTree>
<BinaryTree type="DecisionTree" boostWeight="0.0" itree="43">
    <Node pos="c" depth="1" NCoef="0"     IVar="2" Cut="     1.260980E-01" cType="1"     res="     0.000000E+00" rms="0.0"     purity="0.00000000E+00" nType="0">
        <Node pos="l" depth="2" NCoef="0"     IVar="0" Cut="     2.617180E-01" cType="1"     res="     0.000000E+00" rms="0.0"     purity="0.00000000E+00" nType="0">
            <Node pos="l" depth="3" NCoef="0"     IVar="-1" Cut="     0.000000E+00" cType="1"     res="    -1.540170E-02" rms="0.0e-00"     purity="0.00000000E+00" nType="-99">
            </Node>
            <Node pos="r" depth="3" NCoef="0"     IVar="-1" Cut="     0.000000E+00" cType="1"     res="    -5.275520E-03" rms="0.0e-00"     purity="0.00000000E+00" nType="-99">
            </Node>
        </Node>
        <Node pos="r" depth="2" NCoef="0"     IVar="0" Cut="     7.104390E-02" cType="1"     res="     0.000000E+00" rms="0.0"     purity="0.00000000E+00" nType="0">
            <Node pos="l" depth="3" NCoef="0"     IVar="-1" Cut="     0.000000E+00" cType="1"     res="    -6.845480E-03" rms="0.0e-00"     purity="0.00000000E+00" nType="-99">
            </Node>
            <Node pos="r" depth="3" NCoef="0"     IVar="-1" Cut="     0.000000E+00" cType="1"     res="     1.230360E-02" rms="0.0e-00"     purity="0.00000000E+00" nType="-99">
            </Node>
        </Node>
    </Node>
</BinaryTree>
<BinaryTree type="DecisionTree" boostWeight="0.0" itree="44">
    <Node pos="c" depth="1" NCoef="0"     IVar="7" Cut="     1.099620E+02" cType="1"     res="     0.000000E+00" rms="0.0"     purity="0.00000000E+00" nType="0">
        <Node pos="l" depth="2" NCoef="0"     IVar="4" Cut="     5.249010E-01" cType="1"     res="     0.000000E+00" rms="0.0"     purity="0.00000000E+00" nType="0">
            <Node pos="l" depth="3" NCoef="0"     IVar="-1" Cut="     0.000000E+00" cType="1"     res="     9.527180E-03" rms="0.0e-00"     purity="0.00000000E+00" nType="-99">
            </Node>
            <Node pos="r" depth="3" NCoef="0"     IVar="-1" Cut="     0.000000E+00" cType="1"     res="    -1.131140E-02" rms="0.0e-00"     purity="0.00000000E+00" nType="-99">
            </Node>
        </Node>
        <Node pos="r" depth="2" NCoef="0"     IVar="2" Cut="     3.723130E-01" cType="1"     res="     0.000000E+00" rms="0.0"     purity="0.00000000E+00" nType="0">
            <Node pos="l" depth="3" NCoef="0"     IVar="-1" Cut="     0.000000E+00" cType="1"     res="    -1.446750E-02" rms="0.0e-00"     purity="0.00000000E+00" nType="-99">
            </Node>
            <Node pos="r" depth="3" NCoef="0"     IVar="-1" Cut="     0.000000E+00" cType="1"     res="    -8.814430E-03" rms="0.0e-00"     purity="0.00000000E+00" nType="-99">
            </Node>
        </Node>
    </Node>
</BinaryTree>
<BinaryTree type="DecisionTree" boostWeight="0.0" itree="45">
    <Node pos="c" depth="1" NCoef="0"     IVar="7" Cut="     1.068330E+02" cType="1"     res="     0.000000E+00" rms="0.0"     purity="0.00000000E+00" nType="0">
        <Node pos="l" depth="2" NCoef="0"     IVar="2" Cut="     8.856100E-02" cType="1"     res="     0.000000E+00" rms="0.0"     purity="0.00000000E+00" nType="0">
            <Node pos="l" depth="3" NCoef="0"     IVar="-1" Cut="     0.000000E+00" cType="1"     res="    -5.835660E-03" rms="0.0e-00"     purity="0.00000000E+00" nType="-99">
            </Node>
            <Node pos="r" depth="3" NCoef="0"     IVar="-1" Cut="     0.000000E+00" cType="1"     res="     1.114840E-02" rms="0.0e-00"     purity="0.00000000E+00" nType="-99">
            </Node>
        </Node>
        <Node pos="r" depth="2" NCoef="0"     IVar="7" Cut="     1.266160E+02" cType="1"     res="     0.000000E+00" rms="0.0"     purity="0.00000000E+00" nType="0">
            <Node pos="l" depth="3" NCoef="0"     IVar="-1" Cut="     0.000000E+00" cType="1"     res="    -7.261010E-03" rms="0.0e-00"     purity="0.00000000E+00" nType="-99">
            </Node>
            <Node pos="r" depth="3" NCoef="0"     IVar="-1" Cut="     0.000000E+00" cType="1"     res="    -1.423410E-02" rms="0.0e-00"     purity="0.00000000E+00" nType="-99">
            </Node>
        </Node>
    </Node>
</BinaryTree>
<BinaryTree type="DecisionTree" boostWeight="0.0" itree="46">
    <Node pos="c" depth="1" NCoef="0"     IVar="2" Cut="     1.579580E-01" cType="1"     res="     0.000000E+00" rms="0.0"     purity="0.00000000E+00" nType="0">
        <Node pos="l" depth="2" NCoef="0"     IVar="0" Cut="     2.631830E-01" cType="1"     res="     0.000000E+00" rms="0.0"     purity="0.00000000E+00" nType="0">
            <Node pos="l" depth="3" NCoef="0"     IVar="-1" Cut="     0.000000E+00" cType="1"     res="    -1.520550E-02" rms="0.0e-00"     purity="0.00000000E+00" nType="-99">
            </Node>
            <Node pos="r" depth="3" NCoef="0"     IVar="-1" Cut="     0.000000E+00" cType="1"     res="    -4.686250E-03" rms="0.0e-00"     purity="0.00000000E+00" nType="-99">
            </Node>
        </Node>
        <Node pos="r" depth="2" NCoef="0"     IVar="0" Cut="     5.874530E-02" cType="1"     res="     0.000000E+00" rms="0.0"     purity="0.00000000E+00" nType="0">
            <Node pos="l" depth="3" NCoef="0"     IVar="-1" Cut="     0.000000E+00" cType="1"     res="    -6.962740E-03" rms="0.0e-00"     purity="0.00000000E+00" nType="-99">
            </Node>
            <Node pos="r" depth="3" NCoef="0"     IVar="-1" Cut="     0.000000E+00" cType="1"     res="     1.218380E-02" rms="0.0e-00"     purity="0.00000000E+00" nType="-99">
            </Node>
        </Node>
    </Node>
</BinaryTree>
<BinaryTree type="DecisionTree" boostWeight="0.0" itree="47">
    <Node pos="c" depth="1" NCoef="0"     IVar="7" Cut="     1.099150E+02" cType="1"     res="     0.000000E+00" rms="0.0"     purity="0.00000000E+00" nType="0">
        <Node pos="l" depth="2" NCoef="0"     IVar="4" Cut="     6.567370E-01" cType="1"     res="     0.000000E+00" rms="0.0"     purity="0.00000000E+00" nType="0">
            <Node pos="l" depth="3" NCoef="0"     IVar="-1" Cut="     0.000000E+00" cType="1"     res="     9.052930E-03" rms="0.0e-00"     purity="0.00000000E+00" nType="-99">
            </Node>
            <Node pos="r" depth="3" NCoef="0"     IVar="-1" Cut="     0.000000E+00" cType="1"     res="    -1.279180E-02" rms="0.0e-00"     purity="0.00000000E+00" nType="-99">
            </Node>
        </Node>
        <Node pos="r" depth="2" NCoef="0"     IVar="4" Cut="     3.008930E-02" cType="1"     res="     0.000000E+00" rms="0.0"     purity="0.00000000E+00" nType="0">
            <Node pos="l" depth="3" NCoef="0"     IVar="-1" Cut="     0.000000E+00" cType="1"     res="    -6.793470E-03" rms="0.0e-00"     purity="0.00000000E+00" nType="-99">
            </Node>
            <Node pos="r" depth="3" NCoef="0"     IVar="-1" Cut="     0.000000E+00" cType="1"     res="    -1.386710E-02" rms="0.0e-00"     purity="0.00000000E+00" nType="-99">
            </Node>
        </Node>
    </Node>
</BinaryTree>
<BinaryTree type="DecisionTree" boostWeight="0.0" itree="48">
    <Node pos="c" depth="1" NCoef="0"     IVar="7" Cut="     1.065410E+02" cType="1"     res="     0.000000E+00" rms="0.0"     purity="0.00000000E+00" nType="0">
        <Node pos="l" depth="2" NCoef="0"     IVar="2" Cut="     8.782860E-02" cType="1"     res="     0.000000E+00" rms="0.0"     purity="0.00000000E+00" nType="0">
            <Node pos="l" depth="3" NCoef="0"     IVar="-1" Cut="     0.000000E+00" cType="1"     res="    -5.707050E-03" rms="0.0e-00"     purity="0.00000000E+00" nType="-99">
            </Node>
            <Node pos="r" depth="3" NCoef="0"     IVar="-1" Cut="     0.000000E+00" cType="1"     res="     1.096190E-02" rms="0.0e-00"     purity="0.00000000E+00" nType="-99">
            </Node>
        </Node>
        <Node pos="r" depth="2" NCoef="0"     IVar="7" Cut="     1.265990E+02" cType="1"     res="     0.000000E+00" rms="0.0"     purity="0.00000000E+00" nType="0">
            <Node pos="l" depth="3" NCoef="0"     IVar="-1" Cut="     0.000000E+00" cType="1"     res="    -7.029570E-03" rms="0.0e-00"     purity="0.00000000E+00" nType="-99">
            </Node>
            <Node pos="r" depth="3" NCoef="0"     IVar="-1" Cut="     0.000000E+00" cType="1"     res="    -1.403690E-02" rms="0.0e-00"     purity="0.00000000E+00" nType="-99">
            </Node>
        </Node>
    </Node>
</BinaryTree>
<BinaryTree type="DecisionTree" boostWeight="0.0" itree="49">
    <Node pos="c" depth="1" NCoef="0"     IVar="2" Cut="     1.585680E-01" cType="1"     res="     0.000000E+00" rms="0.0"     purity="0.00000000E+00" nType="0">
        <Node pos="l" depth="2" NCoef="0"     IVar="12" Cut="     2.000000E+00" cType="1"     res="     0.000000E+00" rms="0.0"     purity="0.00000000E+00" nType="0">
            <Node pos="l" depth="3" NCoef="0"     IVar="-1" Cut="     0.000000E+00" cType="1"     res="    -3.636290E-03" rms="0.0e-00"     purity="0.00000000E+00" nType="-99">
            </Node>
            <Node pos="r" depth="3" NCoef="0"     IVar="-1" Cut="     0.000000E+00" cType="1"     res="    -1.413780E-02" rms="0.0e-00"     purity="0.00000000E+00" nType="-99">
            </Node>
        </Node>
        <Node pos="r" depth="2" NCoef="0"     IVar="0" Cut="     7.208150E-02" cType="1"     res="     0.000000E+00" rms="0.0"     purity="0.00000000E+00" nType="0">
            <Node pos="l" depth="3" NCoef="0"     IVar="-1" Cut="     0.000000E+00" cType="1"     res="    -6.426260E-03" rms="0.0e-00"     purity="0.00000000E+00" nType="-99">
            </Node>
            <Node pos="r" depth="3" NCoef="0"     IVar="-1" Cut="     0.000000E+00" cType="1"     res="     1.215930E-02" rms="0.0e-00"     purity="0.00000000E+00" nType="-99">
            </Node>
        </Node>
    </Node>
</BinaryTree>
<BinaryTree type="DecisionTree" boostWeight="0.0" itree="50">
    <Node pos="c" depth="1" NCoef="0"     IVar="7" Cut="     1.097770E+02" cType="1"     res="     0.000000E+00" rms="0.0"     purity="0.00000000E+00" nType="0">
        <Node pos="l" depth="2" NCoef="0"     IVar="4" Cut="     5.249010E-01" cType="1"     res="     0.000000E+00" rms="0.0"     purity="0.00000000E+00" nType="0">
            <Node pos="l" depth="3" NCoef="0"     IVar="-1" Cut="     0.000000E+00" cType="1"     res="     9.220260E-03" rms="0.0e-00"     purity="0.00000000E+00" nType="-99">
            </Node>
            <Node pos="r" depth="3" NCoef="0"     IVar="-1" Cut="     0.000000E+00" cType="1"     res="    -1.107470E-02" rms="0.0e-00"     purity="0.00000000E+00" nType="-99">
            </Node>
        </Node>
        <Node pos="r" depth="2" NCoef="0"     IVar="7" Cut="     1.315460E+02" cType="1"     res="     0.000000E+00" rms="0.0"     purity="0.00000000E+00" nType="0">
            <Node pos="l" depth="3" NCoef="0"     IVar="-1" Cut="     0.000000E+00" cType="1"     res="    -8.486540E-03" rms="0.0e-00"     purity="0.00000000E+00" nType="-99">
            </Node>
            <Node pos="r" depth="3" NCoef="0"     IVar="-1" Cut="     0.000000E+00" cType="1"     res="    -1.410680E-02" rms="0.0e-00"     purity="0.00000000E+00" nType="-99">
            </Node>
        </Node>
    </Node>
</BinaryTree>
<BinaryTree type="DecisionTree" boostWeight="0.0" itree="51">
    <Node pos="c" depth="1" NCoef="0"     IVar="2" Cut="     1.311030E-01" cType="1"     res="     0.000000E+00" rms="0.0"     purity="0.00000000E+00" nType="0">
        <Node pos="l" depth="2" NCoef="0"     IVar="0" Cut="     2.707510E-01" cType="1"     res="     0.000000E+00" rms="0.0"     purity="0.00000000E+00" nType="0">
            <Node pos="l" depth="3" NCoef="0"     IVar="-1" Cut="     0.000000E+00" cType="1"     res="    -1.495110E-02" rms="0.0e-00"     purity="0.00000000E+00" nType="-99">
            </Node>
            <Node pos="r" depth="3" NCoef="0"     IVar="-1" Cut="     0.000000E+00" cType="1"     res="    -4.819030E-03" rms="0.0e-00"     purity="0.00000000E+00" nType="-99">
            </Node>
        </Node>
        <Node pos="r" depth="2" NCoef="0"     IVar="0" Cut="     5.895900E-02" cType="1"     res="     0.000000E+00" rms="0.0"     purity="0.00000000E+00" nType="0">
            <Node pos="l" depth="3" NCoef="0"     IVar="-1" Cut="     0.000000E+00" cType="1"     res="    -7.059220E-03" rms="0.0e-00"     purity="0.00000000E+00" nType="-99">
            </Node>
            <Node pos="r" depth="3" NCoef="0"     IVar="-1" Cut="     0.000000E+00" cType="1"     res="     1.174060E-02" rms="0.0e-00"     purity="0.00000000E+00" nType="-99">
            </Node>
        </Node>
    </Node>
</BinaryTree>
<BinaryTree type="DecisionTree" boostWeight="0.0" itree="52">
    <Node pos="c" depth="1" NCoef="0"     IVar="7" Cut="     1.097530E+02" cType="1"     res="     0.000000E+00" rms="0.0"     purity="0.00000000E+00" nType="0">
        <Node pos="l" depth="2" NCoef="0"     IVar="4" Cut="     5.209950E-01" cType="1"     res="     0.000000E+00" rms="0.0"     purity="0.00000000E+00" nType="0">
            <Node pos="l" depth="3" NCoef="0"     IVar="-1" Cut="     0.000000E+00" cType="1"     res="     9.125970E-03" rms="0.0e-00"     purity="0.00000000E+00" nType="-99">
            </Node>
            <Node pos="r" depth="3" NCoef="0"     IVar="-1" Cut="     0.000000E+00" cType="1"     res="    -1.090040E-02" rms="0.0e-00"     purity="0.00000000E+00" nType="-99">
            </Node>
        </Node>
        <Node pos="r" depth="2" NCoef="0"     IVar="4" Cut="     2.993670E-02" cType="1"     res="     0.000000E+00" rms="0.0"     purity="0.00000000E+00" nType="0">
            <Node pos="l" depth="3" NCoef="0"     IVar="-1" Cut="     0.000000E+00" cType="1"     res="    -6.435870E-03" rms="0.0e-00"     purity="0.00000000E+00" nType="-99">
            </Node>
            <Node pos="r" depth="3" NCoef="0"     IVar="-1" Cut="     0.000000E+00" cType="1"     res="    -1.354430E-02" rms="0.0e-00"     purity="0.00000000E+00" nType="-99">
            </Node>
        </Node>
    </Node>
</BinaryTree>
<BinaryTree type="DecisionTree" boostWeight="0.0" itree="53">
    <Node pos="c" depth="1" NCoef="0"     IVar="2" Cut="     1.911610E-01" cType="1"     res="     0.000000E+00" rms="0.0"     purity="0.00000000E+00" nType="0">
        <Node pos="l" depth="2" NCoef="0"     IVar="0" Cut="     2.712390E-01" cType="1"     res="     0.000000E+00" rms="0.0"     purity="0.00000000E+00" nType="0">
            <Node pos="l" depth="3" NCoef="0"     IVar="-1" Cut="     0.000000E+00" cType="1"     res="    -1.483320E-02" rms="0.0e-00"     purity="0.00000000E+00" nType="-99">
            </Node>
            <Node pos="r" depth="3" NCoef="0"     IVar="-1" Cut="     0.000000E+00" cType="1"     res="    -4.054050E-03" rms="0.0e-00"     purity="0.00000000E+00" nType="-99">
            </Node>
        </Node>
        <Node pos="r" depth="2" NCoef="0"     IVar="0" Cut="     5.883690E-02" cType="1"     res="     0.000000E+00" rms="0.0"     purity="0.00000000E+00" nType="0">
            <Node pos="l" depth="3" NCoef="0"     IVar="-1" Cut="     0.000000E+00" cType="1"     res="    -6.510950E-03" rms="0.0e-00"     purity="0.00000000E+00" nType="-99">
            </Node>
            <Node pos="r" depth="3" NCoef="0"     IVar="-1" Cut="     0.000000E+00" cType="1"     res="     1.195620E-02" rms="0.0e-00"     purity="0.00000000E+00" nType="-99">
            </Node>
        </Node>
    </Node>
</BinaryTree>
<BinaryTree type="DecisionTree" boostWeight="0.0" itree="54">
    <Node pos="c" depth="1" NCoef="0"     IVar="7" Cut="     1.065330E+02" cType="1"     res="     0.000000E+00" rms="0.0"     purity="0.00000000E+00" nType="0">
        <Node pos="l" depth="2" NCoef="0"     IVar="4" Cut="     6.533190E-01" cType="1"     res="     0.000000E+00" rms="0.0"     purity="0.00000000E+00" nType="0">
            <Node pos="l" depth="3" NCoef="0"     IVar="-1" Cut="     0.000000E+00" cType="1"     res="     8.815030E-03" rms="0.0e-00"     purity="0.00000000E+00" nType="-99">
            </Node>
            <Node pos="r" depth="3" NCoef="0"     IVar="-1" Cut="     0.000000E+00" cType="1"     res="    -1.219470E-02" rms="0.0e-00"     purity="0.00000000E+00" nType="-99">
            </Node>
        </Node>
        <Node pos="r" depth="2" NCoef="0"     IVar="7" Cut="     1.209390E+02" cType="1"     res="     0.000000E+00" rms="0.0"     purity="0.00000000E+00" nType="0">
            <Node pos="l" depth="3" NCoef="0"     IVar="-1" Cut="     0.000000E+00" cType="1"     res="    -5.824430E-03" rms="0.0e-00"     purity="0.00000000E+00" nType="-99">
            </Node>
            <Node pos="r" depth="3" NCoef="0"     IVar="-1" Cut="     0.000000E+00" cType="1"     res="    -1.345920E-02" rms="0.0e-00"     purity="0.00000000E+00" nType="-99">
            </Node>
        </Node>
    </Node>
</BinaryTree>
<BinaryTree type="DecisionTree" boostWeight="0.0" itree="55">
    <Node pos="c" depth="1" NCoef="0"     IVar="7" Cut="     1.037090E+02" cType="1"     res="     0.000000E+00" rms="0.0"     purity="0.00000000E+00" nType="0">
        <Node pos="l" depth="2" NCoef="0"     IVar="2" Cut="     9.020900E-02" cType="1"     res="     0.000000E+00" rms="0.0"     purity="0.00000000E+00" nType="0">
            <Node pos="l" depth="3" NCoef="0"     IVar="-1" Cut="     0.000000E+00" cType="1"     res="    -5.227730E-03" rms="0.0e-00"     purity="0.00000000E+00" nType="-99">
            </Node>
            <Node pos="r" depth="3" NCoef="0"     IVar="-1" Cut="     0.000000E+00" cType="1"     res="     1.071950E-02" rms="0.0e-00"     purity="0.00000000E+00" nType="-99">
            </Node>
        </Node>
        <Node pos="r" depth="2" NCoef="0"     IVar="7" Cut="     1.205060E+02" cType="1"     res="     0.000000E+00" rms="0.0"     purity="0.00000000E+00" nType="0">
            <Node pos="l" depth="3" NCoef="0"     IVar="-1" Cut="     0.000000E+00" cType="1"     res="    -5.167110E-03" rms="0.0e-00"     purity="0.00000000E+00" nType="-99">
            </Node>
            <Node pos="r" depth="3" NCoef="0"     IVar="-1" Cut="     0.000000E+00" cType="1"     res="    -1.334240E-02" rms="0.0e-00"     purity="0.00000000E+00" nType="-99">
            </Node>
        </Node>
    </Node>
</BinaryTree>
<BinaryTree type="DecisionTree" boostWeight="0.0" itree="56">
    <Node pos="c" depth="1" NCoef="0"     IVar="2" Cut="     1.903070E-01" cType="1"     res="     0.000000E+00" rms="0.0"     purity="0.00000000E+00" nType="0">
        <Node pos="l" depth="2" NCoef="0"     IVar="12" Cut="     2.000000E+00" cType="1"     res="     0.000000E+00" rms="0.0"     purity="0.00000000E+00" nType="0">
            <Node pos="l" depth="3" NCoef="0"     IVar="-1" Cut="     0.000000E+00" cType="1"     res="    -3.091190E-03" rms="0.0e-00"     purity="0.00000000E+00" nType="-99">
            </Node>
            <Node pos="r" depth="3" NCoef="0"     IVar="-1" Cut="     0.000000E+00" cType="1"     res="    -1.376280E-02" rms="0.0e-00"     purity="0.00000000E+00" nType="-99">
            </Node>
        </Node>
        <Node pos="r" depth="2" NCoef="0"     IVar="0" Cut="     5.902000E-02" cType="1"     res="     0.000000E+00" rms="0.0"     purity="0.00000000E+00" nType="0">
            <Node pos="l" depth="3" NCoef="0"     IVar="-1" Cut="     0.000000E+00" cType="1"     res="    -6.464780E-03" rms="0.0e-00"     purity="0.00000000E+00" nType="-99">
            </Node>
            <Node pos="r" depth="3" NCoef="0"     IVar="-1" Cut="     0.000000E+00" cType="1"     res="     1.179930E-02" rms="0.0e-00"     purity="0.00000000E+00" nType="-99">
            </Node>
        </Node>
    </Node>
</BinaryTree>
<BinaryTree type="DecisionTree" boostWeight="0.0" itree="57">
    <Node pos="c" depth="1" NCoef="0"     IVar="7" Cut="     1.093440E+02" cType="1"     res="     0.000000E+00" rms="0.0"     purity="0.00000000E+00" nType="0">
        <Node pos="l" depth="2" NCoef="0"     IVar="4" Cut="     6.533190E-01" cType="1"     res="     0.000000E+00" rms="0.0"     purity="0.00000000E+00" nType="0">
            <Node pos="l" depth="3" NCoef="0"     IVar="-1" Cut="     0.000000E+00" cType="1"     res="     8.586900E-03" rms="0.0e-00"     purity="0.00000000E+00" nType="-99">
            </Node>
            <Node pos="r" depth="3" NCoef="0"     IVar="-1" Cut="     0.000000E+00" cType="1"     res="    -1.221260E-02" rms="0.0e-00"     purity="0.00000000E+00" nType="-99">
            </Node>
        </Node>
        <Node pos="r" depth="2" NCoef="0"     IVar="7" Cut="     1.305960E+02" cType="1"     res="     0.000000E+00" rms="0.0"     purity="0.00000000E+00" nType="0">
            <Node pos="l" depth="3" NCoef="0"     IVar="-1" Cut="     0.000000E+00" cType="1"     res="    -7.881290E-03" rms="0.0e-00"     purity="0.00000000E+00" nType="-99">
            </Node>
            <Node pos="r" depth="3" NCoef="0"     IVar="-1" Cut="     0.000000E+00" cType="1"     res="    -1.368520E-02" rms="0.0e-00"     purity="0.00000000E+00" nType="-99">
            </Node>
        </Node>
    </Node>
</BinaryTree>
<BinaryTree type="DecisionTree" boostWeight="0.0" itree="58">
    <Node pos="c" depth="1" NCoef="0"     IVar="7" Cut="     1.035580E+02" cType="1"     res="     0.000000E+00" rms="0.0"     purity="0.00000000E+00" nType="0">
        <Node pos="l" depth="2" NCoef="0"     IVar="2" Cut="     8.978170E-02" cType="1"     res="     0.000000E+00" rms="0.0"     purity="0.00000000E+00" nType="0">
            <Node pos="l" depth="3" NCoef="0"     IVar="-1" Cut="     0.000000E+00" cType="1"     res="    -5.128120E-03" rms="0.0e-00"     purity="0.00000000E+00" nType="-99">
            </Node>
            <Node pos="r" depth="3" NCoef="0"     IVar="-1" Cut="     0.000000E+00" cType="1"     res="     1.055320E-02" rms="0.0e-00"     purity="0.00000000E+00" nType="-99">
            </Node>
        </Node>
        <Node pos="r" depth="2" NCoef="0"     IVar="7" Cut="     1.255140E+02" cType="1"     res="     0.000000E+00" rms="0.0"     purity="0.00000000E+00" nType="0">
            <Node pos="l" depth="3" NCoef="0"     IVar="-1" Cut="     0.000000E+00" cType="1"     res="    -5.791460E-03" rms="0.0e-00"     purity="0.00000000E+00" nType="-99">
            </Node>
            <Node pos="r" depth="3" NCoef="0"     IVar="-1" Cut="     0.000000E+00" cType="1"     res="    -1.341830E-02" rms="0.0e-00"     purity="0.00000000E+00" nType="-99">
            </Node>
        </Node>
    </Node>
</BinaryTree>
<BinaryTree type="DecisionTree" boostWeight="0.0" itree="59">
    <Node pos="c" depth="1" NCoef="0"     IVar="2" Cut="     1.949450E-01" cType="1"     res="     0.000000E+00" rms="0.0"     purity="0.00000000E+00" nType="0">
        <Node pos="l" depth="2" NCoef="0"     IVar="0" Cut="     2.685540E-01" cType="1"     res="     0.000000E+00" rms="0.0"     purity="0.00000000E+00" nType="0">
            <Node pos="l" depth="3" NCoef="0"     IVar="-1" Cut="     0.000000E+00" cType="1"     res="    -1.458230E-02" rms="0.0e-00"     purity="0.00000000E+00" nType="-99">
            </Node>
            <Node pos="r" depth="3" NCoef="0"     IVar="-1" Cut="     0.000000E+00" cType="1"     res="    -3.777660E-03" rms="0.0e-00"     purity="0.00000000E+00" nType="-99">
            </Node>
        </Node>
        <Node pos="r" depth="2" NCoef="0"     IVar="0" Cut="     7.202050E-02" cType="1"     res="     0.000000E+00" rms="0.0"     purity="0.00000000E+00" nType="0">
            <Node pos="l" depth="3" NCoef="0"     IVar="-1" Cut="     0.000000E+00" cType="1"     res="    -5.935760E-03" rms="0.0e-00"     purity="0.00000000E+00" nType="-99">
            </Node>
            <Node pos="r" depth="3" NCoef="0"     IVar="-1" Cut="     0.000000E+00" cType="1"     res="     1.180500E-02" rms="0.0e-00"     purity="0.00000000E+00" nType="-99">
            </Node>
        </Node>
    </Node>
</BinaryTree>
<BinaryTree type="DecisionTree" boostWeight="0.0" itree="60">
    <Node pos="c" depth="1" NCoef="0"     IVar="7" Cut="     1.092550E+02" cType="1"     res="     0.000000E+00" rms="0.0"     purity="0.00000000E+00" nType="0">
        <Node pos="l" depth="2" NCoef="0"     IVar="4" Cut="     5.200190E-01" cType="1"     res="     0.000000E+00" rms="0.0"     purity="0.00000000E+00" nType="0">
            <Node pos="l" depth="3" NCoef="0"     IVar="-1" Cut="     0.000000E+00" cType="1"     res="     8.761430E-03" rms="0.0e-00"     purity="0.00000000E+00" nType="-99">
            </Node>
            <Node pos="r" depth="3" NCoef="0"     IVar="-1" Cut="     0.000000E+00" cType="1"     res="    -1.055880E-02" rms="0.0e-00"     purity="0.00000000E+00" nType="-99">
            </Node>
        </Node>
        <Node pos="r" depth="2" NCoef="0"     IVar="4" Cut="     2.990620E-02" cType="1"     res="     0.000000E+00" rms="0.0"     purity="0.00000000E+00" nType="0">
            <Node pos="l" depth="3" NCoef="0"     IVar="-1" Cut="     0.000000E+00" cType="1"     res="    -5.768020E-03" rms="0.0e-00"     purity="0.00000000E+00" nType="-99">
            </Node>
            <Node pos="r" depth="3" NCoef="0"     IVar="-1" Cut="     0.000000E+00" cType="1"     res="    -1.306610E-02" rms="0.0e-00"     purity="0.00000000E+00" nType="-99">
            </Node>
        </Node>
    </Node>
</BinaryTree>
<BinaryTree type="DecisionTree" boostWeight="0.0" itree="61">
    <Node pos="c" depth="1" NCoef="0"     IVar="2" Cut="     1.881090E-01" cType="1"     res="     0.000000E+00" rms="0.0"     purity="0.00000000E+00" nType="0">
        <Node pos="l" depth="2" NCoef="0"     IVar="0" Cut="     2.707510E-01" cType="1"     res="     0.000000E+00" rms="0.0"     purity="0.00000000E+00" nType="0">
            <Node pos="l" depth="3" NCoef="0"     IVar="-1" Cut="     0.000000E+00" cType="1"     res="    -1.447210E-02" rms="0.0e-00"     purity="0.00000000E+00" nType="-99">
            </Node>
            <Node pos="r" depth="3" NCoef="0"     IVar="-1" Cut="     0.000000E+00" cType="1"     res="    -3.798210E-03" rms="0.0e-00"     purity="0.00000000E+00" nType="-99">
            </Node>
        </Node>
        <Node pos="r" depth="2" NCoef="0"     IVar="0" Cut="     7.324120E-02" cType="1"     res="     0.000000E+00" rms="0.0"     purity="0.00000000E+00" nType="0">
            <Node pos="l" depth="3" NCoef="0"     IVar="-1" Cut="     0.000000E+00" cType="1"     res="    -5.882640E-03" rms="0.0e-00"     purity="0.00000000E+00" nType="-99">
            </Node>
            <Node pos="r" depth="3" NCoef="0"     IVar="-1" Cut="     0.000000E+00" cType="1"     res="     1.168180E-02" rms="0.0e-00"     purity="0.00000000E+00" nType="-99">
            </Node>
        </Node>
    </Node>
</BinaryTree>
<BinaryTree type="DecisionTree" boostWeight="0.0" itree="62">
    <Node pos="c" depth="1" NCoef="0"     IVar="7" Cut="     1.034030E+02" cType="1"     res="     0.000000E+00" rms="0.0"     purity="0.00000000E+00" nType="0">
        <Node pos="l" depth="2" NCoef="0"     IVar="4" Cut="     7.197260E-01" cType="1"     res="     0.000000E+00" rms="0.0"     purity="0.00000000E+00" nType="0">
            <Node pos="l" depth="3" NCoef="0"     IVar="-1" Cut="     0.000000E+00" cType="1"     res="     8.441850E-03" rms="0.0e-00"     purity="0.00000000E+00" nType="-99">
            </Node>
            <Node pos="r" depth="3" NCoef="0"     IVar="-1" Cut="     0.000000E+00" cType="1"     res="    -1.253730E-02" rms="0.0e-00"     purity="0.00000000E+00" nType="-99">
            </Node>
        </Node>
        <Node pos="r" depth="2" NCoef="0"     IVar="7" Cut="     1.241630E+02" cType="1"     res="     0.000000E+00" rms="0.0"     purity="0.00000000E+00" nType="0">
            <Node pos="l" depth="3" NCoef="0"     IVar="-1" Cut="     0.000000E+00" cType="1"     res="    -5.417110E-03" rms="0.0e-00"     purity="0.00000000E+00" nType="-99">
            </Node>
            <Node pos="r" depth="3" NCoef="0"     IVar="-1" Cut="     0.000000E+00" cType="1"     res="    -1.317940E-02" rms="0.0e-00"     purity="0.00000000E+00" nType="-99">
            </Node>
        </Node>
    </Node>
</BinaryTree>
<BinaryTree type="DecisionTree" boostWeight="0.0" itree="63">
    <Node pos="c" depth="1" NCoef="0"     IVar="7" Cut="     1.090480E+02" cType="1"     res="     0.000000E+00" rms="0.0"     purity="0.00000000E+00" nType="0">
        <Node pos="l" depth="2" NCoef="0"     IVar="4" Cut="     5.849600E-01" cType="1"     res="     0.000000E+00" rms="0.0"     purity="0.00000000E+00" nType="0">
            <Node pos="l" depth="3" NCoef="0"     IVar="-1" Cut="     0.000000E+00" cType="1"     res="     8.459770E-03" rms="0.0e-00"     purity="0.00000000E+00" nType="-99">
            </Node>
            <Node pos="r" depth="3" NCoef="0"     IVar="-1" Cut="     0.000000E+00" cType="1"     res="    -1.108760E-02" rms="0.0e-00"     purity="0.00000000E+00" nType="-99">
            </Node>
        </Node>
        <Node pos="r" depth="2" NCoef="0"     IVar="7" Cut="     1.298860E+02" cType="1"     res="     0.000000E+00" rms="0.0"     purity="0.00000000E+00" nType="0">
            <Node pos="l" depth="3" NCoef="0"     IVar="-1" Cut="     0.000000E+00" cType="1"     res="    -7.396780E-03" rms="0.0e-00"     purity="0.00000000E+00" nType="-99">
            </Node>
            <Node pos="r" depth="3" NCoef="0"     IVar="-1" Cut="     0.000000E+00" cType="1"     res="    -1.333680E-02" rms="0.0e-00"     purity="0.00000000E+00" nType="-99">
            </Node>
        </Node>
    </Node>
</BinaryTree>
<BinaryTree type="DecisionTree" boostWeight="0.0" itree="64">
    <Node pos="c" depth="1" NCoef="0"     IVar="2" Cut="     1.318350E-01" cType="1"     res="     0.000000E+00" rms="0.0"     purity="0.00000000E+00" nType="0">
        <Node pos="l" depth="2" NCoef="0"     IVar="12" Cut="     2.000000E+00" cType="1"     res="     0.000000E+00" rms="0.0"     purity="0.00000000E+00" nType="0">
            <Node pos="l" depth="3" NCoef="0"     IVar="-1" Cut="     0.000000E+00" cType="1"     res="    -3.432300E-03" rms="0.0e-00"     purity="0.00000000E+00" nType="-99">
            </Node>
            <Node pos="r" depth="3" NCoef="0"     IVar="-1" Cut="     0.000000E+00" cType="1"     res="    -1.351400E-02" rms="0.0e-00"     purity="0.00000000E+00" nType="-99">
            </Node>
        </Node>
        <Node pos="r" depth="2" NCoef="0"     IVar="0" Cut="     8.953760E-02" cType="1"     res="     0.000000E+00" rms="0.0"     purity="0.00000000E+00" nType="0">
            <Node pos="l" depth="3" NCoef="0"     IVar="-1" Cut="     0.000000E+00" cType="1"     res="    -5.847660E-03" rms="0.0e-00"     purity="0.00000000E+00" nType="-99">
            </Node>
            <Node pos="r" depth="3" NCoef="0"     IVar="-1" Cut="     0.000000E+00" cType="1"     res="     1.139610E-02" rms="0.0e-00"     purity="0.00000000E+00" nType="-99">
            </Node>
        </Node>
    </Node>
</BinaryTree>
<BinaryTree type="DecisionTree" boostWeight="0.0" itree="65">
    <Node pos="c" depth="1" NCoef="0"     IVar="2" Cut="     2.387690E-01" cType="1"     res="     0.000000E+00" rms="0.0"     purity="0.00000000E+00" nType="0">
        <Node pos="l" depth="2" NCoef="0"     IVar="0" Cut="     2.722160E-01" cType="1"     res="     0.000000E+00" rms="0.0"     purity="0.00000000E+00" nType="0">
            <Node pos="l" depth="3" NCoef="0"     IVar="-1" Cut="     0.000000E+00" cType="1"     res="    -1.433470E-02" rms="0.0e-00"     purity="0.00000000E+00" nType="-99">
            </Node>
            <Node pos="r" depth="3" NCoef="0"     IVar="-1" Cut="     0.000000E+00" cType="1"     res="    -3.278350E-03" rms="0.0e-00"     purity="0.00000000E+00" nType="-99">
            </Node>
        </Node>
        <Node pos="r" depth="2" NCoef="0"     IVar="0" Cut="     5.013940E-02" cType="1"     res="     0.000000E+00" rms="0.0"     purity="0.00000000E+00" nType="0">
            <Node pos="l" depth="3" NCoef="0"     IVar="-1" Cut="     0.000000E+00" cType="1"     res="    -6.363910E-03" rms="0.0e-00"     purity="0.00000000E+00" nType="-99">
            </Node>
            <Node pos="r" depth="3" NCoef="0"     IVar="-1" Cut="     0.000000E+00" cType="1"     res="     1.142270E-02" rms="0.0e-00"     purity="0.00000000E+00" nType="-99">
            </Node>
        </Node>
    </Node>
</BinaryTree>
<BinaryTree type="DecisionTree" boostWeight="0.0" itree="66">
    <Node pos="c" depth="1" NCoef="0"     IVar="7" Cut="     1.033430E+02" cType="1"     res="     0.000000E+00" rms="0.0"     purity="0.00000000E+00" nType="0">
        <Node pos="l" depth="2" NCoef="0"     IVar="4" Cut="     7.749010E-01" cType="1"     res="     0.000000E+00" rms="0.0"     purity="0.00000000E+00" nType="0">
            <Node pos="l" depth="3" NCoef="0"     IVar="-1" Cut="     0.000000E+00" cType="1"     res="     8.150310E-03" rms="0.0e-00"     purity="0.00000000E+00" nType="-99">
            </Node>
            <Node pos="r" depth="3" NCoef="0"     IVar="-1" Cut="     0.000000E+00" cType="1"     res="    -1.310770E-02" rms="0.0e-00"     purity="0.00000000E+00" nType="-99">
            </Node>
        </Node>
        <Node pos="r" depth="2" NCoef="0"     IVar="7" Cut="     1.245380E+02" cType="1"     res="     0.000000E+00" rms="0.0"     purity="0.00000000E+00" nType="0">
            <Node pos="l" depth="3" NCoef="0"     IVar="-1" Cut="     0.000000E+00" cType="1"     res="    -5.326280E-03" rms="0.0e-00"     purity="0.00000000E+00" nType="-99">
            </Node>
            <Node pos="r" depth="3" NCoef="0"     IVar="-1" Cut="     0.000000E+00" cType="1"     res="    -1.301320E-02" rms="0.0e-00"     purity="0.00000000E+00" nType="-99">
            </Node>
        </Node>
    </Node>
</BinaryTree>
<BinaryTree type="DecisionTree" boostWeight="0.0" itree="67">
    <Node pos="c" depth="1" NCoef="0"     IVar="7" Cut="     1.117260E+02" cType="1"     res="     0.000000E+00" rms="0.0"     purity="0.00000000E+00" nType="0">
        <Node pos="l" depth="2" NCoef="0"     IVar="4" Cut="     5.117180E-01" cType="1"     res="     0.000000E+00" rms="0.0"     purity="0.00000000E+00" nType="0">
            <Node pos="l" depth="3" NCoef="0"     IVar="-1" Cut="     0.000000E+00" cType="1"     res="     8.398630E-03" rms="0.0e-00"     purity="0.00000000E+00" nType="-99">
            </Node>
            <Node pos="r" depth="3" NCoef="0"     IVar="-1" Cut="     0.000000E+00" cType="1"     res="    -1.025380E-02" rms="0.0e-00"     purity="0.00000000E+00" nType="-99">
            </Node>
        </Node>
