<?xml version="1.0"?>
<MethodSetup Method="BDT::bdt">
<GeneralInfo>
<Info name="TMVA Release" value=""/>
<Info name="ROOT Release" value=""/>
<Info name="Creator" value="mlglue"/>
<Info name="Date" value=""/>
<Info name="Host" value=""/>
<Info name="Dir" value=""/>
<Info name="Training events" value="-1"/>
<Info name="TrainingTime" value="-1"/>
<Info name="AnalysisType" value="Classification"/>
</GeneralInfo>
<Options>
<Option name="NTrees" modified="Yes">484</Option>
<Option name="MaxDepth" modified="Yes">4</Option>
<Option name="BoostType" modified="Yes">Grad</Option>
<Option name="Shrinkage" modified="Yes">0.0384636199963</Option>
<Option name="UseNvars" modified="Yes">27</Option>
</Options>
<Variables NVar="27">
<Variable VarIndex="0" Expression="dR_b1lep" Label="dR_b1lep" Title="dR_b1lep" Unit="" Internal="dR_b1lep" Type="F" Min="0.0000000000000000000000000000000000000000000000000000000000000000E+00" Max="0.0000000000000000000000000000000000000000000000000000000000000000E+00"/>
<Variable VarIndex="1" Expression="mindr_lep1_jet" Label="mindr_lep1_jet" Title="mindr_lep1_jet" Unit="" Internal="mindr_lep1_jet" Type="F" Min="0.0000000000000000000000000000000000000000000000000000000000000000E+00" Max="0.0000000000000000000000000000000000000000000000000000000000000000E+00"/>
<Variable VarIndex="2" Expression="m_Hbb_regCorr" Label="m_Hbb_regCorr" Title="m_Hbb_regCorr" Unit="" Internal="m_Hbb_regCorr" Type="F" Min="0.0000000000000000000000000000000000000000000000000000000000000000E+00" Max="0.0000000000000000000000000000000000000000000000000000000000000000E+00"/>
<Variable VarIndex="3" Expression="bjet1_btagCSV" Label="bjet1_btagCSV" Title="bjet1_btagCSV" Unit="" Internal="bjet1_btagCSV" Type="F" Min="0.0000000000000000000000000000000000000000000000000000000000000000E+00" Max="0.0000000000000000000000000000000000000000000000000000000000000000E+00"/>
<Variable VarIndex="4" Expression="bjet1_pt" Label="bjet1_pt" Title="bjet1_pt" Unit="" Internal="bjet1_pt" Type="F" Min="0.0000000000000000000000000000000000000000000000000000000000000000E+00" Max="0.0000000000000000000000000000000000000000000000000000000000000000E+00"/>
<Variable VarIndex="5" Expression="jpaScore" Label="jpaScore" Title="jpaScore" Unit="" Internal="jpaScore" Type="F" Min="0.0000000000000000000000000000000000000000000000000000000000000000E+00" Max="0.0000000000000000000000000000000000000000000000000000000000000000E+00"/>
<Variable VarIndex="6" Expression="mT_W" Label="mT_W" Title="mT_W" Unit="" Internal="mT_W" Type="F" Min="0.0000000000000000000000000000000000000000000000000000000000000000E+00" Max="0.0000000000000000000000000000000000000000000000000000000000000000E+00"/>
<Variable VarIndex="7" Expression="dR_b2lep" Label="dR_b2lep" Title="dR_b2lep" Unit="" Internal="dR_b2lep" Type="F" Min="0.0000000000000000000000000000000000000000000000000000000000000000E+00" Max="0.0000000000000000000000000000000000000000000000000000000000000000E+00"/>
<Variable VarIndex="8" Expression="lep_pt" Label="lep_pt" Title="lep_pt" Unit="" Internal="lep_pt" Type="F" Min="0.0000000000000000000000000000000000000000000000000000000000000000E+00" Max="0.0000000000000000000000000000000000000000000000000000000000000000E+00"/>
<Variable VarIndex="9" Expression="met" Label="met" Title="met" Unit="" Internal="met" Type="F" Min="0.0000000000000000000000000000000000000000000000000000000000000000E+00" Max="0.0000000000000000000000000000000000000000000000000000000000000000E+00"/>
<Variable VarIndex="10" Expression="mht" Label="mht" Title="mht" Unit="" Internal="mht" Type="F" Min="0.0000000000000000000000000000000000000000000000000000000000000000E+00" Max="0.0000000000000000000000000000000000000000000000000000000000000000E+00"/>
<Variable VarIndex="11" Expression="m_HHvis" Label="m_HHvis" Title="m_HHvis" Unit="" Internal="m_HHvis" Type="F" Min="0.0000000000000000000000000000000000000000000000000000000000000000E+00" Max="0.0000000000000000000000000000000000000000000000000000000000000000E+00"/>
<Variable VarIndex="12" Expression="pT_HH" Label="pT_HH" Title="pT_HH" Unit="" Internal="pT_HH" Type="F" Min="0.0000000000000000000000000000000000000000000000000000000000000000E+00" Max="0.0000000000000000000000000000000000000000000000000000000000000000E+00"/>
<Variable VarIndex="13" Expression="wjet1_pt" Label="wjet1_pt" Title="wjet1_pt" Unit="" Internal="wjet1_pt" Type="F" Min="0.0000000000000000000000000000000000000000000000000000000000000000E+00" Max="0.0000000000000000000000000000000000000000000000000000000000000000E+00"/>
<Variable VarIndex="14" Expression="mT_top_2particle" Label="mT_top_2particle" Title="mT_top_2particle" Unit="" Internal="mT_top_2particle" Type="F" Min="0.0000000000000000000000000000000000000000000000000000000000000000E+00" Max="0.0000000000000000000000000000000000000000000000000000000000000000E+00"/>
<Variable VarIndex="15" Expression="pT_Hbb" Label="pT_Hbb" Title="pT_Hbb" Unit="" Internal="pT_Hbb" Type="F" Min="0.0000000000000000000000000000000000000000000000000000000000000000E+00" Max="0.0000000000000000000000000000000000000000000000000000000000000000E+00"/>
<Variable VarIndex="16" Expression="mbb_medium" Label="mbb_medium" Title="mbb_medium" Unit="" Internal="mbb_medium" Type="F" Min="0.0000000000000000000000000000000000000000000000000000000000000000E+00" Max="0.0000000000000000000000000000000000000000000000000000000000000000E+00"/>
<Variable VarIndex="17" Expression="avg_dr_jet_central" Label="avg_dr_jet_central" Title="avg_dr_jet_central" Unit="" Internal="avg_dr_jet_central" Type="F" Min="0.0000000000000000000000000000000000000000000000000000000000000000E+00" Max="0.0000000000000000000000000000000000000000000000000000000000000000E+00"/>
<Variable VarIndex="18" Expression="mbb_loose" Label="mbb_loose" Title="mbb_loose" Unit="" Internal="mbb_loose" Type="F" Min="0.0000000000000000000000000000000000000000000000000000000000000000E+00" Max="0.0000000000000000000000000000000000000000000000000000000000000000E+00"/>
<Variable VarIndex="19" Expression="dR_Hbb" Label="dR_Hbb" Title="dR_Hbb" Unit="" Internal="dR_Hbb" Type="F" Min="0.0000000000000000000000000000000000000000000000000000000000000000E+00" Max="0.0000000000000000000000000000000000000000000000000000000000000000E+00"/>
<Variable VarIndex="20" Expression="leadFwdJet_pt" Label="leadFwdJet_pt" Title="leadFwdJet_pt" Unit="" Internal="leadFwdJet_pt" Type="F" Min="0.0000000000000000000000000000000000000000000000000000000000000000E+00" Max="0.0000000000000000000000000000000000000000000000000000000000000000E+00"/>
<Variable VarIndex="21" Expression="lep_e" Label="lep_e" Title="lep_e" Unit="" Internal="lep_e" Type="F" Min="0.0000000000000000000000000000000000000000000000000000000000000000E+00" Max="0.0000000000000000000000000000000000000000000000000000000000000000E+00"/>
<Variable VarIndex="22" Expression="Smin_Hww" Label="Smin_Hww" Title="Smin_Hww" Unit="" Internal="Smin_Hww" Type="F" Min="0.0000000000000000000000000000000000000000000000000000000000000000E+00" Max="0.0000000000000000000000000000000000000000000000000000000000000000E+00"/>
<Variable VarIndex="23" Expression="dR_HH" Label="dR_HH" Title="dR_HH" Unit="" Internal="dR_HH" Type="F" Min="0.0000000000000000000000000000000000000000000000000000000000000000E+00" Max="0.0000000000000000000000000000000000000000000000000000000000000000E+00"/>
<Variable VarIndex="24" Expression="dPhi_HHvis" Label="dPhi_HHvis" Title="dPhi_HHvis" Unit="" Internal="dPhi_HHvis" Type="F" Min="0.0000000000000000000000000000000000000000000000000000000000000000E+00" Max="0.0000000000000000000000000000000000000000000000000000000000000000E+00"/>
<Variable VarIndex="25" Expression="bjet1_e" Label="bjet1_e" Title="bjet1_e" Unit="" Internal="bjet1_e" Type="F" Min="0.0000000000000000000000000000000000000000000000000000000000000000E+00" Max="0.0000000000000000000000000000000000000000000000000000000000000000E+00"/>
<Variable VarIndex="26" Expression="wjet2_pt" Label="wjet2_pt" Title="wjet2_pt" Unit="" Internal="wjet2_pt" Type="F" Min="0.0000000000000000000000000000000000000000000000000000000000000000E+00" Max="0.0000000000000000000000000000000000000000000000000000000000000000E+00"/>

</Variables>
<Classes NClass="2">
<Class Name="Background" Index="0"/>
<Class Name="Signal" Index="1"/>

</Classes>
<Targets NTrgt="0">

</Targets>
<Transformations NTransformations="0"/>
<MVAPdfs/>
<Weights NTrees="484" AnalysisType="1"><BinaryTree type="DecisionTree" boostWeight="0.0" itree="0">
    <Node pos="c" depth="1" NCoef="0" IVar="25" Cut="2.83798126000000025E+02" cType="1" res="0.00000000000000000E+00" rms="0.0" purity="0.00000000E+00" nType="0">
        <Node pos="l" depth="2" NCoef="0" IVar="14" Cut="4.25728516000000018E+04" cType="1" res="0.00000000000000000E+00" rms="0.0" purity="0.00000000E+00" nType="0">
            <Node pos="l" depth="3" NCoef="0" IVar="0" Cut="2.79569053999999984E+00" cType="1" res="0.00000000000000000E+00" rms="0.0" purity="0.00000000E+00" nType="0">
                <Node pos="l" depth="4" NCoef="0" IVar="20" Cut="3.56506232999999995E+01" cType="1" res="0.00000000000000000E+00" rms="0.0" purity="0.00000000E+00" nType="0">
                    <Node pos="l" depth="5" NCoef="0" IVar="-1" Cut="0.00000000000000000E+00" cType="1" res="-5.16741163999999975E-02" rms="0.0e-00" purity="0.00000000E+00" nType="-99">
                    </Node>
                    <Node pos="r" depth="5" NCoef="0" IVar="-1" Cut="0.00000000000000000E+00" cType="1" res="-3.01527567000000017E-02" rms="0.0e-00" purity="0.00000000E+00" nType="-99">
                    </Node>
                </Node>
                <Node pos="r" depth="4" NCoef="0" IVar="25" Cut="1.53185027999999988E+02" cType="1" res="0.00000000000000000E+00" rms="0.0" purity="0.00000000E+00" nType="0">
                    <Node pos="l" depth="5" NCoef="0" IVar="-1" Cut="0.00000000000000000E+00" cType="1" res="-3.17820794999999975E-02" rms="0.0e-00" purity="0.00000000E+00" nType="-99">
                    </Node>
                    <Node pos="r" depth="5" NCoef="0" IVar="-1" Cut="0.00000000000000000E+00" cType="1" res="4.76523722000000028E-03" rms="0.0e-00" purity="0.00000000E+00" nType="-99">
                    </Node>
                </Node>
            </Node>
            <Node pos="r" depth="3" NCoef="0" IVar="14" Cut="5.68413047000000006E+04" cType="1" res="0.00000000000000000E+00" rms="0.0" purity="0.00000000E+00" nType="0">
                <Node pos="l" depth="4" NCoef="0" IVar="-1" Cut="0.00000000000000000E+00" cType="1" res="2.48701498000000014E-02" rms="0.0e-00" purity="0.00000000E+00" nType="-99">
                </Node>
                <Node pos="r" depth="4" NCoef="0" IVar="-1" Cut="0.00000000000000000E+00" cType="1" res="5.83147891000000002E-02" rms="0.0e-00" purity="0.00000000E+00" nType="-99">
                </Node>
            </Node>
        </Node>
        <Node pos="r" depth="2" NCoef="0" IVar="0" Cut="2.07386612999999986E+00" cType="1" res="0.00000000000000000E+00" rms="0.0" purity="0.00000000E+00" nType="0">
            <Node pos="l" depth="3" NCoef="0" IVar="10" Cut="1.13990662000000000E+02" cType="1" res="0.00000000000000000E+00" rms="0.0" purity="0.00000000E+00" nType="0">
                <Node pos="l" depth="4" NCoef="0" IVar="-1" Cut="0.00000000000000000E+00" cType="1" res="-4.04064729999999983E-02" rms="0.0e-00" purity="0.00000000E+00" nType="-99">
                </Node>
                <Node pos="r" depth="4" NCoef="0" IVar="-1" Cut="0.00000000000000000E+00" cType="1" res="1.78501679999999996E-02" rms="0.0e-00" purity="0.00000000E+00" nType="-99">
                </Node>
            </Node>
            <Node pos="r" depth="3" NCoef="0" IVar="25" Cut="4.34931090999999981E+02" cType="1" res="0.00000000000000000E+00" rms="0.0" purity="0.00000000E+00" nType="0">
                <Node pos="l" depth="4" NCoef="0" IVar="2" Cut="1.56621124000000009E+02" cType="1" res="0.00000000000000000E+00" rms="0.0" purity="0.00000000E+00" nType="0">
                    <Node pos="l" depth="5" NCoef="0" IVar="-1" Cut="0.00000000000000000E+00" cType="1" res="5.04150874999999971E-02" rms="0.0e-00" purity="0.00000000E+00" nType="-99">
                    </Node>
                    <Node pos="r" depth="5" NCoef="0" IVar="-1" Cut="0.00000000000000000E+00" cType="1" res="-3.91821423999999963E-03" rms="0.0e-00" purity="0.00000000E+00" nType="-99">
                    </Node>
                </Node>
                <Node pos="r" depth="4" NCoef="0" IVar="2" Cut="1.49164612000000005E+02" cType="1" res="0.00000000000000000E+00" rms="0.0" purity="0.00000000E+00" nType="0">
                    <Node pos="l" depth="5" NCoef="0" IVar="-1" Cut="0.00000000000000000E+00" cType="1" res="7.32159168000000027E-02" rms="0.0e-00" purity="0.00000000E+00" nType="-99">
                    </Node>
                    <Node pos="r" depth="5" NCoef="0" IVar="-1" Cut="0.00000000000000000E+00" cType="1" res="5.72849325999999978E-02" rms="0.0e-00" purity="0.00000000E+00" nType="-99">
                    </Node>
                </Node>
            </Node>
        </Node>
    </Node>
</BinaryTree>
<BinaryTree type="DecisionTree" boostWeight="0.0" itree="1">
    <Node pos="c" depth="1" NCoef="0" IVar="4" Cut="1.75387054000000006E+02" cType="1" res="0.00000000000000000E+00" rms="0.0" purity="0.00000000E+00" nType="0">
        <Node pos="l" depth="2" NCoef="0" IVar="1" Cut="7.75747298999999946E-01" cType="1" res="0.00000000000000000E+00" rms="0.0" purity="0.00000000E+00" nType="0">
            <Node pos="l" depth="3" NCoef="0" IVar="0" Cut="2.44191836999999978E+00" cType="1" res="0.00000000000000000E+00" rms="0.0" purity="0.00000000E+00" nType="0">
                <Node pos="l" depth="4" NCoef="0" IVar="12" Cut="1.92721619000000004E+02" cType="1" res="0.00000000000000000E+00" rms="0.0" purity="0.00000000E+00" nType="0">
                    <Node pos="l" depth="5" NCoef="0" IVar="-1" Cut="0.00000000000000000E+00" cType="1" res="-2.45741046999999983E-02" rms="0.0e-00" purity="0.00000000E+00" nType="-99">
                    </Node>
                    <Node pos="r" depth="5" NCoef="0" IVar="-1" Cut="0.00000000000000000E+00" cType="1" res="3.03072165999999990E-02" rms="0.0e-00" purity="0.00000000E+00" nType="-99">
                    </Node>
                </Node>
                <Node pos="r" depth="4" NCoef="0" IVar="15" Cut="1.29458663999999999E+02" cType="1" res="0.00000000000000000E+00" rms="0.0" purity="0.00000000E+00" nType="0">
                    <Node pos="l" depth="5" NCoef="0" IVar="-1" Cut="0.00000000000000000E+00" cType="1" res="2.35070512000000002E-02" rms="0.0e-00" purity="0.00000000E+00" nType="-99">
                    </Node>
                    <Node pos="r" depth="5" NCoef="0" IVar="-1" Cut="0.00000000000000000E+00" cType="1" res="6.35774434000000027E-02" rms="0.0e-00" purity="0.00000000E+00" nType="-99">
                    </Node>
                </Node>
            </Node>
            <Node pos="r" depth="3" NCoef="0" IVar="15" Cut="1.66270157000000012E+02" cType="1" res="0.00000000000000000E+00" rms="0.0" purity="0.00000000E+00" nType="0">
                <Node pos="l" depth="4" NCoef="0" IVar="20" Cut="4.59396439000000001E+01" cType="1" res="0.00000000000000000E+00" rms="0.0" purity="0.00000000E+00" nType="0">
                    <Node pos="l" depth="5" NCoef="0" IVar="-1" Cut="0.00000000000000000E+00" cType="1" res="-5.22586255999999971E-02" rms="0.0e-00" purity="0.00000000E+00" nType="-99">
                    </Node>
                    <Node pos="r" depth="5" NCoef="0" IVar="-1" Cut="0.00000000000000000E+00" cType="1" res="-2.73972004999999998E-02" rms="0.0e-00" purity="0.00000000E+00" nType="-99">
                    </Node>
                </Node>
                <Node pos="r" depth="4" NCoef="0" IVar="0" Cut="2.94408679000000006E+00" cType="1" res="0.00000000000000000E+00" rms="0.0" purity="0.00000000E+00" nType="0">
                    <Node pos="l" depth="5" NCoef="0" IVar="-1" Cut="0.00000000000000000E+00" cType="1" res="-1.31632841999999991E-03" rms="0.0e-00" purity="0.00000000E+00" nType="-99">
                    </Node>
                    <Node pos="r" depth="5" NCoef="0" IVar="-1" Cut="0.00000000000000000E+00" cType="1" res="4.30880971000000002E-02" rms="0.0e-00" purity="0.00000000E+00" nType="-99">
                    </Node>
                </Node>
            </Node>
        </Node>
        <Node pos="r" depth="2" NCoef="0" IVar="0" Cut="2.01726294000000017E+00" cType="1" res="0.00000000000000000E+00" rms="0.0" purity="0.00000000E+00" nType="0">
            <Node pos="l" depth="3" NCoef="0" IVar="4" Cut="2.56309387000000015E+02" cType="1" res="0.00000000000000000E+00" rms="0.0" purity="0.00000000E+00" nType="0">
                <Node pos="l" depth="4" NCoef="0" IVar="-1" Cut="0.00000000000000000E+00" cType="1" res="-2.91163753999999983E-02" rms="0.0e-00" purity="0.00000000E+00" nType="-99">
                </Node>
                <Node pos="r" depth="4" NCoef="0" IVar="-1" Cut="0.00000000000000000E+00" cType="1" res="4.88144419999999996E-02" rms="0.0e-00" purity="0.00000000E+00" nType="-99">
                </Node>
            </Node>
            <Node pos="r" depth="3" NCoef="0" IVar="4" Cut="2.36988585999999998E+02" cType="1" res="0.00000000000000000E+00" rms="0.0" purity="0.00000000E+00" nType="0">
                <Node pos="l" depth="4" NCoef="0" IVar="19" Cut="1.26804256000000004E+00" cType="1" res="0.00000000000000000E+00" rms="0.0" purity="0.00000000E+00" nType="0">
                    <Node pos="l" depth="5" NCoef="0" IVar="-1" Cut="0.00000000000000000E+00" cType="1" res="6.25442638999999939E-02" rms="0.0e-00" purity="0.00000000E+00" nType="-99">
                    </Node>
                    <Node pos="r" depth="5" NCoef="0" IVar="-1" Cut="0.00000000000000000E+00" cType="1" res="-1.10183387999999993E-03" rms="0.0e-00" purity="0.00000000E+00" nType="-99">
                    </Node>
                </Node>
                <Node pos="r" depth="4" NCoef="0" IVar="1" Cut="8.04210066999999973E-01" cType="1" res="0.00000000000000000E+00" rms="0.0" purity="0.00000000E+00" nType="0">
                    <Node pos="l" depth="5" NCoef="0" IVar="-1" Cut="0.00000000000000000E+00" cType="1" res="7.29262903000000018E-02" rms="0.0e-00" purity="0.00000000E+00" nType="-99">
                    </Node>
                    <Node pos="r" depth="5" NCoef="0" IVar="-1" Cut="0.00000000000000000E+00" cType="1" res="6.40451684999999993E-02" rms="0.0e-00" purity="0.00000000E+00" nType="-99">
                    </Node>
                </Node>
            </Node>
        </Node>
    </Node>
</BinaryTree>
<BinaryTree type="DecisionTree" boostWeight="0.0" itree="2">
    <Node pos="c" depth="1" NCoef="0" IVar="4" Cut="1.61092957000000013E+02" cType="1" res="0.00000000000000000E+00" rms="0.0" purity="0.00000000E+00" nType="0">
        <Node pos="l" depth="2" NCoef="0" IVar="1" Cut="7.75908350999999996E-01" cType="1" res="0.00000000000000000E+00" rms="0.0" purity="0.00000000E+00" nType="0">
            <Node pos="l" depth="3" NCoef="0" IVar="0" Cut="2.84135747000000016E+00" cType="1" res="0.00000000000000000E+00" rms="0.0" purity="0.00000000E+00" nType="0">
                <Node pos="l" depth="4" NCoef="0" IVar="12" Cut="8.47369766000000055E+01" cType="1" res="0.00000000000000000E+00" rms="0.0" purity="0.00000000E+00" nType="0">
                    <Node pos="l" depth="5" NCoef="0" IVar="-1" Cut="0.00000000000000000E+00" cType="1" res="-2.79282816000000003E-02" rms="0.0e-00" purity="0.00000000E+00" nType="-99">
                    </Node>
                    <Node pos="r" depth="5" NCoef="0" IVar="-1" Cut="0.00000000000000000E+00" cType="1" res="6.64056138999999986E-03" rms="0.0e-00" purity="0.00000000E+00" nType="-99">
                    </Node>
                </Node>
                <Node pos="r" depth="4" NCoef="0" IVar="11" Cut="5.12159302000000025E+02" cType="1" res="0.00000000000000000E+00" rms="0.0" purity="0.00000000E+00" nType="0">
                    <Node pos="l" depth="5" NCoef="0" IVar="-1" Cut="0.00000000000000000E+00" cType="1" res="2.87678186000000016E-02" rms="0.0e-00" purity="0.00000000E+00" nType="-99">
                    </Node>
                    <Node pos="r" depth="5" NCoef="0" IVar="-1" Cut="0.00000000000000000E+00" cType="1" res="6.61576539000000019E-02" rms="0.0e-00" purity="0.00000000E+00" nType="-99">
                    </Node>
                </Node>
            </Node>
            <Node pos="r" depth="3" NCoef="0" IVar="11" Cut="8.38795165999999995E+02" cType="1" res="0.00000000000000000E+00" rms="0.0" purity="0.00000000E+00" nType="0">
                <Node pos="l" depth="4" NCoef="0" IVar="15" Cut="1.54761200000000002E+02" cType="1" res="0.00000000000000000E+00" rms="0.0" purity="0.00000000E+00" nType="0">
                    <Node pos="l" depth="5" NCoef="0" IVar="-1" Cut="0.00000000000000000E+00" cType="1" res="-4.76875827000000016E-02" rms="0.0e-00" purity="0.00000000E+00" nType="-99">
                    </Node>
                    <Node pos="r" depth="5" NCoef="0" IVar="-1" Cut="0.00000000000000000E+00" cType="1" res="2.63620772999999991E-03" rms="0.0e-00" purity="0.00000000E+00" nType="-99">
                    </Node>
                </Node>
                <Node pos="r" depth="4" NCoef="0" IVar="-1" Cut="0.00000000000000000E+00" cType="1" res="4.79595548999999996E-02" rms="0.0e-00" purity="0.00000000E+00" nType="-99">
                </Node>
            </Node>
        </Node>
        <Node pos="r" depth="2" NCoef="0" IVar="0" Cut="2.01727486000000011E+00" cType="1" res="0.00000000000000000E+00" rms="0.0" purity="0.00000000E+00" nType="0">
            <Node pos="l" depth="3" NCoef="0" IVar="4" Cut="2.56810790999999995E+02" cType="1" res="0.00000000000000000E+00" rms="0.0" purity="0.00000000E+00" nType="0">
                <Node pos="l" depth="4" NCoef="0" IVar="-1" Cut="0.00000000000000000E+00" cType="1" res="-3.10860835000000002E-02" rms="0.0e-00" purity="0.00000000E+00" nType="-99">
                </Node>
                <Node pos="r" depth="4" NCoef="0" IVar="-1" Cut="0.00000000000000000E+00" cType="1" res="4.75066639000000027E-02" rms="0.0e-00" purity="0.00000000E+00" nType="-99">
                </Node>
            </Node>
            <Node pos="r" depth="3" NCoef="0" IVar="4" Cut="2.27235106999999999E+02" cType="1" res="0.00000000000000000E+00" rms="0.0" purity="0.00000000E+00" nType="0">
                <Node pos="l" depth="4" NCoef="0" IVar="1" Cut="1.02035963999999990E+00" cType="1" res="0.00000000000000000E+00" rms="0.0" purity="0.00000000E+00" nType="0">
                    <Node pos="l" depth="5" NCoef="0" IVar="-1" Cut="0.00000000000000000E+00" cType="1" res="5.72117940000000033E-02" rms="0.0e-00" purity="0.00000000E+00" nType="-99">
                    </Node>
                    <Node pos="r" depth="5" NCoef="0" IVar="-1" Cut="0.00000000000000000E+00" cType="1" res="3.53722040999999987E-03" rms="0.0e-00" purity="0.00000000E+00" nType="-99">
                    </Node>
                </Node>
                <Node pos="r" depth="4" NCoef="0" IVar="1" Cut="8.35310101999999999E-01" cType="1" res="0.00000000000000000E+00" rms="0.0" purity="0.00000000E+00" nType="0">
                    <Node pos="l" depth="5" NCoef="0" IVar="-1" Cut="0.00000000000000000E+00" cType="1" res="7.00006038000000053E-02" rms="0.0e-00" purity="0.00000000E+00" nType="-99">
                    </Node>
                    <Node pos="r" depth="5" NCoef="0" IVar="-1" Cut="0.00000000000000000E+00" cType="1" res="6.03369996000000033E-02" rms="0.0e-00" purity="0.00000000E+00" nType="-99">
                    </Node>
                </Node>
            </Node>
        </Node>
    </Node>
</BinaryTree>
<BinaryTree type="DecisionTree" boostWeight="0.0" itree="3">
    <Node pos="c" depth="1" NCoef="0" IVar="1" Cut="7.67269254000000012E-01" cType="1" res="0.00000000000000000E+00" rms="0.0" purity="0.00000000E+00" nType="0">
        <Node pos="l" depth="2" NCoef="0" IVar="15" Cut="1.70079926000000000E+02" cType="1" res="0.00000000000000000E+00" rms="0.0" purity="0.00000000E+00" nType="0">
            <Node pos="l" depth="3" NCoef="0" IVar="12" Cut="1.64404053000000005E+02" cType="1" res="0.00000000000000000E+00" rms="0.0" purity="0.00000000E+00" nType="0">
                <Node pos="l" depth="4" NCoef="0" IVar="20" Cut="3.36101456000000027E+01" cType="1" res="0.00000000000000000E+00" rms="0.0" purity="0.00000000E+00" nType="0">
                    <Node pos="l" depth="5" NCoef="0" IVar="-1" Cut="0.00000000000000000E+00" cType="1" res="-1.50053537999999993E-02" rms="0.0e-00" purity="0.00000000E+00" nType="-99">
                    </Node>
                    <Node pos="r" depth="5" NCoef="0" IVar="-1" Cut="0.00000000000000000E+00" cType="1" res="1.54014462999999997E-02" rms="0.0e-00" purity="0.00000000E+00" nType="-99">
                    </Node>
                </Node>
                <Node pos="r" depth="4" NCoef="0" IVar="2" Cut="2.90720215000000017E+01" cType="1" res="0.00000000000000000E+00" rms="0.0" purity="0.00000000E+00" nType="0">
                    <Node pos="l" depth="5" NCoef="0" IVar="-1" Cut="0.00000000000000000E+00" cType="1" res="6.39596283000000015E-02" rms="0.0e-00" purity="0.00000000E+00" nType="-99">
                    </Node>
                    <Node pos="r" depth="5" NCoef="0" IVar="-1" Cut="0.00000000000000000E+00" cType="1" res="2.98114270000000015E-02" rms="0.0e-00" purity="0.00000000E+00" nType="-99">
                    </Node>
                </Node>
            </Node>
            <Node pos="r" depth="3" NCoef="0" IVar="11" Cut="5.03437438999999983E+02" cType="1" res="0.00000000000000000E+00" rms="0.0" purity="0.00000000E+00" nType="0">
                <Node pos="l" depth="4" NCoef="0" IVar="-1" Cut="0.00000000000000000E+00" cType="1" res="5.03657199000000014E-02" rms="0.0e-00" purity="0.00000000E+00" nType="-99">
                </Node>
                <Node pos="r" depth="4" NCoef="0" IVar="19" Cut="1.34587216000000010E+00" cType="1" res="0.00000000000000000E+00" rms="0.0" purity="0.00000000E+00" nType="0">
                    <Node pos="l" depth="5" NCoef="0" IVar="-1" Cut="0.00000000000000000E+00" cType="1" res="6.92491009999999935E-02" rms="0.0e-00" purity="0.00000000E+00" nType="-99">
                    </Node>
                    <Node pos="r" depth="5" NCoef="0" IVar="-1" Cut="0.00000000000000000E+00" cType="1" res="6.10968173000000017E-02" rms="0.0e-00" purity="0.00000000E+00" nType="-99">
                    </Node>
                </Node>
            </Node>
        </Node>
        <Node pos="r" depth="2" NCoef="0" IVar="15" Cut="1.95377060000000000E+02" cType="1" res="0.00000000000000000E+00" rms="0.0" purity="0.00000000E+00" nType="0">
            <Node pos="l" depth="3" NCoef="0" IVar="12" Cut="2.20318375000000003E+02" cType="1" res="0.00000000000000000E+00" rms="0.0" purity="0.00000000E+00" nType="0">
                <Node pos="l" depth="4" NCoef="0" IVar="20" Cut="5.11446990999999969E+01" cType="1" res="0.00000000000000000E+00" rms="0.0" purity="0.00000000E+00" nType="0">
                    <Node pos="l" depth="5" NCoef="0" IVar="-1" Cut="0.00000000000000000E+00" cType="1" res="-4.68659288999999993E-02" rms="0.0e-00" purity="0.00000000E+00" nType="-99">
                    </Node>
                    <Node pos="r" depth="5" NCoef="0" IVar="-1" Cut="0.00000000000000000E+00" cType="1" res="-1.92896910000000012E-02" rms="0.0e-00" purity="0.00000000E+00" nType="-99">
                    </Node>
                </Node>
                <Node pos="r" depth="4" NCoef="0" IVar="12" Cut="4.32364623999999992E+02" cType="1" res="0.00000000000000000E+00" rms="0.0" purity="0.00000000E+00" nType="0">
                    <Node pos="l" depth="5" NCoef="0" IVar="-1" Cut="0.00000000000000000E+00" cType="1" res="1.33937532000000005E-02" rms="0.0e-00" purity="0.00000000E+00" nType="-99">
                    </Node>
                    <Node pos="r" depth="5" NCoef="0" IVar="-1" Cut="0.00000000000000000E+00" cType="1" res="6.35775477000000006E-02" rms="0.0e-00" purity="0.00000000E+00" nType="-99">
                    </Node>
                </Node>
            </Node>
            <Node pos="r" depth="3" NCoef="0" IVar="19" Cut="1.18491816999999999E+00" cType="1" res="0.00000000000000000E+00" rms="0.0" purity="0.00000000E+00" nType="0">
                <Node pos="l" depth="4" NCoef="0" IVar="15" Cut="2.63044006000000024E+02" cType="1" res="0.00000000000000000E+00" rms="0.0" purity="0.00000000E+00" nType="0">
                    <Node pos="l" depth="5" NCoef="0" IVar="-1" Cut="0.00000000000000000E+00" cType="1" res="5.03517985000000029E-02" rms="0.0e-00" purity="0.00000000E+00" nType="-99">
                    </Node>
                    <Node pos="r" depth="5" NCoef="0" IVar="-1" Cut="0.00000000000000000E+00" cType="1" res="6.70243501999999991E-02" rms="0.0e-00" purity="0.00000000E+00" nType="-99">
                    </Node>
                </Node>
                <Node pos="r" depth="4" NCoef="0" IVar="-1" Cut="0.00000000000000000E+00" cType="1" res="8.69158654999999981E-03" rms="0.0e-00" purity="0.00000000E+00" nType="-99">
                </Node>
            </Node>
        </Node>
    </Node>
</BinaryTree>
<BinaryTree type="DecisionTree" boostWeight="0.0" itree="4">
    <Node pos="c" depth="1" NCoef="0" IVar="4" Cut="1.61092957000000013E+02" cType="1" res="0.00000000000000000E+00" rms="0.0" purity="0.00000000E+00" nType="0">
        <Node pos="l" depth="2" NCoef="0" IVar="1" Cut="8.98099183999999995E-01" cType="1" res="0.00000000000000000E+00" rms="0.0" purity="0.00000000E+00" nType="0">
            <Node pos="l" depth="3" NCoef="0" IVar="12" Cut="1.62962814000000009E+02" cType="1" res="0.00000000000000000E+00" rms="0.0" purity="0.00000000E+00" nType="0">
                <Node pos="l" depth="4" NCoef="0" IVar="11" Cut="5.27251891999999998E+02" cType="1" res="0.00000000000000000E+00" rms="0.0" purity="0.00000000E+00" nType="0">
                    <Node pos="l" depth="5" NCoef="0" IVar="-1" Cut="0.00000000000000000E+00" cType="1" res="-1.45055232999999999E-02" rms="0.0e-00" purity="0.00000000E+00" nType="-99">
                    </Node>
                    <Node pos="r" depth="5" NCoef="0" IVar="-1" Cut="0.00000000000000000E+00" cType="1" res="3.90083492000000004E-02" rms="0.0e-00" purity="0.00000000E+00" nType="-99">
                    </Node>
                </Node>
                <Node pos="r" depth="4" NCoef="0" IVar="1" Cut="5.81982612999999982E-01" cType="1" res="0.00000000000000000E+00" rms="0.0" purity="0.00000000E+00" nType="0">
                    <Node pos="l" depth="5" NCoef="0" IVar="-1" Cut="0.00000000000000000E+00" cType="1" res="5.61514571000000032E-02" rms="0.0e-00" purity="0.00000000E+00" nType="-99">
                    </Node>
                    <Node pos="r" depth="5" NCoef="0" IVar="-1" Cut="0.00000000000000000E+00" cType="1" res="1.97788905000000001E-02" rms="0.0e-00" purity="0.00000000E+00" nType="-99">
                    </Node>
                </Node>
            </Node>
            <Node pos="r" depth="3" NCoef="0" IVar="11" Cut="6.74749451000000022E+02" cType="1" res="0.00000000000000000E+00" rms="0.0" purity="0.00000000E+00" nType="0">
                <Node pos="l" depth="4" NCoef="0" IVar="20" Cut="5.22694016000000019E+01" cType="1" res="0.00000000000000000E+00" rms="0.0" purity="0.00000000E+00" nType="0">
                    <Node pos="l" depth="5" NCoef="0" IVar="-1" Cut="0.00000000000000000E+00" cType="1" res="-4.95372899000000033E-02" rms="0.0e-00" purity="0.00000000E+00" nType="-99">
                    </Node>
                    <Node pos="r" depth="5" NCoef="0" IVar="-1" Cut="0.00000000000000000E+00" cType="1" res="-2.66434662000000003E-02" rms="0.0e-00" purity="0.00000000E+00" nType="-99">
                    </Node>
                </Node>
                <Node pos="r" depth="4" NCoef="0" IVar="-1" Cut="0.00000000000000000E+00" cType="1" res="1.62496771999999998E-02" rms="0.0e-00" purity="0.00000000E+00" nType="-99">
                </Node>
            </Node>
        </Node>
        <Node pos="r" depth="2" NCoef="0" IVar="4" Cut="2.31135986000000003E+02" cType="1" res="0.00000000000000000E+00" rms="0.0" purity="0.00000000E+00" nType="0">
            <Node pos="l" depth="3" NCoef="0" IVar="16" Cut="1.70039641999999986E+02" cType="1" res="0.00000000000000000E+00" rms="0.0" purity="0.00000000E+00" nType="0">
                <Node pos="l" depth="4" NCoef="0" IVar="1" Cut="9.81144189999999972E-01" cType="1" res="0.00000000000000000E+00" rms="0.0" purity="0.00000000E+00" nType="0">
                    <Node pos="l" depth="5" NCoef="0" IVar="-1" Cut="0.00000000000000000E+00" cType="1" res="5.14676198000000029E-02" rms="0.0e-00" purity="0.00000000E+00" nType="-99">
                    </Node>
                    <Node pos="r" depth="5" NCoef="0" IVar="-1" Cut="0.00000000000000000E+00" cType="1" res="4.56189223999999959E-03" rms="0.0e-00" purity="0.00000000E+00" nType="-99">
                    </Node>
                </Node>
                <Node pos="r" depth="4" NCoef="0" IVar="-1" Cut="0.00000000000000000E+00" cType="1" res="-3.69771420999999989E-02" rms="0.0e-00" purity="0.00000000E+00" nType="-99">
                </Node>
            </Node>
            <Node pos="r" depth="3" NCoef="0" IVar="4" Cut="3.37267211999999972E+02" cType="1" res="0.00000000000000000E+00" rms="0.0" purity="0.00000000E+00" nType="0">
                <Node pos="l" depth="4" NCoef="0" IVar="1" Cut="8.24674605999999977E-01" cType="1" res="0.00000000000000000E+00" rms="0.0" purity="0.00000000E+00" nType="0">
                    <Node pos="l" depth="5" NCoef="0" IVar="-1" Cut="0.00000000000000000E+00" cType="1" res="6.15064016999999977E-02" rms="0.0e-00" purity="0.00000000E+00" nType="-99">
                    </Node>
                    <Node pos="r" depth="5" NCoef="0" IVar="-1" Cut="0.00000000000000000E+00" cType="1" res="2.51373351000000016E-02" rms="0.0e-00" purity="0.00000000E+00" nType="-99">
                    </Node>
                </Node>
                <Node pos="r" depth="4" NCoef="0" IVar="4" Cut="3.86292602999999986E+02" cType="1" res="0.00000000000000000E+00" rms="0.0" purity="0.00000000E+00" nType="0">
                    <Node pos="l" depth="5" NCoef="0" IVar="-1" Cut="0.00000000000000000E+00" cType="1" res="6.16197884000000001E-02" rms="0.0e-00" purity="0.00000000E+00" nType="-99">
                    </Node>
                    <Node pos="r" depth="5" NCoef="0" IVar="-1" Cut="0.00000000000000000E+00" cType="1" res="6.65223001999999952E-02" rms="0.0e-00" purity="0.00000000E+00" nType="-99">
                    </Node>
                </Node>
            </Node>
        </Node>
    </Node>
</BinaryTree>
<BinaryTree type="DecisionTree" boostWeight="0.0" itree="5">
    <Node pos="c" depth="1" NCoef="0" IVar="4" Cut="1.75387054000000006E+02" cType="1" res="0.00000000000000000E+00" rms="0.0" purity="0.00000000E+00" nType="0">
        <Node pos="l" depth="2" NCoef="0" IVar="1" Cut="8.98099183999999995E-01" cType="1" res="0.00000000000000000E+00" rms="0.0" purity="0.00000000E+00" nType="0">
            <Node pos="l" depth="3" NCoef="0" IVar="15" Cut="1.46519485000000003E+02" cType="1" res="0.00000000000000000E+00" rms="0.0" purity="0.00000000E+00" nType="0">
                <Node pos="l" depth="4" NCoef="0" IVar="1" Cut="5.21458506999999960E-01" cType="1" res="0.00000000000000000E+00" rms="0.0" purity="0.00000000E+00" nType="0">
                    <Node pos="l" depth="5" NCoef="0" IVar="-1" Cut="0.00000000000000000E+00" cType="1" res="3.23456898000000007E-02" rms="0.0e-00" purity="0.00000000E+00" nType="-99">
                    </Node>
                    <Node pos="r" depth="5" NCoef="0" IVar="-1" Cut="0.00000000000000000E+00" cType="1" res="-1.05938882999999998E-02" rms="0.0e-00" purity="0.00000000E+00" nType="-99">
                    </Node>
                </Node>
                <Node pos="r" depth="4" NCoef="0" IVar="7" Cut="2.57533789000000013E+00" cType="1" res="0.00000000000000000E+00" rms="0.0" purity="0.00000000E+00" nType="0">
                    <Node pos="l" depth="5" NCoef="0" IVar="-1" Cut="0.00000000000000000E+00" cType="1" res="1.96221079999999992E-02" rms="0.0e-00" purity="0.00000000E+00" nType="-99">
                    </Node>
                    <Node pos="r" depth="5" NCoef="0" IVar="-1" Cut="0.00000000000000000E+00" cType="1" res="5.88285512999999968E-02" rms="0.0e-00" purity="0.00000000E+00" nType="-99">
                    </Node>
                </Node>
            </Node>
            <Node pos="r" depth="3" NCoef="0" IVar="15" Cut="1.66701415999999995E+02" cType="1" res="0.00000000000000000E+00" rms="0.0" purity="0.00000000E+00" nType="0">
                <Node pos="l" depth="4" NCoef="0" IVar="13" Cut="2.12954666000000003E+02" cType="1" res="0.00000000000000000E+00" rms="0.0" purity="0.00000000E+00" nType="0">
                    <Node pos="l" depth="5" NCoef="0" IVar="-1" Cut="0.00000000000000000E+00" cType="1" res="-4.52573559999999986E-02" rms="0.0e-00" purity="0.00000000E+00" nType="-99">
                    </Node>
                    <Node pos="r" depth="5" NCoef="0" IVar="-1" Cut="0.00000000000000000E+00" cType="1" res="1.34949461000000003E-02" rms="0.0e-00" purity="0.00000000E+00" nType="-99">
                    </Node>
                </Node>
                <Node pos="r" depth="4" NCoef="0" IVar="-1" Cut="0.00000000000000000E+00" cType="1" res="1.82738713999999990E-02" rms="0.0e-00" purity="0.00000000E+00" nType="-99">
                </Node>
            </Node>
        </Node>
        <Node pos="r" depth="2" NCoef="0" IVar="4" Cut="2.65782776000000013E+02" cType="1" res="0.00000000000000000E+00" rms="0.0" purity="0.00000000E+00" nType="0">
            <Node pos="l" depth="3" NCoef="0" IVar="16" Cut="1.70313080000000014E+02" cType="1" res="0.00000000000000000E+00" rms="0.0" purity="0.00000000E+00" nType="0">
                <Node pos="l" depth="4" NCoef="0" IVar="1" Cut="9.80693102000000039E-01" cType="1" res="0.00000000000000000E+00" rms="0.0" purity="0.00000000E+00" nType="0">
                    <Node pos="l" depth="5" NCoef="0" IVar="-1" Cut="0.00000000000000000E+00" cType="1" res="5.39667271000000004E-02" rms="0.0e-00" purity="0.00000000E+00" nType="-99">
                    </Node>
                    <Node pos="r" depth="5" NCoef="0" IVar="-1" Cut="0.00000000000000000E+00" cType="1" res="1.57258399000000000E-02" rms="0.0e-00" purity="0.00000000E+00" nType="-99">
                    </Node>
                </Node>
                <Node pos="r" depth="4" NCoef="0" IVar="-1" Cut="0.00000000000000000E+00" cType="1" res="-2.39668619000000006E-02" rms="0.0e-00" purity="0.00000000E+00" nType="-99">
                </Node>
            </Node>
            <Node pos="r" depth="3" NCoef="0" IVar="4" Cut="3.50688811999999984E+02" cType="1" res="0.00000000000000000E+00" rms="0.0" purity="0.00000000E+00" nType="0">
                <Node pos="l" depth="4" NCoef="0" IVar="1" Cut="7.24146544999999975E-01" cType="1" res="0.00000000000000000E+00" rms="0.0" purity="0.00000000E+00" nType="0">
                    <Node pos="l" depth="5" NCoef="0" IVar="-1" Cut="0.00000000000000000E+00" cType="1" res="6.15651905999999999E-02" rms="0.0e-00" purity="0.00000000E+00" nType="-99">
                    </Node>
                    <Node pos="r" depth="5" NCoef="0" IVar="-1" Cut="0.00000000000000000E+00" cType="1" res="4.00549359999999993E-02" rms="0.0e-00" purity="0.00000000E+00" nType="-99">
                    </Node>
                </Node>
                <Node pos="r" depth="4" NCoef="0" IVar="10" Cut="1.45071503000000007E+02" cType="1" res="0.00000000000000000E+00" rms="0.0" purity="0.00000000E+00" nType="0">
                    <Node pos="l" depth="5" NCoef="0" IVar="-1" Cut="0.00000000000000000E+00" cType="1" res="6.04821555000000025E-02" rms="0.0e-00" purity="0.00000000E+00" nType="-99">
                    </Node>
                    <Node pos="r" depth="5" NCoef="0" IVar="-1" Cut="0.00000000000000000E+00" cType="1" res="6.47928566000000039E-02" rms="0.0e-00" purity="0.00000000E+00" nType="-99">
                    </Node>
                </Node>
            </Node>
        </Node>
    </Node>
</BinaryTree>
<BinaryTree type="DecisionTree" boostWeight="0.0" itree="6">
    <Node pos="c" depth="1" NCoef="0" IVar="25" Cut="2.78816101000000003E+02" cType="1" res="0.00000000000000000E+00" rms="0.0" purity="0.00000000E+00" nType="0">
        <Node pos="l" depth="2" NCoef="0" IVar="15" Cut="1.67958618000000001E+02" cType="1" res="0.00000000000000000E+00" rms="0.0" purity="0.00000000E+00" nType="0">
            <Node pos="l" depth="3" NCoef="0" IVar="0" Cut="3.27199841000000013E+00" cType="1" res="0.00000000000000000E+00" rms="0.0" purity="0.00000000E+00" nType="0">
                <Node pos="l" depth="4" NCoef="0" IVar="22" Cut="2.10013228999999995E+02" cType="1" res="0.00000000000000000E+00" rms="0.0" purity="0.00000000E+00" nType="0">
                    <Node pos="l" depth="5" NCoef="0" IVar="-1" Cut="0.00000000000000000E+00" cType="1" res="-3.10521089000000000E-02" rms="0.0e-00" purity="0.00000000E+00" nType="-99">
                    </Node>
                    <Node pos="r" depth="5" NCoef="0" IVar="-1" Cut="0.00000000000000000E+00" cType="1" res="-5.27203529999999976E-02" rms="0.0e-00" purity="0.00000000E+00" nType="-99">
                    </Node>
                </Node>
                <Node pos="r" depth="4" NCoef="0" IVar="10" Cut="1.10115416999999994E+02" cType="1" res="0.00000000000000000E+00" rms="0.0" purity="0.00000000E+00" nType="0">
                    <Node pos="l" depth="5" NCoef="0" IVar="-1" Cut="0.00000000000000000E+00" cType="1" res="-1.09774359000000005E-02" rms="0.0e-00" purity="0.00000000E+00" nType="-99">
                    </Node>
                    <Node pos="r" depth="5" NCoef="0" IVar="-1" Cut="0.00000000000000000E+00" cType="1" res="3.69297899000000027E-02" rms="0.0e-00" purity="0.00000000E+00" nType="-99">
                    </Node>
                </Node>
            </Node>
            <Node pos="r" depth="3" NCoef="0" IVar="19" Cut="1.25989555999999991E+00" cType="1" res="0.00000000000000000E+00" rms="0.0" purity="0.00000000E+00" nType="0">
                <Node pos="l" depth="4" NCoef="0" IVar="11" Cut="4.75784209999999973E+02" cType="1" res="0.00000000000000000E+00" rms="0.0" purity="0.00000000E+00" nType="0">
                    <Node pos="l" depth="5" NCoef="0" IVar="-1" Cut="0.00000000000000000E+00" cType="1" res="3.13942805000000033E-02" rms="0.0e-00" purity="0.00000000E+00" nType="-99">
                    </Node>
                    <Node pos="r" depth="5" NCoef="0" IVar="-1" Cut="0.00000000000000000E+00" cType="1" res="6.00533746000000007E-02" rms="0.0e-00" purity="0.00000000E+00" nType="-99">
                    </Node>
                </Node>
                <Node pos="r" depth="4" NCoef="0" IVar="-1" Cut="0.00000000000000000E+00" cType="1" res="7.48210993999999952E-04" rms="0.0e-00" purity="0.00000000E+00" nType="-99">
                </Node>
            </Node>
        </Node>
        <Node pos="r" depth="2" NCoef="0" IVar="0" Cut="2.28043174999999998E+00" cType="1" res="0.00000000000000000E+00" rms="0.0" purity="0.00000000E+00" nType="0">
            <Node pos="l" depth="3" NCoef="0" IVar="25" Cut="5.81704468000000020E+02" cType="1" res="0.00000000000000000E+00" rms="0.0" purity="0.00000000E+00" nType="0">
                <Node pos="l" depth="4" NCoef="0" IVar="15" Cut="1.19625243999999995E+02" cType="1" res="0.00000000000000000E+00" rms="0.0" purity="0.00000000E+00" nType="0">
                    <Node pos="l" depth="5" NCoef="0" IVar="-1" Cut="0.00000000000000000E+00" cType="1" res="-4.12945560999999975E-02" rms="0.0e-00" purity="0.00000000E+00" nType="-99">
                    </Node>
                    <Node pos="r" depth="5" NCoef="0" IVar="-1" Cut="0.00000000000000000E+00" cType="1" res="-9.21609253000000087E-03" rms="0.0e-00" purity="0.00000000E+00" nType="-99">
                    </Node>
                </Node>
                <Node pos="r" depth="4" NCoef="0" IVar="-1" Cut="0.00000000000000000E+00" cType="1" res="3.88155355999999993E-02" rms="0.0e-00" purity="0.00000000E+00" nType="-99">
                </Node>
            </Node>
            <Node pos="r" depth="3" NCoef="0" IVar="19" Cut="1.36292433999999996E+00" cType="1" res="0.00000000000000000E+00" rms="0.0" purity="0.00000000E+00" nType="0">
                <Node pos="l" depth="4" NCoef="0" IVar="25" Cut="4.05995299999999986E+02" cType="1" res="0.00000000000000000E+00" rms="0.0" purity="0.00000000E+00" nType="0">
                    <Node pos="l" depth="5" NCoef="0" IVar="-1" Cut="0.00000000000000000E+00" cType="1" res="4.68959846000000027E-02" rms="0.0e-00" purity="0.00000000E+00" nType="-99">
                    </Node>
                    <Node pos="r" depth="5" NCoef="0" IVar="-1" Cut="0.00000000000000000E+00" cType="1" res="6.13758787999999986E-02" rms="0.0e-00" purity="0.00000000E+00" nType="-99">
                    </Node>
                </Node>
                <Node pos="r" depth="4" NCoef="0" IVar="11" Cut="7.74077331999999956E+02" cType="1" res="0.00000000000000000E+00" rms="0.0" purity="0.00000000E+00" nType="0">
                    <Node pos="l" depth="5" NCoef="0" IVar="-1" Cut="0.00000000000000000E+00" cType="1" res="-1.17782111999999994E-02" rms="0.0e-00" purity="0.00000000E+00" nType="-99">
                    </Node>
                    <Node pos="r" depth="5" NCoef="0" IVar="-1" Cut="0.00000000000000000E+00" cType="1" res="5.51697612000000004E-02" rms="0.0e-00" purity="0.00000000E+00" nType="-99">
                    </Node>
                </Node>
            </Node>
        </Node>
    </Node>
</BinaryTree>
<BinaryTree type="DecisionTree" boostWeight="0.0" itree="7">
    <Node pos="c" depth="1" NCoef="0" IVar="25" Cut="2.83798126000000025E+02" cType="1" res="0.00000000000000000E+00" rms="0.0" purity="0.00000000E+00" nType="0">
        <Node pos="l" depth="2" NCoef="0" IVar="1" Cut="9.20533538000000040E-01" cType="1" res="0.00000000000000000E+00" rms="0.0" purity="0.00000000E+00" nType="0">
            <Node pos="l" depth="3" NCoef="0" IVar="15" Cut="1.67380920000000003E+02" cType="1" res="0.00000000000000000E+00" rms="0.0" purity="0.00000000E+00" nType="0">
                <Node pos="l" depth="4" NCoef="0" IVar="12" Cut="1.28068939000000000E+02" cType="1" res="0.00000000000000000E+00" rms="0.0" purity="0.00000000E+00" nType="0">
                    <Node pos="l" depth="5" NCoef="0" IVar="-1" Cut="0.00000000000000000E+00" cType="1" res="-1.74876992000000016E-02" rms="0.0e-00" purity="0.00000000E+00" nType="-99">
                    </Node>
                    <Node pos="r" depth="5" NCoef="0" IVar="-1" Cut="0.00000000000000000E+00" cType="1" res="2.63144410999999988E-02" rms="0.0e-00" purity="0.00000000E+00" nType="-99">
                    </Node>
                </Node>
                <Node pos="r" depth="4" NCoef="0" IVar="15" Cut="2.18940399000000014E+02" cType="1" res="0.00000000000000000E+00" rms="0.0" purity="0.00000000E+00" nType="0">
                    <Node pos="l" depth="5" NCoef="0" IVar="-1" Cut="0.00000000000000000E+00" cType="1" res="3.84798422000000029E-02" rms="0.0e-00" purity="0.00000000E+00" nType="-99">
                    </Node>
                    <Node pos="r" depth="5" NCoef="0" IVar="-1" Cut="0.00000000000000000E+00" cType="1" res="5.90099654999999973E-02" rms="0.0e-00" purity="0.00000000E+00" nType="-99">
                    </Node>
                </Node>
            </Node>
            <Node pos="r" depth="3" NCoef="0" IVar="15" Cut="1.66325531000000012E+02" cType="1" res="0.00000000000000000E+00" rms="0.0" purity="0.00000000E+00" nType="0">
                <Node pos="l" depth="4" NCoef="0" IVar="20" Cut="6.76891478999999947E+01" cType="1" res="0.00000000000000000E+00" rms="0.0" purity="0.00000000E+00" nType="0">
                    <Node pos="l" depth="5" NCoef="0" IVar="-1" Cut="0.00000000000000000E+00" cType="1" res="-4.48719039999999972E-02" rms="0.0e-00" purity="0.00000000E+00" nType="-99">
                    </Node>
                    <Node pos="r" depth="5" NCoef="0" IVar="-1" Cut="0.00000000000000000E+00" cType="1" res="-1.82215236000000010E-02" rms="0.0e-00" purity="0.00000000E+00" nType="-99">
                    </Node>
                </Node>
                <Node pos="r" depth="4" NCoef="0" IVar="-1" Cut="0.00000000000000000E+00" cType="1" res="1.56786143999999988E-02" rms="0.0e-00" purity="0.00000000E+00" nType="-99">
                </Node>
            </Node>
        </Node>
        <Node pos="r" depth="2" NCoef="0" IVar="1" Cut="8.02753806000000014E-01" cType="1" res="0.00000000000000000E+00" rms="0.0" purity="0.00000000E+00" nType="0">
            <Node pos="l" depth="3" NCoef="0" IVar="2" Cut="1.51961578000000003E+02" cType="1" res="0.00000000000000000E+00" rms="0.0" purity="0.00000000E+00" nType="0">
                <Node pos="l" depth="4" NCoef="0" IVar="25" Cut="4.04493773999999974E+02" cType="1" res="0.00000000000000000E+00" rms="0.0" purity="0.00000000E+00" nType="0">
                    <Node pos="l" depth="5" NCoef="0" IVar="-1" Cut="0.00000000000000000E+00" cType="1" res="5.22297472000000026E-02" rms="0.0e-00" purity="0.00000000E+00" nType="-99">
                    </Node>
                    <Node pos="r" depth="5" NCoef="0" IVar="-1" Cut="0.00000000000000000E+00" cType="1" res="6.10716416999999984E-02" rms="0.0e-00" purity="0.00000000E+00" nType="-99">
                    </Node>
                </Node>
                <Node pos="r" depth="4" NCoef="0" IVar="15" Cut="2.42788176999999990E+02" cType="1" res="0.00000000000000000E+00" rms="0.0" purity="0.00000000E+00" nType="0">
                    <Node pos="l" depth="5" NCoef="0" IVar="-1" Cut="0.00000000000000000E+00" cType="1" res="2.09774058000000013E-02" rms="0.0e-00" purity="0.00000000E+00" nType="-99">
                    </Node>
                    <Node pos="r" depth="5" NCoef="0" IVar="-1" Cut="0.00000000000000000E+00" cType="1" res="5.83864450000000021E-02" rms="0.0e-00" purity="0.00000000E+00" nType="-99">
                    </Node>
                </Node>
            </Node>
            <Node pos="r" depth="3" NCoef="0" IVar="2" Cut="1.54251404000000008E+02" cType="1" res="0.00000000000000000E+00" rms="0.0" purity="0.00000000E+00" nType="0">
                <Node pos="l" depth="4" NCoef="0" IVar="25" Cut="4.74584900000000005E+02" cType="1" res="0.00000000000000000E+00" rms="0.0" purity="0.00000000E+00" nType="0">
                    <Node pos="l" depth="5" NCoef="0" IVar="-1" Cut="0.00000000000000000E+00" cType="1" res="9.27444640999999965E-03" rms="0.0e-00" purity="0.00000000E+00" nType="-99">
                    </Node>
                    <Node pos="r" depth="5" NCoef="0" IVar="-1" Cut="0.00000000000000000E+00" cType="1" res="5.36101944999999996E-02" rms="0.0e-00" purity="0.00000000E+00" nType="-99">
                    </Node>
                </Node>
                <Node pos="r" depth="4" NCoef="0" IVar="15" Cut="1.43597960999999998E+02" cType="1" res="0.00000000000000000E+00" rms="0.0" purity="0.00000000E+00" nType="0">
                    <Node pos="l" depth="5" NCoef="0" IVar="-1" Cut="0.00000000000000000E+00" cType="1" res="-5.04251569999999982E-02" rms="0.0e-00" purity="0.00000000E+00" nType="-99">
                    </Node>
                    <Node pos="r" depth="5" NCoef="0" IVar="-1" Cut="0.00000000000000000E+00" cType="1" res="-7.31130362999999998E-03" rms="0.0e-00" purity="0.00000000E+00" nType="-99">
                    </Node>
                </Node>
            </Node>
        </Node>
    </Node>
</BinaryTree>
<BinaryTree type="DecisionTree" boostWeight="0.0" itree="8">
    <Node pos="c" depth="1" NCoef="0" IVar="4" Cut="1.70197432999999990E+02" cType="1" res="0.00000000000000000E+00" rms="0.0" purity="0.00000000E+00" nType="0">
        <Node pos="l" depth="2" NCoef="0" IVar="12" Cut="1.68095733999999993E+02" cType="1" res="0.00000000000000000E+00" rms="0.0" purity="0.00000000E+00" nType="0">
            <Node pos="l" depth="3" NCoef="0" IVar="11" Cut="5.49858764999999948E+02" cType="1" res="0.00000000000000000E+00" rms="0.0" purity="0.00000000E+00" nType="0">
                <Node pos="l" depth="4" NCoef="0" IVar="20" Cut="5.22648391999999973E+01" cType="1" res="0.00000000000000000E+00" rms="0.0" purity="0.00000000E+00" nType="0">
                    <Node pos="l" depth="5" NCoef="0" IVar="-1" Cut="0.00000000000000000E+00" cType="1" res="-3.87779660999999984E-02" rms="0.0e-00" purity="0.00000000E+00" nType="-99">
                    </Node>
                    <Node pos="r" depth="5" NCoef="0" IVar="-1" Cut="0.00000000000000000E+00" cType="1" res="-1.14015656999999996E-02" rms="0.0e-00" purity="0.00000000E+00" nType="-99">
                    </Node>
                </Node>
                <Node pos="r" depth="4" NCoef="0" IVar="2" Cut="1.48366210999999993E+02" cType="1" res="0.00000000000000000E+00" rms="0.0" purity="0.00000000E+00" nType="0">
                    <Node pos="l" depth="5" NCoef="0" IVar="-1" Cut="0.00000000000000000E+00" cType="1" res="4.00088317999999984E-02" rms="0.0e-00" purity="0.00000000E+00" nType="-99">
                    </Node>
                    <Node pos="r" depth="5" NCoef="0" IVar="-1" Cut="0.00000000000000000E+00" cType="1" res="-2.53770817000000017E-02" rms="0.0e-00" purity="0.00000000E+00" nType="-99">
                    </Node>
                </Node>
            </Node>
            <Node pos="r" depth="3" NCoef="0" IVar="0" Cut="2.37525867999999996E+00" cType="1" res="0.00000000000000000E+00" rms="0.0" purity="0.00000000E+00" nType="0">
                <Node pos="l" depth="4" NCoef="0" IVar="12" Cut="2.69569915999999978E+02" cType="1" res="0.00000000000000000E+00" rms="0.0" purity="0.00000000E+00" nType="0">
                    <Node pos="l" depth="5" NCoef="0" IVar="-1" Cut="0.00000000000000000E+00" cType="1" res="-2.29803007000000011E-02" rms="0.0e-00" purity="0.00000000E+00" nType="-99">
                    </Node>
                    <Node pos="r" depth="5" NCoef="0" IVar="-1" Cut="0.00000000000000000E+00" cType="1" res="1.47983179999999995E-02" rms="0.0e-00" purity="0.00000000E+00" nType="-99">
                    </Node>
                </Node>
                <Node pos="r" depth="4" NCoef="0" IVar="12" Cut="2.81602355999999986E+02" cType="1" res="0.00000000000000000E+00" rms="0.0" purity="0.00000000E+00" nType="0">
                    <Node pos="l" depth="5" NCoef="0" IVar="-1" Cut="0.00000000000000000E+00" cType="1" res="2.18021478999999990E-02" rms="0.0e-00" purity="0.00000000E+00" nType="-99">
                    </Node>
                    <Node pos="r" depth="5" NCoef="0" IVar="-1" Cut="0.00000000000000000E+00" cType="1" res="5.67588173000000001E-02" rms="0.0e-00" purity="0.00000000E+00" nType="-99">
                    </Node>
                </Node>
            </Node>
        </Node>
        <Node pos="r" depth="2" NCoef="0" IVar="0" Cut="2.01711416000000021E+00" cType="1" res="0.00000000000000000E+00" rms="0.0" purity="0.00000000E+00" nType="0">
            <Node pos="l" depth="3" NCoef="0" IVar="4" Cut="2.36707458000000003E+02" cType="1" res="0.00000000000000000E+00" rms="0.0" purity="0.00000000E+00" nType="0">
                <Node pos="l" depth="4" NCoef="0" IVar="-1" Cut="0.00000000000000000E+00" cType="1" res="-2.92162374000000009E-02" rms="0.0e-00" purity="0.00000000E+00" nType="-99">
                </Node>
                <Node pos="r" depth="4" NCoef="0" IVar="-1" Cut="0.00000000000000000E+00" cType="1" res="2.63732633999999994E-02" rms="0.0e-00" purity="0.00000000E+00" nType="-99">
                </Node>
            </Node>
            <Node pos="r" depth="3" NCoef="0" IVar="2" Cut="1.54261001999999991E+02" cType="1" res="0.00000000000000000E+00" rms="0.0" purity="0.00000000E+00" nType="0">
                <Node pos="l" depth="4" NCoef="0" IVar="4" Cut="2.22047393999999997E+02" cType="1" res="0.00000000000000000E+00" rms="0.0" purity="0.00000000E+00" nType="0">
                    <Node pos="l" depth="5" NCoef="0" IVar="-1" Cut="0.00000000000000000E+00" cType="1" res="4.98368814999999993E-02" rms="0.0e-00" purity="0.00000000E+00" nType="-99">
                    </Node>
                    <Node pos="r" depth="5" NCoef="0" IVar="-1" Cut="0.00000000000000000E+00" cType="1" res="5.96175492000000015E-02" rms="0.0e-00" purity="0.00000000E+00" nType="-99">
                    </Node>
                </Node>
                <Node pos="r" depth="4" NCoef="0" IVar="4" Cut="2.69101196000000016E+02" cType="1" res="0.00000000000000000E+00" rms="0.0" purity="0.00000000E+00" nType="0">
                    <Node pos="l" depth="5" NCoef="0" IVar="-1" Cut="0.00000000000000000E+00" cType="1" res="-1.14013272999999998E-02" rms="0.0e-00" purity="0.00000000E+00" nType="-99">
                    </Node>
                    <Node pos="r" depth="5" NCoef="0" IVar="-1" Cut="0.00000000000000000E+00" cType="1" res="5.27858994999999970E-02" rms="0.0e-00" purity="0.00000000E+00" nType="-99">
                    </Node>
                </Node>
            </Node>
        </Node>
    </Node>
</BinaryTree>
<BinaryTree type="DecisionTree" boostWeight="0.0" itree="9">
    <Node pos="c" depth="1" NCoef="0" IVar="1" Cut="8.02788972999999961E-01" cType="1" res="0.00000000000000000E+00" rms="0.0" purity="0.00000000E+00" nType="0">
        <Node pos="l" depth="2" NCoef="0" IVar="0" Cut="2.30981301999999999E+00" cType="1" res="0.00000000000000000E+00" rms="0.0" purity="0.00000000E+00" nType="0">
            <Node pos="l" depth="3" NCoef="0" IVar="18" Cut="5.79664000999999985E+02" cType="1" res="0.00000000000000000E+00" rms="0.0" purity="0.00000000E+00" nType="0">
                <Node pos="l" depth="4" NCoef="0" IVar="12" Cut="1.27255416999999994E+02" cType="1" res="0.00000000000000000E+00" rms="0.0" purity="0.00000000E+00" nType="0">
                    <Node pos="l" depth="5" NCoef="0" IVar="-1" Cut="0.00000000000000000E+00" cType="1" res="-3.04339136999999989E-02" rms="0.0e-00" purity="0.00000000E+00" nType="-99">
                    </Node>
                    <Node pos="r" depth="5" NCoef="0" IVar="-1" Cut="0.00000000000000000E+00" cType="1" res="3.97482281999999958E-03" rms="0.0e-00" purity="0.00000000E+00" nType="-99">
                    </Node>
                </Node>
                <Node pos="r" depth="4" NCoef="0" IVar="-1" Cut="0.00000000000000000E+00" cType="1" res="6.01857117999999996E-02" rms="0.0e-00" purity="0.00000000E+00" nType="-99">
                </Node>
            </Node>
            <Node pos="r" depth="3" NCoef="0" IVar="15" Cut="1.66525466999999992E+02" cType="1" res="0.00000000000000000E+00" rms="0.0" purity="0.00000000E+00" nType="0">
                <Node pos="l" depth="4" NCoef="0" IVar="12" Cut="1.61811400999999989E+02" cType="1" res="0.00000000000000000E+00" rms="0.0" purity="0.00000000E+00" nType="0">
                    <Node pos="l" depth="5" NCoef="0" IVar="-1" Cut="0.00000000000000000E+00" cType="1" res="1.19766956000000001E-02" rms="0.0e-00" purity="0.00000000E+00" nType="-99">
                    </Node>
                    <Node pos="r" depth="5" NCoef="0" IVar="-1" Cut="0.00000000000000000E+00" cType="1" res="5.62657527999999990E-02" rms="0.0e-00" purity="0.00000000E+00" nType="-99">
                    </Node>
                </Node>
                <Node pos="r" depth="4" NCoef="0" IVar="2" Cut="1.48528183000000013E+02" cType="1" res="0.00000000000000000E+00" rms="0.0" purity="0.00000000E+00" nType="0">
                    <Node pos="l" depth="5" NCoef="0" IVar="-1" Cut="0.00000000000000000E+00" cType="1" res="6.00383765999999985E-02" rms="0.0e-00" purity="0.00000000E+00" nType="-99">
                    </Node>
                    <Node pos="r" depth="5" NCoef="0" IVar="-1" Cut="0.00000000000000000E+00" cType="1" res="5.52383736000000014E-02" rms="0.0e-00" purity="0.00000000E+00" nType="-99">
                    </Node>
                </Node>
            </Node>
        </Node>
        <Node pos="r" depth="2" NCoef="0" IVar="15" Cut="2.01323013000000003E+02" cType="1" res="0.00000000000000000E+00" rms="0.0" purity="0.00000000E+00" nType="0">
            <Node pos="l" depth="3" NCoef="0" IVar="12" Cut="2.13840407999999996E+02" cType="1" res="0.00000000000000000E+00" rms="0.0" purity="0.00000000E+00" nType="0">
                <Node pos="l" depth="4" NCoef="0" IVar="0" Cut="3.27858590999999988E+00" cType="1" res="0.00000000000000000E+00" rms="0.0" purity="0.00000000E+00" nType="0">
                    <Node pos="l" depth="5" NCoef="0" IVar="-1" Cut="0.00000000000000000E+00" cType="1" res="-4.01401966999999985E-02" rms="0.0e-00" purity="0.00000000E+00" nType="-99">
                    </Node>
                    <Node pos="r" depth="5" NCoef="0" IVar="-1" Cut="0.00000000000000000E+00" cType="1" res="-8.87011457000000045E-03" rms="0.0e-00" purity="0.00000000E+00" nType="-99">
                    </Node>
                </Node>
                <Node pos="r" depth="4" NCoef="0" IVar="0" Cut="2.83951616000000007E+00" cType="1" res="0.00000000000000000E+00" rms="0.0" purity="0.00000000E+00" nType="0">
                    <Node pos="l" depth="5" NCoef="0" IVar="-1" Cut="0.00000000000000000E+00" cType="1" res="-1.16242561000000008E-02" rms="0.0e-00" purity="0.00000000E+00" nType="-99">
                    </Node>
                    <Node pos="r" depth="5" NCoef="0" IVar="-1" Cut="0.00000000000000000E+00" cType="1" res="4.10499907999999983E-02" rms="0.0e-00" purity="0.00000000E+00" nType="-99">
                    </Node>
                </Node>
            </Node>
            <Node pos="r" depth="3" NCoef="0" IVar="2" Cut="1.45220840000000010E+02" cType="1" res="0.00000000000000000E+00" rms="0.0" purity="0.00000000E+00" nType="0">
                <Node pos="l" depth="4" NCoef="0" IVar="15" Cut="2.83630829000000006E+02" cType="1" res="0.00000000000000000E+00" rms="0.0" purity="0.00000000E+00" nType="0">
                    <Node pos="l" depth="5" NCoef="0" IVar="-1" Cut="0.00000000000000000E+00" cType="1" res="4.57296370999999979E-02" rms="0.0e-00" purity="0.00000000E+00" nType="-99">
                    </Node>
                    <Node pos="r" depth="5" NCoef="0" IVar="-1" Cut="0.00000000000000000E+00" cType="1" res="5.93344158999999996E-02" rms="0.0e-00" purity="0.00000000E+00" nType="-99">
                    </Node>
                </Node>
                <Node pos="r" depth="4" NCoef="0" IVar="-1" Cut="0.00000000000000000E+00" cType="1" res="1.92420072999999990E-02" rms="0.0e-00" purity="0.00000000E+00" nType="-99">
                </Node>
            </Node>
        </Node>
    </Node>
</BinaryTree>
<BinaryTree type="DecisionTree" boostWeight="0.0" itree="10">
    <Node pos="c" depth="1" NCoef="0" IVar="25" Cut="2.92687897000000021E+02" cType="1" res="0.00000000000000000E+00" rms="0.0" purity="0.00000000E+00" nType="0">
        <Node pos="l" depth="2" NCoef="0" IVar="0" Cut="2.56789969999999990E+00" cType="1" res="0.00000000000000000E+00" rms="0.0" purity="0.00000000E+00" nType="0">
            <Node pos="l" depth="3" NCoef="0" IVar="12" Cut="2.07788666000000006E+02" cType="1" res="0.00000000000000000E+00" rms="0.0" purity="0.00000000E+00" nType="0">
                <Node pos="l" depth="4" NCoef="0" IVar="22" Cut="1.95766556000000008E+02" cType="1" res="0.00000000000000000E+00" rms="0.0" purity="0.00000000E+00" nType="0">
                    <Node pos="l" depth="5" NCoef="0" IVar="-1" Cut="0.00000000000000000E+00" cType="1" res="-3.27001437999999978E-02" rms="0.0e-00" purity="0.00000000E+00" nType="-99">
                    </Node>
                    <Node pos="r" depth="5" NCoef="0" IVar="-1" Cut="0.00000000000000000E+00" cType="1" res="-5.06009421999999986E-02" rms="0.0e-00" purity="0.00000000E+00" nType="-99">
                    </Node>
                </Node>
                <Node pos="r" depth="4" NCoef="0" IVar="0" Cut="1.64417182999999989E+00" cType="1" res="0.00000000000000000E+00" rms="0.0" purity="0.00000000E+00" nType="0">
                    <Node pos="l" depth="5" NCoef="0" IVar="-1" Cut="0.00000000000000000E+00" cType="1" res="-1.60080715999999998E-02" rms="0.0e-00" purity="0.00000000E+00" nType="-99">
                    </Node>
                    <Node pos="r" depth="5" NCoef="0" IVar="-1" Cut="0.00000000000000000E+00" cType="1" res="1.79676375999999992E-02" rms="0.0e-00" purity="0.00000000E+00" nType="-99">
                    </Node>
                </Node>
            </Node>
            <Node pos="r" depth="3" NCoef="0" IVar="25" Cut="1.73344391000000002E+02" cType="1" res="0.00000000000000000E+00" rms="0.0" purity="0.00000000E+00" nType="0">
                <Node pos="l" depth="4" NCoef="0" IVar="12" Cut="1.77105377000000004E+02" cType="1" res="0.00000000000000000E+00" rms="0.0" purity="0.00000000E+00" nType="0">
                    <Node pos="l" depth="5" NCoef="0" IVar="-1" Cut="0.00000000000000000E+00" cType="1" res="-2.34959200000000000E-02" rms="0.0e-00" purity="0.00000000E+00" nType="-99">
                    </Node>
                    <Node pos="r" depth="5" NCoef="0" IVar="-1" Cut="0.00000000000000000E+00" cType="1" res="2.17362195000000008E-02" rms="0.0e-00" purity="0.00000000E+00" nType="-99">
                    </Node>
                </Node>
                <Node pos="r" depth="4" NCoef="0" IVar="2" Cut="1.48508086999999989E+02" cType="1" res="0.00000000000000000E+00" rms="0.0" purity="0.00000000E+00" nType="0">
                    <Node pos="l" depth="5" NCoef="0" IVar="-1" Cut="0.00000000000000000E+00" cType="1" res="2.82714981999999983E-02" rms="0.0e-00" purity="0.00000000E+00" nType="-99">
                    </Node>
                    <Node pos="r" depth="5" NCoef="0" IVar="-1" Cut="0.00000000000000000E+00" cType="1" res="-2.63261888000000006E-02" rms="0.0e-00" purity="0.00000000E+00" nType="-99">
                    </Node>
                </Node>
            </Node>
        </Node>
        <Node pos="r" depth="2" NCoef="0" IVar="0" Cut="2.37638521000000003E+00" cType="1" res="0.00000000000000000E+00" rms="0.0" purity="0.00000000E+00" nType="0">
            <Node pos="l" depth="3" NCoef="0" IVar="12" Cut="1.53613220000000013E+02" cType="1" res="0.00000000000000000E+00" rms="0.0" purity="0.00000000E+00" nType="0">
                <Node pos="l" depth="4" NCoef="0" IVar="-1" Cut="0.00000000000000000E+00" cType="1" res="-3.13592851000000020E-02" rms="0.0e-00" purity="0.00000000E+00" nType="-99">
                </Node>
                <Node pos="r" depth="4" NCoef="0" IVar="-1" Cut="0.00000000000000000E+00" cType="1" res="2.95515750000000001E-02" rms="0.0e-00" purity="0.00000000E+00" nType="-99">
                </Node>
            </Node>
            <Node pos="r" depth="3" NCoef="0" IVar="25" Cut="4.84442871000000025E+02" cType="1" res="0.00000000000000000E+00" rms="0.0" purity="0.00000000E+00" nType="0">
                <Node pos="l" depth="4" NCoef="0" IVar="2" Cut="1.52541701999999987E+02" cType="1" res="0.00000000000000000E+00" rms="0.0" purity="0.00000000E+00" nType="0">
                    <Node pos="l" depth="5" NCoef="0" IVar="-1" Cut="0.00000000000000000E+00" cType="1" res="4.36891614999999969E-02" rms="0.0e-00" purity="0.00000000E+00" nType="-99">
                    </Node>
                    <Node pos="r" depth="5" NCoef="0" IVar="-1" Cut="0.00000000000000000E+00" cType="1" res="-5.37133310000000030E-03" rms="0.0e-00" purity="0.00000000E+00" nType="-99">
                    </Node>
                </Node>
                <Node pos="r" depth="4" NCoef="0" IVar="16" Cut="1.57918732000000006E+02" cType="1" res="0.00000000000000000E+00" rms="0.0" purity="0.00000000E+00" nType="0">
                    <Node pos="l" depth="5" NCoef="0" IVar="-1" Cut="0.00000000000000000E+00" cType="1" res="5.56934737000000027E-02" rms="0.0e-00" purity="0.00000000E+00" nType="-99">
                    </Node>
                    <Node pos="r" depth="5" NCoef="0" IVar="-1" Cut="0.00000000000000000E+00" cType="1" res="4.10392210000000007E-02" rms="0.0e-00" purity="0.00000000E+00" nType="-99">
                    </Node>
                </Node>
            </Node>
        </Node>
    </Node>
</BinaryTree>
<BinaryTree type="DecisionTree" boostWeight="0.0" itree="11">
    <Node pos="c" depth="1" NCoef="0" IVar="4" Cut="1.74718200999999993E+02" cType="1" res="0.00000000000000000E+00" rms="0.0" purity="0.00000000E+00" nType="0">
        <Node pos="l" depth="2" NCoef="0" IVar="1" Cut="9.28918004000000019E-01" cType="1" res="0.00000000000000000E+00" rms="0.0" purity="0.00000000E+00" nType="0">
            <Node pos="l" depth="3" NCoef="0" IVar="2" Cut="1.48115845000000007E+02" cType="1" res="0.00000000000000000E+00" rms="0.0" purity="0.00000000E+00" nType="0">
                <Node pos="l" depth="4" NCoef="0" IVar="11" Cut="4.11389953999999989E+02" cType="1" res="0.00000000000000000E+00" rms="0.0" purity="0.00000000E+00" nType="0">
                    <Node pos="l" depth="5" NCoef="0" IVar="-1" Cut="0.00000000000000000E+00" cType="1" res="3.26696573999999979E-03" rms="0.0e-00" purity="0.00000000E+00" nType="-99">
                    </Node>
                    <Node pos="r" depth="5" NCoef="0" IVar="-1" Cut="0.00000000000000000E+00" cType="1" res="4.61678802999999985E-02" rms="0.0e-00" purity="0.00000000E+00" nType="-99">
                    </Node>
                </Node>
                <Node pos="r" depth="4" NCoef="0" IVar="11" Cut="5.39054077000000007E+02" cType="1" res="0.00000000000000000E+00" rms="0.0" purity="0.00000000E+00" nType="0">
                    <Node pos="l" depth="5" NCoef="0" IVar="-1" Cut="0.00000000000000000E+00" cType="1" res="-4.06190716000000007E-02" rms="0.0e-00" purity="0.00000000E+00" nType="-99">
                    </Node>
                    <Node pos="r" depth="5" NCoef="0" IVar="-1" Cut="0.00000000000000000E+00" cType="1" res="1.03296637999999996E-02" rms="0.0e-00" purity="0.00000000E+00" nType="-99">
                    </Node>
                </Node>
            </Node>
            <Node pos="r" depth="3" NCoef="0" IVar="11" Cut="8.43718993999999952E+02" cType="1" res="0.00000000000000000E+00" rms="0.0" purity="0.00000000E+00" nType="0">
                <Node pos="l" depth="4" NCoef="0" IVar="20" Cut="4.59462813999999966E+01" cType="1" res="0.00000000000000000E+00" rms="0.0" purity="0.00000000E+00" nType="0">
                    <Node pos="l" depth="5" NCoef="0" IVar="-1" Cut="0.00000000000000000E+00" cType="1" res="-4.15475107999999996E-02" rms="0.0e-00" purity="0.00000000E+00" nType="-99">
                    </Node>
                    <Node pos="r" depth="5" NCoef="0" IVar="-1" Cut="0.00000000000000000E+00" cType="1" res="-1.88670009000000000E-02" rms="0.0e-00" purity="0.00000000E+00" nType="-99">
                    </Node>
                </Node>
                <Node pos="r" depth="4" NCoef="0" IVar="-1" Cut="0.00000000000000000E+00" cType="1" res="4.81246710000000008E-02" rms="0.0e-00" purity="0.00000000E+00" nType="-99">
                </Node>
            </Node>
        </Node>
        <Node pos="r" depth="2" NCoef="0" IVar="4" Cut="2.54417846999999995E+02" cType="1" res="0.00000000000000000E+00" rms="0.0" purity="0.00000000E+00" nType="0">
            <Node pos="l" depth="3" NCoef="0" IVar="2" Cut="1.63840515000000011E+02" cType="1" res="0.00000000000000000E+00" rms="0.0" purity="0.00000000E+00" nType="0">
                <Node pos="l" depth="4" NCoef="0" IVar="7" Cut="1.97415422999999990E+00" cType="1" res="0.00000000000000000E+00" rms="0.0" purity="0.00000000E+00" nType="0">
                    <Node pos="l" depth="5" NCoef="0" IVar="-1" Cut="0.00000000000000000E+00" cType="1" res="2.56500989000000013E-02" rms="0.0e-00" purity="0.00000000E+00" nType="-99">
                    </Node>
                    <Node pos="r" depth="5" NCoef="0" IVar="-1" Cut="0.00000000000000000E+00" cType="1" res="5.46380132000000018E-02" rms="0.0e-00" purity="0.00000000E+00" nType="-99">
                    </Node>
                </Node>
                <Node pos="r" depth="4" NCoef="0" IVar="-1" Cut="0.00000000000000000E+00" cType="1" res="-2.31110695999999990E-02" rms="0.0e-00" purity="0.00000000E+00" nType="-99">
                </Node>
            </Node>
            <Node pos="r" depth="3" NCoef="0" IVar="4" Cut="3.81391570999999999E+02" cType="1" res="0.00000000000000000E+00" rms="0.0" purity="0.00000000E+00" nType="0">
                <Node pos="l" depth="4" NCoef="0" IVar="2" Cut="1.64355864999999994E+02" cType="1" res="0.00000000000000000E+00" rms="0.0" purity="0.00000000E+00" nType="0">
                    <Node pos="l" depth="5" NCoef="0" IVar="-1" Cut="0.00000000000000000E+00" cType="1" res="5.30264266000000026E-02" rms="0.0e-00" purity="0.00000000E+00" nType="-99">
                    </Node>
                    <Node pos="r" depth="5" NCoef="0" IVar="-1" Cut="0.00000000000000000E+00" cType="1" res="2.86079477999999984E-02" rms="0.0e-00" purity="0.00000000E+00" nType="-99">
                    </Node>
                </Node>
                <Node pos="r" depth="4" NCoef="0" IVar="-1" Cut="0.00000000000000000E+00" cType="1" res="5.66376112000000001E-02" rms="0.0e-00" purity="0.00000000E+00" nType="-99">
                </Node>
            </Node>
        </Node>
    </Node>
</BinaryTree>
<BinaryTree type="DecisionTree" boostWeight="0.0" itree="12">
    <Node pos="c" depth="1" NCoef="0" IVar="4" Cut="1.80525298999999990E+02" cType="1" res="0.00000000000000000E+00" rms="0.0" purity="0.00000000E+00" nType="0">
        <Node pos="l" depth="2" NCoef="0" IVar="0" Cut="3.23192024000000000E+00" cType="1" res="0.00000000000000000E+00" rms="0.0" purity="0.00000000E+00" nType="0">
            <Node pos="l" depth="3" NCoef="0" IVar="13" Cut="3.12519043000000011E+02" cType="1" res="0.00000000000000000E+00" rms="0.0" purity="0.00000000E+00" nType="0">
                <Node pos="l" depth="4" NCoef="0" IVar="5" Cut="9.74798739000000025E-01" cType="1" res="0.00000000000000000E+00" rms="0.0" purity="0.00000000E+00" nType="0">
                    <Node pos="l" depth="5" NCoef="0" IVar="-1" Cut="0.00000000000000000E+00" cType="1" res="-3.05548962000000007E-02" rms="0.0e-00" purity="0.00000000E+00" nType="-99">
                    </Node>
                    <Node pos="r" depth="5" NCoef="0" IVar="-1" Cut="0.00000000000000000E+00" cType="1" res="2.65947524000000012E-02" rms="0.0e-00" purity="0.00000000E+00" nType="-99">
                    </Node>
                </Node>
                <Node pos="r" depth="4" NCoef="0" IVar="-1" Cut="0.00000000000000000E+00" cType="1" res="5.24123609000000032E-02" rms="0.0e-00" purity="0.00000000E+00" nType="-99">
                </Node>
            </Node>
            <Node pos="r" depth="3" NCoef="0" IVar="4" Cut="1.07541183000000004E+02" cType="1" res="0.00000000000000000E+00" rms="0.0" purity="0.00000000E+00" nType="0">
                <Node pos="l" depth="4" NCoef="0" IVar="12" Cut="1.50694611000000009E+02" cType="1" res="0.00000000000000000E+00" rms="0.0" purity="0.00000000E+00" nType="0">
                    <Node pos="l" depth="5" NCoef="0" IVar="-1" Cut="0.00000000000000000E+00" cType="1" res="-1.45135447000000004E-02" rms="0.0e-00" purity="0.00000000E+00" nType="-99">
                    </Node>
                    <Node pos="r" depth="5" NCoef="0" IVar="-1" Cut="0.00000000000000000E+00" cType="1" res="3.58697212999999973E-02" rms="0.0e-00" purity="0.00000000E+00" nType="-99">
                    </Node>
                </Node>
                <Node pos="r" depth="4" NCoef="0" IVar="2" Cut="1.36540740999999997E+02" cType="1" res="0.00000000000000000E+00" rms="0.0" purity="0.00000000E+00" nType="0">
                    <Node pos="l" depth="5" NCoef="0" IVar="-1" Cut="0.00000000000000000E+00" cType="1" res="4.87615988000000000E-02" rms="0.0e-00" purity="0.00000000E+00" nType="-99">
                    </Node>
                    <Node pos="r" depth="5" NCoef="0" IVar="-1" Cut="0.00000000000000000E+00" cType="1" res="1.33334287000000003E-02" rms="0.0e-00" purity="0.00000000E+00" nType="-99">
                    </Node>
                </Node>
            </Node>
        </Node>
        <Node pos="r" depth="2" NCoef="0" IVar="0" Cut="2.01568316999999997E+00" cType="1" res="0.00000000000000000E+00" rms="0.0" purity="0.00000000E+00" nType="0">
            <Node pos="l" depth="3" NCoef="0" IVar="-1" Cut="0.00000000000000000E+00" cType="1" res="1.56859111000000003E-03" rms="0.0e-00" purity="0.00000000E+00" nType="-99">
            </Node>
            <Node pos="r" depth="3" NCoef="0" IVar="2" Cut="1.57623809999999992E+02" cType="1" res="0.00000000000000000E+00" rms="0.0" purity="0.00000000E+00" nType="0">
                <Node pos="l" depth="4" NCoef="0" IVar="4" Cut="2.40093445000000003E+02" cType="1" res="0.00000000000000000E+00" rms="0.0" purity="0.00000000E+00" nType="0">
                    <Node pos="l" depth="5" NCoef="0" IVar="-1" Cut="0.00000000000000000E+00" cType="1" res="4.81147504999999975E-02" rms="0.0e-00" purity="0.00000000E+00" nType="-99">
                    </Node>
                    <Node pos="r" depth="5" NCoef="0" IVar="-1" Cut="0.00000000000000000E+00" cType="1" res="5.52376211000000020E-02" rms="0.0e-00" purity="0.00000000E+00" nType="-99">
                    </Node>
                </Node>
                <Node pos="r" depth="4" NCoef="0" IVar="4" Cut="3.89770293999999978E+02" cType="1" res="0.00000000000000000E+00" rms="0.0" purity="0.00000000E+00" nType="0">
                    <Node pos="l" depth="5" NCoef="0" IVar="-1" Cut="0.00000000000000000E+00" cType="1" res="1.18305328999999994E-02" rms="0.0e-00" purity="0.00000000E+00" nType="-99">
                    </Node>
                    <Node pos="r" depth="5" NCoef="0" IVar="-1" Cut="0.00000000000000000E+00" cType="1" res="5.43792880999999992E-02" rms="0.0e-00" purity="0.00000000E+00" nType="-99">
                    </Node>
                </Node>
            </Node>
        </Node>
    </Node>
</BinaryTree>
<BinaryTree type="DecisionTree" boostWeight="0.0" itree="13">
    <Node pos="c" depth="1" NCoef="0" IVar="4" Cut="1.61092957000000013E+02" cType="1" res="0.00000000000000000E+00" rms="0.0" purity="0.00000000E+00" nType="0">
        <Node pos="l" depth="2" NCoef="0" IVar="11" Cut="5.45765747000000033E+02" cType="1" res="0.00000000000000000E+00" rms="0.0" purity="0.00000000E+00" nType="0">
            <Node pos="l" depth="3" NCoef="0" IVar="2" Cut="1.53908843999999988E+02" cType="1" res="0.00000000000000000E+00" rms="0.0" purity="0.00000000E+00" nType="0">
                <Node pos="l" depth="4" NCoef="0" IVar="4" Cut="8.41816101000000003E+01" cType="1" res="0.00000000000000000E+00" rms="0.0" purity="0.00000000E+00" nType="0">
                    <Node pos="l" depth="5" NCoef="0" IVar="-1" Cut="0.00000000000000000E+00" cType="1" res="-2.93852835999999992E-02" rms="0.0e-00" purity="0.00000000E+00" nType="-99">
                    </Node>
                    <Node pos="r" depth="5" NCoef="0" IVar="-1" Cut="0.00000000000000000E+00" cType="1" res="-3.30561702000000020E-03" rms="0.0e-00" purity="0.00000000E+00" nType="-99">
                    </Node>
                </Node>
                <Node pos="r" depth="4" NCoef="0" IVar="16" Cut="1.52959900000000005E+02" cType="1" res="0.00000000000000000E+00" rms="0.0" purity="0.00000000E+00" nType="0">
                    <Node pos="l" depth="5" NCoef="0" IVar="-1" Cut="0.00000000000000000E+00" cType="1" res="-4.33503129000000001E-02" rms="0.0e-00" purity="0.00000000E+00" nType="-99">
                    </Node>
                    <Node pos="r" depth="5" NCoef="0" IVar="-1" Cut="0.00000000000000000E+00" cType="1" res="-5.48042096000000006E-02" rms="0.0e-00" purity="0.00000000E+00" nType="-99">
                    </Node>
                </Node>
            </Node>
            <Node pos="r" depth="3" NCoef="0" IVar="19" Cut="1.72134399000000005E+00" cType="1" res="0.00000000000000000E+00" rms="0.0" purity="0.00000000E+00" nType="0">
                <Node pos="l" depth="4" NCoef="0" IVar="0" Cut="3.14962148999999991E+00" cType="1" res="0.00000000000000000E+00" rms="0.0" purity="0.00000000E+00" nType="0">
                    <Node pos="l" depth="5" NCoef="0" IVar="-1" Cut="0.00000000000000000E+00" cType="1" res="3.45526151000000031E-02" rms="0.0e-00" purity="0.00000000E+00" nType="-99">
                    </Node>
                    <Node pos="r" depth="5" NCoef="0" IVar="-1" Cut="0.00000000000000000E+00" cType="1" res="5.75753189999999998E-02" rms="0.0e-00" purity="0.00000000E+00" nType="-99">
                    </Node>
                </Node>
                <Node pos="r" depth="4" NCoef="0" IVar="20" Cut="3.56616210999999979E+01" cType="1" res="0.00000000000000000E+00" rms="0.0" purity="0.00000000E+00" nType="0">
                    <Node pos="l" depth="5" NCoef="0" IVar="-1" Cut="0.00000000000000000E+00" cType="1" res="-3.03598306999999998E-02" rms="0.0e-00" purity="0.00000000E+00" nType="-99">
                    </Node>
                    <Node pos="r" depth="5" NCoef="0" IVar="-1" Cut="0.00000000000000000E+00" cType="1" res="1.44808330000000002E-02" rms="0.0e-00" purity="0.00000000E+00" nType="-99">
                    </Node>
                </Node>
            </Node>
        </Node>
        <Node pos="r" depth="2" NCoef="0" IVar="0" Cut="2.01727486000000011E+00" cType="1" res="0.00000000000000000E+00" rms="0.0" purity="0.00000000E+00" nType="0">
            <Node pos="l" depth="3" NCoef="0" IVar="4" Cut="2.31135986000000003E+02" cType="1" res="0.00000000000000000E+00" rms="0.0" purity="0.00000000E+00" nType="0">
                <Node pos="l" depth="4" NCoef="0" IVar="-1" Cut="0.00000000000000000E+00" cType="1" res="-3.62568757999999977E-02" rms="0.0e-00" purity="0.00000000E+00" nType="-99">
                </Node>
                <Node pos="r" depth="4" NCoef="0" IVar="-1" Cut="0.00000000000000000E+00" cType="1" res="2.58091333999999999E-02" rms="0.0e-00" purity="0.00000000E+00" nType="-99">
                </Node>
            </Node>
            <Node pos="r" depth="3" NCoef="0" IVar="19" Cut="1.46205366000000003E+00" cType="1" res="0.00000000000000000E+00" rms="0.0" purity="0.00000000E+00" nType="0">
                <Node pos="l" depth="4" NCoef="0" IVar="5" Cut="8.96274686000000043E-01" cType="1" res="0.00000000000000000E+00" rms="0.0" purity="0.00000000E+00" nType="0">
                    <Node pos="l" depth="5" NCoef="0" IVar="-1" Cut="0.00000000000000000E+00" cType="1" res="4.51700984999999985E-02" rms="0.0e-00" purity="0.00000000E+00" nType="-99">
                    </Node>
                    <Node pos="r" depth="5" NCoef="0" IVar="-1" Cut="0.00000000000000000E+00" cType="1" res="5.37563562000000009E-02" rms="0.0e-00" purity="0.00000000E+00" nType="-99">
                    </Node>
                </Node>
                <Node pos="r" depth="4" NCoef="0" IVar="4" Cut="2.83505646000000013E+02" cType="1" res="0.00000000000000000E+00" rms="0.0" purity="0.00000000E+00" nType="0">
                    <Node pos="l" depth="5" NCoef="0" IVar="-1" Cut="0.00000000000000000E+00" cType="1" res="-8.03244673000000006E-03" rms="0.0e-00" purity="0.00000000E+00" nType="-99">
                    </Node>
                    <Node pos="r" depth="5" NCoef="0" IVar="-1" Cut="0.00000000000000000E+00" cType="1" res="4.91400845000000003E-02" rms="0.0e-00" purity="0.00000000E+00" nType="-99">
                    </Node>
                </Node>
            </Node>
        </Node>
    </Node>
</BinaryTree>
<BinaryTree type="DecisionTree" boostWeight="0.0" itree="14">
    <Node pos="c" depth="1" NCoef="0" IVar="4" Cut="1.61092957000000013E+02" cType="1" res="0.00000000000000000E+00" rms="0.0" purity="0.00000000E+00" nType="0">
        <Node pos="l" depth="2" NCoef="0" IVar="1" Cut="9.29716945000000017E-01" cType="1" res="0.00000000000000000E+00" rms="0.0" purity="0.00000000E+00" nType="0">
            <Node pos="l" depth="3" NCoef="0" IVar="0" Cut="2.04415703000000004E+00" cType="1" res="0.00000000000000000E+00" rms="0.0" purity="0.00000000E+00" nType="0">
                <Node pos="l" depth="4" NCoef="0" IVar="3" Cut="3.89770508000000016E-01" cType="1" res="0.00000000000000000E+00" rms="0.0" purity="0.00000000E+00" nType="0">
                    <Node pos="l" depth="5" NCoef="0" IVar="-1" Cut="0.00000000000000000E+00" cType="1" res="1.27303413999999993E-02" rms="0.0e-00" purity="0.00000000E+00" nType="-99">
                    </Node>
                    <Node pos="r" depth="5" NCoef="0" IVar="-1" Cut="0.00000000000000000E+00" cType="1" res="-2.77459826000000000E-02" rms="0.0e-00" purity="0.00000000E+00" nType="-99">
                    </Node>
                </Node>
                <Node pos="r" depth="4" NCoef="0" IVar="15" Cut="1.29444870000000009E+02" cType="1" res="0.00000000000000000E+00" rms="0.0" purity="0.00000000E+00" nType="0">
                    <Node pos="l" depth="5" NCoef="0" IVar="-1" Cut="0.00000000000000000E+00" cType="1" res="1.12958755000000001E-02" rms="0.0e-00" purity="0.00000000E+00" nType="-99">
                    </Node>
                    <Node pos="r" depth="5" NCoef="0" IVar="-1" Cut="0.00000000000000000E+00" cType="1" res="4.60930354999999972E-02" rms="0.0e-00" purity="0.00000000E+00" nType="-99">
                    </Node>
                </Node>
            </Node>
            <Node pos="r" depth="3" NCoef="0" IVar="15" Cut="1.54762420999999989E+02" cType="1" res="0.00000000000000000E+00" rms="0.0" purity="0.00000000E+00" nType="0">
                <Node pos="l" depth="4" NCoef="0" IVar="20" Cut="7.14882049999999936E+01" cType="1" res="0.00000000000000000E+00" rms="0.0" purity="0.00000000E+00" nType="0">
                    <Node pos="l" depth="5" NCoef="0" IVar="-1" Cut="0.00000000000000000E+00" cType="1" res="-3.82252187000000007E-02" rms="0.0e-00" purity="0.00000000E+00" nType="-99">
                    </Node>
                    <Node pos="r" depth="5" NCoef="0" IVar="-1" Cut="0.00000000000000000E+00" cType="1" res="-9.98749305000000073E-03" rms="0.0e-00" purity="0.00000000E+00" nType="-99">
                    </Node>
                </Node>
                <Node pos="r" depth="4" NCoef="0" IVar="-1" Cut="0.00000000000000000E+00" cType="1" res="7.83957727000000014E-03" rms="0.0e-00" purity="0.00000000E+00" nType="-99">
                </Node>
            </Node>
        </Node>
        <Node pos="r" depth="2" NCoef="0" IVar="0" Cut="2.01720094999999988E+00" cType="1" res="0.00000000000000000E+00" rms="0.0" purity="0.00000000E+00" nType="0">
            <Node pos="l" depth="3" NCoef="0" IVar="4" Cut="2.31120056000000005E+02" cType="1" res="0.00000000000000000E+00" rms="0.0" purity="0.00000000E+00" nType="0">
                <Node pos="l" depth="4" NCoef="0" IVar="-1" Cut="0.00000000000000000E+00" cType="1" res="-3.34700085000000022E-02" rms="0.0e-00" purity="0.00000000E+00" nType="-99">
                </Node>
                <Node pos="r" depth="4" NCoef="0" IVar="-1" Cut="0.00000000000000000E+00" cType="1" res="2.30713597999999999E-02" rms="0.0e-00" purity="0.00000000E+00" nType="-99">
                </Node>
            </Node>
            <Node pos="r" depth="3" NCoef="0" IVar="19" Cut="1.39540373999999989E+00" cType="1" res="0.00000000000000000E+00" rms="0.0" purity="0.00000000E+00" nType="0">
                <Node pos="l" depth="4" NCoef="0" IVar="1" Cut="9.80622470000000024E-01" cType="1" res="0.00000000000000000E+00" rms="0.0" purity="0.00000000E+00" nType="0">
                    <Node pos="l" depth="5" NCoef="0" IVar="-1" Cut="0.00000000000000000E+00" cType="1" res="5.38086629999999996E-02" rms="0.0e-00" purity="0.00000000E+00" nType="-99">
                    </Node>
                    <Node pos="r" depth="5" NCoef="0" IVar="-1" Cut="0.00000000000000000E+00" cType="1" res="4.09617386999999999E-02" rms="0.0e-00" purity="0.00000000E+00" nType="-99">
                    </Node>
                </Node>
                <Node pos="r" depth="4" NCoef="0" IVar="4" Cut="2.69101196000000016E+02" cType="1" res="0.00000000000000000E+00" rms="0.0" purity="0.00000000E+00" nType="0">
                    <Node pos="l" depth="5" NCoef="0" IVar="-1" Cut="0.00000000000000000E+00" cType="1" res="-8.50173178999999966E-03" rms="0.0e-00" purity="0.00000000E+00" nType="-99">
                    </Node>
                    <Node pos="r" depth="5" NCoef="0" IVar="-1" Cut="0.00000000000000000E+00" cType="1" res="4.66185807999999965E-02" rms="0.0e-00" purity="0.00000000E+00" nType="-99">
                    </Node>
                </Node>
            </Node>
        </Node>
    </Node>
</BinaryTree>
<BinaryTree type="DecisionTree" boostWeight="0.0" itree="15">
    <Node pos="c" depth="1" NCoef="0" IVar="4" Cut="1.90354523000000000E+02" cType="1" res="0.00000000000000000E+00" rms="0.0" purity="0.00000000E+00" nType="0">
        <Node pos="l" depth="2" NCoef="0" IVar="1" Cut="9.82911885000000041E-01" cType="1" res="0.00000000000000000E+00" rms="0.0" purity="0.00000000E+00" nType="0">
            <Node pos="l" depth="3" NCoef="0" IVar="2" Cut="1.48189834999999988E+02" cType="1" res="0.00000000000000000E+00" rms="0.0" purity="0.00000000E+00" nType="0">
                <Node pos="l" depth="4" NCoef="0" IVar="11" Cut="4.11385314999999991E+02" cType="1" res="0.00000000000000000E+00" rms="0.0" purity="0.00000000E+00" nType="0">
                    <Node pos="l" depth="5" NCoef="0" IVar="-1" Cut="0.00000000000000000E+00" cType="1" res="4.12367284000000021E-03" rms="0.0e-00" purity="0.00000000E+00" nType="-99">
                    </Node>
                    <Node pos="r" depth="5" NCoef="0" IVar="-1" Cut="0.00000000000000000E+00" cType="1" res="4.27461416000000025E-02" rms="0.0e-00" purity="0.00000000E+00" nType="-99">
                    </Node>
                </Node>
                <Node pos="r" depth="4" NCoef="0" IVar="11" Cut="5.39054077000000007E+02" cType="1" res="0.00000000000000000E+00" rms="0.0" purity="0.00000000E+00" nType="0">
                    <Node pos="l" depth="5" NCoef="0" IVar="-1" Cut="0.00000000000000000E+00" cType="1" res="-3.77124734000000017E-02" rms="0.0e-00" purity="0.00000000E+00" nType="-99">
                    </Node>
                    <Node pos="r" depth="5" NCoef="0" IVar="-1" Cut="0.00000000000000000E+00" cType="1" res="6.20028190000000007E-03" rms="0.0e-00" purity="0.00000000E+00" nType="-99">
                    </Node>
                </Node>
            </Node>
            <Node pos="r" depth="3" NCoef="0" IVar="11" Cut="7.74087401999999997E+02" cType="1" res="0.00000000000000000E+00" rms="0.0" purity="0.00000000E+00" nType="0">
                <Node pos="l" depth="4" NCoef="0" IVar="2" Cut="1.54280150999999989E+02" cType="1" res="0.00000000000000000E+00" rms="0.0" purity="0.00000000E+00" nType="0">
                    <Node pos="l" depth="5" NCoef="0" IVar="-1" Cut="0.00000000000000000E+00" cType="1" res="-3.01461200999999998E-02" rms="0.0e-00" purity="0.00000000E+00" nType="-99">
                    </Node>
                    <Node pos="r" depth="5" NCoef="0" IVar="-1" Cut="0.00000000000000000E+00" cType="1" res="-5.15632852999999974E-02" rms="0.0e-00" purity="0.00000000E+00" nType="-99">
                    </Node>
                </Node>
                <Node pos="r" depth="4" NCoef="0" IVar="-1" Cut="0.00000000000000000E+00" cType="1" res="3.28870527000000024E-02" rms="0.0e-00" purity="0.00000000E+00" nType="-99">
                </Node>
            </Node>
        </Node>
        <Node pos="r" depth="2" NCoef="0" IVar="4" Cut="2.71618163999999979E+02" cType="1" res="0.00000000000000000E+00" rms="0.0" purity="0.00000000E+00" nType="0">
            <Node pos="l" depth="3" NCoef="0" IVar="2" Cut="1.57749512000000010E+02" cType="1" res="0.00000000000000000E+00" rms="0.0" purity="0.00000000E+00" nType="0">
                <Node pos="l" depth="4" NCoef="0" IVar="1" Cut="8.80351781999999972E-01" cType="1" res="0.00000000000000000E+00" rms="0.0" purity="0.00000000E+00" nType="0">
                    <Node pos="l" depth="5" NCoef="0" IVar="-1" Cut="0.00000000000000000E+00" cType="1" res="4.87651228999999992E-02" rms="0.0e-00" purity="0.00000000E+00" nType="-99">
                    </Node>
                    <Node pos="r" depth="5" NCoef="0" IVar="-1" Cut="0.00000000000000000E+00" cType="1" res="2.17495244000000011E-02" rms="0.0e-00" purity="0.00000000E+00" nType="-99">
                    </Node>
                </Node>
                <Node pos="r" depth="4" NCoef="0" IVar="-1" Cut="0.00000000000000000E+00" cType="1" res="-1.71609892999999986E-02" rms="0.0e-00" purity="0.00000000E+00" nType="-99">
                </Node>
            </Node>
            <Node pos="r" depth="3" NCoef="0" IVar="4" Cut="3.89336609000000010E+02" cType="1" res="0.00000000000000000E+00" rms="0.0" purity="0.00000000E+00" nType="0">
                <Node pos="l" depth="4" NCoef="0" IVar="2" Cut="1.62074691999999999E+02" cType="1" res="0.00000000000000000E+00" rms="0.0" purity="0.00000000E+00" nType="0">
                    <Node pos="l" depth="5" NCoef="0" IVar="-1" Cut="0.00000000000000000E+00" cType="1" res="4.95549776000000011E-02" rms="0.0e-00" purity="0.00000000E+00" nType="-99">
                    </Node>
                    <Node pos="r" depth="5" NCoef="0" IVar="-1" Cut="0.00000000000000000E+00" cType="1" res="2.95709426999999983E-02" rms="0.0e-00" purity="0.00000000E+00" nType="-99">
                    </Node>
                </Node>
                <Node pos="r" depth="4" NCoef="0" IVar="-1" Cut="0.00000000000000000E+00" cType="1" res="5.26872015999999971E-02" rms="0.0e-00" purity="0.00000000E+00" nType="-99">
                </Node>
            </Node>
        </Node>
    </Node>
</BinaryTree>
<BinaryTree type="DecisionTree" boostWeight="0.0" itree="16">
    <Node pos="c" depth="1" NCoef="0" IVar="4" Cut="1.80498993000000013E+02" cType="1" res="0.00000000000000000E+00" rms="0.0" purity="0.00000000E+00" nType="0">
        <Node pos="l" depth="2" NCoef="0" IVar="1" Cut="7.68153309999999978E-01" cType="1" res="0.00000000000000000E+00" rms="0.0" purity="0.00000000E+00" nType="0">
            <Node pos="l" depth="3" NCoef="0" IVar="15" Cut="1.59036209000000014E+02" cType="1" res="0.00000000000000000E+00" rms="0.0" purity="0.00000000E+00" nType="0">
                <Node pos="l" depth="4" NCoef="0" IVar="18" Cut="3.51719177000000002E+02" cType="1" res="0.00000000000000000E+00" rms="0.0" purity="0.00000000E+00" nType="0">
                    <Node pos="l" depth="5" NCoef="0" IVar="-1" Cut="0.00000000000000000E+00" cType="1" res="3.54684609999999980E-03" rms="0.0e-00" purity="0.00000000E+00" nType="-99">
                    </Node>
                    <Node pos="r" depth="5" NCoef="0" IVar="-1" Cut="0.00000000000000000E+00" cType="1" res="4.99278455999999995E-02" rms="0.0e-00" purity="0.00000000E+00" nType="-99">
                    </Node>
                </Node>
                <Node pos="r" depth="4" NCoef="0" IVar="23" Cut="3.16316461999999987E+00" cType="1" res="0.00000000000000000E+00" rms="0.0" purity="0.00000000E+00" nType="0">
                    <Node pos="l" depth="5" NCoef="0" IVar="-1" Cut="0.00000000000000000E+00" cType="1" res="3.75459827000000010E-02" rms="0.0e-00" purity="0.00000000E+00" nType="-99">
                    </Node>
                    <Node pos="r" depth="5" NCoef="0" IVar="-1" Cut="0.00000000000000000E+00" cType="1" res="5.28726092999999980E-02" rms="0.0e-00" purity="0.00000000E+00" nType="-99">
                    </Node>
                </Node>
            </Node>
            <Node pos="r" depth="3" NCoef="0" IVar="15" Cut="1.54336273000000006E+02" cType="1" res="0.00000000000000000E+00" rms="0.0" purity="0.00000000E+00" nType="0">
                <Node pos="l" depth="4" NCoef="0" IVar="13" Cut="2.29902953999999994E+02" cType="1" res="0.00000000000000000E+00" rms="0.0" purity="0.00000000E+00" nType="0">
                    <Node pos="l" depth="5" NCoef="0" IVar="-1" Cut="0.00000000000000000E+00" cType="1" res="-3.21450605999999972E-02" rms="0.0e-00" purity="0.00000000E+00" nType="-99">
                    </Node>
                    <Node pos="r" depth="5" NCoef="0" IVar="-1" Cut="0.00000000000000000E+00" cType="1" res="2.40530296999999990E-02" rms="0.0e-00" purity="0.00000000E+00" nType="-99">
                    </Node>
                </Node>
                <Node pos="r" depth="4" NCoef="0" IVar="19" Cut="1.25990391000000002E+00" cType="1" res="0.00000000000000000E+00" rms="0.0" purity="0.00000000E+00" nType="0">
                    <Node pos="l" depth="5" NCoef="0" IVar="-1" Cut="0.00000000000000000E+00" cType="1" res="2.78165582999999987E-02" rms="0.0e-00" purity="0.00000000E+00" nType="-99">
                    </Node>
                    <Node pos="r" depth="5" NCoef="0" IVar="-1" Cut="0.00000000000000000E+00" cType="1" res="-1.46492328000000002E-02" rms="0.0e-00" purity="0.00000000E+00" nType="-99">
                    </Node>
                </Node>
            </Node>
        </Node>
        <Node pos="r" depth="2" NCoef="0" IVar="4" Cut="2.67659179999999992E+02" cType="1" res="0.00000000000000000E+00" rms="0.0" purity="0.00000000E+00" nType="0">
            <Node pos="l" depth="3" NCoef="0" IVar="19" Cut="1.65778983000000002E+00" cType="1" res="0.00000000000000000E+00" rms="0.0" purity="0.00000000E+00" nType="0">
                <Node pos="l" depth="4" NCoef="0" IVar="1" Cut="9.26952243000000009E-01" cType="1" res="0.00000000000000000E+00" rms="0.0" purity="0.00000000E+00" nType="0">
                    <Node pos="l" depth="5" NCoef="0" IVar="-1" Cut="0.00000000000000000E+00" cType="1" res="4.62201646999999965E-02" rms="0.0e-00" purity="0.00000000E+00" nType="-99">
                    </Node>
                    <Node pos="r" depth="5" NCoef="0" IVar="-1" Cut="0.00000000000000000E+00" cType="1" res="2.06922944999999997E-02" rms="0.0e-00" purity="0.00000000E+00" nType="-99">
                    </Node>
                </Node>
                <Node pos="r" depth="4" NCoef="0" IVar="-1" Cut="0.00000000000000000E+00" cType="1" res="-1.62834190000000004E-02" rms="0.0e-00" purity="0.00000000E+00" nType="-99">
                </Node>
            </Node>
            <Node pos="r" depth="3" NCoef="0" IVar="1" Cut="7.93846606999999982E-01" cType="1" res="0.00000000000000000E+00" rms="0.0" purity="0.00000000E+00" nType="0">
                <Node pos="l" depth="4" NCoef="0" IVar="1" Cut="5.86185217000000036E-01" cType="1" res="0.00000000000000000E+00" rms="0.0" purity="0.00000000E+00" nType="0">
                    <Node pos="l" depth="5" NCoef="0" IVar="-1" Cut="0.00000000000000000E+00" cType="1" res="5.24833575000000011E-02" rms="0.0e-00" purity="0.00000000E+00" nType="-99">
                    </Node>
                    <Node pos="r" depth="5" NCoef="0" IVar="-1" Cut="0.00000000000000000E+00" cType="1" res="4.86976057000000004E-02" rms="0.0e-00" purity="0.00000000E+00" nType="-99">
                    </Node>
                </Node>
                <Node pos="r" depth="4" NCoef="0" IVar="10" Cut="2.22018676999999997E+02" cType="1" res="0.00000000000000000E+00" rms="0.0" purity="0.00000000E+00" nType="0">
                    <Node pos="l" depth="5" NCoef="0" IVar="-1" Cut="0.00000000000000000E+00" cType="1" res="2.64041814999999985E-02" rms="0.0e-00" purity="0.00000000E+00" nType="-99">
                    </Node>
                    <Node pos="r" depth="5" NCoef="0" IVar="-1" Cut="0.00000000000000000E+00" cType="1" res="5.10244853999999998E-02" rms="0.0e-00" purity="0.00000000E+00" nType="-99">
                    </Node>
                </Node>
            </Node>
