<?xml version="1.0"?>
<MethodSetup Method="BDT::bdt">
<GeneralInfo>
<Info name="TMVA Release" value=""/>
<Info name="ROOT Release" value=""/>
<Info name="Creator" value="mlglue"/>
<Info name="Date" value=""/>
<Info name="Host" value=""/>
<Info name="Dir" value=""/>
<Info name="Training events" value="-1"/>
<Info name="TrainingTime" value="-1"/>
<Info name="AnalysisType" value="Classification"/>
</GeneralInfo>
<Options>
<Option name="NTrees" modified="Yes">500</Option>
<Option name="MaxDepth" modified="Yes">3</Option>
<Option name="BoostType" modified="Yes">Grad</Option>
<Option name="Shrinkage" modified="Yes">0.1141154649</Option>
<Option name="UseNvars" modified="Yes">27</Option>
</Options>
<Variables NVar="27">
<Variable VarIndex="0" Expression="mindr_lep1_jet" Label="mindr_lep1_jet" Title="mindr_lep1_jet" Unit="" Internal="mindr_lep1_jet" Type="F" Min="0.0000000000000000000000000000000000000000000000000000000000000000E+00" Max="0.0000000000000000000000000000000000000000000000000000000000000000E+00"/>
<Variable VarIndex="1" Expression="m_Hbb" Label="m_Hbb" Title="m_Hbb" Unit="" Internal="m_Hbb" Type="F" Min="0.0000000000000000000000000000000000000000000000000000000000000000E+00" Max="0.0000000000000000000000000000000000000000000000000000000000000000E+00"/>
<Variable VarIndex="2" Expression="mbb_medium" Label="mbb_medium" Title="mbb_medium" Unit="" Internal="mbb_medium" Type="F" Min="0.0000000000000000000000000000000000000000000000000000000000000000E+00" Max="0.0000000000000000000000000000000000000000000000000000000000000000E+00"/>
<Variable VarIndex="3" Expression="bjet2_btagCSV" Label="bjet2_btagCSV" Title="bjet2_btagCSV" Unit="" Internal="bjet2_btagCSV" Type="F" Min="0.0000000000000000000000000000000000000000000000000000000000000000E+00" Max="0.0000000000000000000000000000000000000000000000000000000000000000E+00"/>
<Variable VarIndex="4" Expression="tau21_Hbb" Label="tau21_Hbb" Title="tau21_Hbb" Unit="" Internal="tau21_Hbb" Type="F" Min="0.0000000000000000000000000000000000000000000000000000000000000000E+00" Max="0.0000000000000000000000000000000000000000000000000000000000000000E+00"/>
<Variable VarIndex="5" Expression="mht" Label="mht" Title="mht" Unit="" Internal="mht" Type="F" Min="0.0000000000000000000000000000000000000000000000000000000000000000E+00" Max="0.0000000000000000000000000000000000000000000000000000000000000000E+00"/>
<Variable VarIndex="6" Expression="mbb_loose" Label="mbb_loose" Title="mbb_loose" Unit="" Internal="mbb_loose" Type="F" Min="0.0000000000000000000000000000000000000000000000000000000000000000E+00" Max="0.0000000000000000000000000000000000000000000000000000000000000000E+00"/>
<Variable VarIndex="7" Expression="jpaScore" Label="jpaScore" Title="jpaScore" Unit="" Internal="jpaScore" Type="F" Min="0.0000000000000000000000000000000000000000000000000000000000000000E+00" Max="0.0000000000000000000000000000000000000000000000000000000000000000E+00"/>
<Variable VarIndex="8" Expression="bjet1_btagCSV" Label="bjet1_btagCSV" Title="bjet1_btagCSV" Unit="" Internal="bjet1_btagCSV" Type="F" Min="0.0000000000000000000000000000000000000000000000000000000000000000E+00" Max="0.0000000000000000000000000000000000000000000000000000000000000000E+00"/>
<Variable VarIndex="9" Expression="met" Label="met" Title="met" Unit="" Internal="met" Type="F" Min="0.0000000000000000000000000000000000000000000000000000000000000000E+00" Max="0.0000000000000000000000000000000000000000000000000000000000000000E+00"/>
<Variable VarIndex="10" Expression="lep_pt" Label="lep_pt" Title="lep_pt" Unit="" Internal="lep_pt" Type="F" Min="0.0000000000000000000000000000000000000000000000000000000000000000E+00" Max="0.0000000000000000000000000000000000000000000000000000000000000000E+00"/>
<Variable VarIndex="11" Expression="dR_b1lep" Label="dR_b1lep" Title="dR_b1lep" Unit="" Internal="dR_b1lep" Type="F" Min="0.0000000000000000000000000000000000000000000000000000000000000000E+00" Max="0.0000000000000000000000000000000000000000000000000000000000000000E+00"/>
<Variable VarIndex="12" Expression="pT_Hbb" Label="pT_Hbb" Title="pT_Hbb" Unit="" Internal="pT_Hbb" Type="F" Min="0.0000000000000000000000000000000000000000000000000000000000000000E+00" Max="0.0000000000000000000000000000000000000000000000000000000000000000E+00"/>
<Variable VarIndex="13" Expression="pT_HH" Label="pT_HH" Title="pT_HH" Unit="" Internal="pT_HH" Type="F" Min="0.0000000000000000000000000000000000000000000000000000000000000000E+00" Max="0.0000000000000000000000000000000000000000000000000000000000000000E+00"/>
<Variable VarIndex="14" Expression="leadFwdJet_pt" Label="leadFwdJet_pt" Title="leadFwdJet_pt" Unit="" Internal="leadFwdJet_pt" Type="F" Min="0.0000000000000000000000000000000000000000000000000000000000000000E+00" Max="0.0000000000000000000000000000000000000000000000000000000000000000E+00"/>
<Variable VarIndex="15" Expression="avg_dr_jet_central" Label="avg_dr_jet_central" Title="avg_dr_jet_central" Unit="" Internal="avg_dr_jet_central" Type="F" Min="0.0000000000000000000000000000000000000000000000000000000000000000E+00" Max="0.0000000000000000000000000000000000000000000000000000000000000000E+00"/>
<Variable VarIndex="16" Expression="dPhi_HHvis" Label="dPhi_HHvis" Title="dPhi_HHvis" Unit="" Internal="dPhi_HHvis" Type="F" Min="0.0000000000000000000000000000000000000000000000000000000000000000E+00" Max="0.0000000000000000000000000000000000000000000000000000000000000000E+00"/>
<Variable VarIndex="17" Expression="wjet1_pt" Label="wjet1_pt" Title="wjet1_pt" Unit="" Internal="wjet1_pt" Type="F" Min="0.0000000000000000000000000000000000000000000000000000000000000000E+00" Max="0.0000000000000000000000000000000000000000000000000000000000000000E+00"/>
<Variable VarIndex="18" Expression="mT_W" Label="mT_W" Title="mT_W" Unit="" Internal="mT_W" Type="F" Min="0.0000000000000000000000000000000000000000000000000000000000000000E+00" Max="0.0000000000000000000000000000000000000000000000000000000000000000E+00"/>
<Variable VarIndex="19" Expression="mT_top_2particle" Label="mT_top_2particle" Title="mT_top_2particle" Unit="" Internal="mT_top_2particle" Type="F" Min="0.0000000000000000000000000000000000000000000000000000000000000000E+00" Max="0.0000000000000000000000000000000000000000000000000000000000000000E+00"/>
<Variable VarIndex="20" Expression="dR_Hbb" Label="dR_Hbb" Title="dR_Hbb" Unit="" Internal="dR_Hbb" Type="F" Min="0.0000000000000000000000000000000000000000000000000000000000000000E+00" Max="0.0000000000000000000000000000000000000000000000000000000000000000E+00"/>
<Variable VarIndex="21" Expression="lep_e" Label="lep_e" Title="lep_e" Unit="" Internal="lep_e" Type="F" Min="0.0000000000000000000000000000000000000000000000000000000000000000E+00" Max="0.0000000000000000000000000000000000000000000000000000000000000000E+00"/>
<Variable VarIndex="22" Expression="mll_loose" Label="mll_loose" Title="mll_loose" Unit="" Internal="mll_loose" Type="F" Min="0.0000000000000000000000000000000000000000000000000000000000000000E+00" Max="0.0000000000000000000000000000000000000000000000000000000000000000E+00"/>
<Variable VarIndex="23" Expression="bjet2_pt" Label="bjet2_pt" Title="bjet2_pt" Unit="" Internal="bjet2_pt" Type="F" Min="0.0000000000000000000000000000000000000000000000000000000000000000E+00" Max="0.0000000000000000000000000000000000000000000000000000000000000000E+00"/>
<Variable VarIndex="24" Expression="Smin_HH" Label="Smin_HH" Title="Smin_HH" Unit="" Internal="Smin_HH" Type="F" Min="0.0000000000000000000000000000000000000000000000000000000000000000E+00" Max="0.0000000000000000000000000000000000000000000000000000000000000000E+00"/>
<Variable VarIndex="25" Expression="lep_eta" Label="lep_eta" Title="lep_eta" Unit="" Internal="lep_eta" Type="F" Min="0.0000000000000000000000000000000000000000000000000000000000000000E+00" Max="0.0000000000000000000000000000000000000000000000000000000000000000E+00"/>
<Variable VarIndex="26" Expression="Smin_Hww" Label="Smin_Hww" Title="Smin_Hww" Unit="" Internal="Smin_Hww" Type="F" Min="0.0000000000000000000000000000000000000000000000000000000000000000E+00" Max="0.0000000000000000000000000000000000000000000000000000000000000000E+00"/>

</Variables>
<Classes NClass="2">
<Class Name="Background" Index="0"/>
<Class Name="Signal" Index="1"/>

</Classes>
<Targets NTrgt="0">

</Targets>
<Transformations NTransformations="0"/>
<MVAPdfs/>
<Weights NTrees="500" AnalysisType="1"><BinaryTree type="DecisionTree" boostWeight="0.0" itree="0">
    <Node pos="c" depth="1" NCoef="0" IVar="7" Cut="7.50959395999999946E-01" cType="1" res="0.00000000000000000E+00" rms="0.0" purity="0.00000000E+00" nType="0">
        <Node pos="l" depth="2" NCoef="0" IVar="12" Cut="4.02473998999999992E+02" cType="1" res="0.00000000000000000E+00" rms="0.0" purity="0.00000000E+00" nType="0">
            <Node pos="l" depth="3" NCoef="0" IVar="2" Cut="1.47769835999999998E+02" cType="1" res="0.00000000000000000E+00" rms="0.0" purity="0.00000000E+00" nType="0">
                <Node pos="l" depth="4" NCoef="0" IVar="-1" Cut="0.00000000000000000E+00" cType="1" res="-1.31061375000000008E-01" rms="0.0e-00" purity="0.00000000E+00" nType="-99">
                </Node>
                <Node pos="r" depth="4" NCoef="0" IVar="-1" Cut="0.00000000000000000E+00" cType="1" res="-2.11318433000000000E-01" rms="0.0e-00" purity="0.00000000E+00" nType="-99">
                </Node>
            </Node>
            <Node pos="r" depth="3" NCoef="0" IVar="1" Cut="1.44901184000000001E+02" cType="1" res="0.00000000000000000E+00" rms="0.0" purity="0.00000000E+00" nType="0">
                <Node pos="l" depth="4" NCoef="0" IVar="-1" Cut="0.00000000000000000E+00" cType="1" res="1.13767616000000002E-01" rms="0.0e-00" purity="0.00000000E+00" nType="-99">
                </Node>
                <Node pos="r" depth="4" NCoef="0" IVar="-1" Cut="0.00000000000000000E+00" cType="1" res="-1.58050536999999991E-01" rms="0.0e-00" purity="0.00000000E+00" nType="-99">
                </Node>
            </Node>
        </Node>
        <Node pos="r" depth="2" NCoef="0" IVar="1" Cut="9.18622131000000053E+01" cType="1" res="0.00000000000000000E+00" rms="0.0" purity="0.00000000E+00" nType="0">
            <Node pos="l" depth="3" NCoef="0" IVar="0" Cut="6.17591380999999995E-01" cType="1" res="0.00000000000000000E+00" rms="0.0" purity="0.00000000E+00" nType="0">
                <Node pos="l" depth="4" NCoef="0" IVar="-1" Cut="0.00000000000000000E+00" cType="1" res="1.00102223000000004E-01" rms="0.0e-00" purity="0.00000000E+00" nType="-99">
                </Node>
                <Node pos="r" depth="4" NCoef="0" IVar="-1" Cut="0.00000000000000000E+00" cType="1" res="-6.33835568999999988E-02" rms="0.0e-00" purity="0.00000000E+00" nType="-99">
                </Node>
            </Node>
            <Node pos="r" depth="3" NCoef="0" IVar="3" Cut="6.79016112999999977E-02" cType="1" res="0.00000000000000000E+00" rms="0.0" purity="0.00000000E+00" nType="0">
                <Node pos="l" depth="4" NCoef="0" IVar="-1" Cut="0.00000000000000000E+00" cType="1" res="9.27503630999999967E-02" rms="0.0e-00" purity="0.00000000E+00" nType="-99">
                </Node>
                <Node pos="r" depth="4" NCoef="0" IVar="-1" Cut="0.00000000000000000E+00" cType="1" res="2.04612522999999991E-01" rms="0.0e-00" purity="0.00000000E+00" nType="-99">
                </Node>
            </Node>
        </Node>
    </Node>
</BinaryTree>
<BinaryTree type="DecisionTree" boostWeight="0.0" itree="1">
    <Node pos="c" depth="1" NCoef="0" IVar="7" Cut="7.74716972999999975E-01" cType="1" res="0.00000000000000000E+00" rms="0.0" purity="0.00000000E+00" nType="0">
        <Node pos="l" depth="2" NCoef="0" IVar="12" Cut="4.59333312999999976E+02" cType="1" res="0.00000000000000000E+00" rms="0.0" purity="0.00000000E+00" nType="0">
            <Node pos="l" depth="3" NCoef="0" IVar="1" Cut="1.00693207000000001E+02" cType="1" res="0.00000000000000000E+00" rms="0.0" purity="0.00000000E+00" nType="0">
                <Node pos="l" depth="4" NCoef="0" IVar="-1" Cut="0.00000000000000000E+00" cType="1" res="-1.64995073999999992E-01" rms="0.0e-00" purity="0.00000000E+00" nType="-99">
                </Node>
                <Node pos="r" depth="4" NCoef="0" IVar="-1" Cut="0.00000000000000000E+00" cType="1" res="-5.85590823999999968E-02" rms="0.0e-00" purity="0.00000000E+00" nType="-99">
                </Node>
            </Node>
            <Node pos="r" depth="3" NCoef="0" IVar="1" Cut="1.48009917999999999E+02" cType="1" res="0.00000000000000000E+00" rms="0.0" purity="0.00000000E+00" nType="0">
                <Node pos="l" depth="4" NCoef="0" IVar="-1" Cut="0.00000000000000000E+00" cType="1" res="1.40751882999999994E-01" rms="0.0e-00" purity="0.00000000E+00" nType="-99">
                </Node>
                <Node pos="r" depth="4" NCoef="0" IVar="-1" Cut="0.00000000000000000E+00" cType="1" res="-1.07030055999999998E-01" rms="0.0e-00" purity="0.00000000E+00" nType="-99">
                </Node>
            </Node>
        </Node>
        <Node pos="r" depth="2" NCoef="0" IVar="1" Cut="9.35568313999999930E+01" cType="1" res="0.00000000000000000E+00" rms="0.0" purity="0.00000000E+00" nType="0">
            <Node pos="l" depth="3" NCoef="0" IVar="0" Cut="6.39427006000000020E-01" cType="1" res="0.00000000000000000E+00" rms="0.0" purity="0.00000000E+00" nType="0">
                <Node pos="l" depth="4" NCoef="0" IVar="-1" Cut="0.00000000000000000E+00" cType="1" res="9.54451934000000030E-02" rms="0.0e-00" purity="0.00000000E+00" nType="-99">
                </Node>
                <Node pos="r" depth="4" NCoef="0" IVar="-1" Cut="0.00000000000000000E+00" cType="1" res="-5.14239444999999989E-02" rms="0.0e-00" purity="0.00000000E+00" nType="-99">
                </Node>
            </Node>
            <Node pos="r" depth="3" NCoef="0" IVar="1" Cut="1.50764953999999989E+02" cType="1" res="0.00000000000000000E+00" rms="0.0" purity="0.00000000E+00" nType="0">
                <Node pos="l" depth="4" NCoef="0" IVar="-1" Cut="0.00000000000000000E+00" cType="1" res="1.82399094000000012E-01" rms="0.0e-00" purity="0.00000000E+00" nType="-99">
                </Node>
                <Node pos="r" depth="4" NCoef="0" IVar="-1" Cut="0.00000000000000000E+00" cType="1" res="3.56639698000000005E-02" rms="0.0e-00" purity="0.00000000E+00" nType="-99">
                </Node>
            </Node>
        </Node>
    </Node>
</BinaryTree>
<BinaryTree type="DecisionTree" boostWeight="0.0" itree="2">
    <Node pos="c" depth="1" NCoef="0" IVar="7" Cut="7.49648690000000006E-01" cType="1" res="0.00000000000000000E+00" rms="0.0" purity="0.00000000E+00" nType="0">
        <Node pos="l" depth="2" NCoef="0" IVar="12" Cut="4.55290465999999981E+02" cType="1" res="0.00000000000000000E+00" rms="0.0" purity="0.00000000E+00" nType="0">
            <Node pos="l" depth="3" NCoef="0" IVar="1" Cut="1.01300522000000001E+02" cType="1" res="0.00000000000000000E+00" rms="0.0" purity="0.00000000E+00" nType="0">
                <Node pos="l" depth="4" NCoef="0" IVar="-1" Cut="0.00000000000000000E+00" cType="1" res="-1.48911728999999993E-01" rms="0.0e-00" purity="0.00000000E+00" nType="-99">
                </Node>
                <Node pos="r" depth="4" NCoef="0" IVar="-1" Cut="0.00000000000000000E+00" cType="1" res="-5.81752880999999999E-02" rms="0.0e-00" purity="0.00000000E+00" nType="-99">
                </Node>
            </Node>
            <Node pos="r" depth="3" NCoef="0" IVar="3" Cut="2.32727050999999990E-01" cType="1" res="0.00000000000000000E+00" rms="0.0" purity="0.00000000E+00" nType="0">
                <Node pos="l" depth="4" NCoef="0" IVar="-1" Cut="0.00000000000000000E+00" cType="1" res="-8.42482373000000007E-02" rms="0.0e-00" purity="0.00000000E+00" nType="-99">
                </Node>
                <Node pos="r" depth="4" NCoef="0" IVar="-1" Cut="0.00000000000000000E+00" cType="1" res="1.20755255000000006E-01" rms="0.0e-00" purity="0.00000000E+00" nType="-99">
                </Node>
            </Node>
        </Node>
        <Node pos="r" depth="2" NCoef="0" IVar="12" Cut="3.05274689000000023E+02" cType="1" res="0.00000000000000000E+00" rms="0.0" purity="0.00000000E+00" nType="0">
            <Node pos="l" depth="3" NCoef="0" IVar="7" Cut="8.79144192000000047E-01" cType="1" res="0.00000000000000000E+00" rms="0.0" purity="0.00000000E+00" nType="0">
                <Node pos="l" depth="4" NCoef="0" IVar="-1" Cut="0.00000000000000000E+00" cType="1" res="-2.84360981999999991E-02" rms="0.0e-00" purity="0.00000000E+00" nType="-99">
                </Node>
                <Node pos="r" depth="4" NCoef="0" IVar="-1" Cut="0.00000000000000000E+00" cType="1" res="1.37479380000000012E-01" rms="0.0e-00" purity="0.00000000E+00" nType="-99">
                </Node>
            </Node>
            <Node pos="r" depth="3" NCoef="0" IVar="3" Cut="6.79016112999999977E-02" cType="1" res="0.00000000000000000E+00" rms="0.0" purity="0.00000000E+00" nType="0">
                <Node pos="l" depth="4" NCoef="0" IVar="-1" Cut="0.00000000000000000E+00" cType="1" res="6.66702911000000009E-02" rms="0.0e-00" purity="0.00000000E+00" nType="-99">
                </Node>
                <Node pos="r" depth="4" NCoef="0" IVar="-1" Cut="0.00000000000000000E+00" cType="1" res="1.68421268000000013E-01" rms="0.0e-00" purity="0.00000000E+00" nType="-99">
                </Node>
            </Node>
        </Node>
    </Node>
</BinaryTree>
<BinaryTree type="DecisionTree" boostWeight="0.0" itree="3">
    <Node pos="c" depth="1" NCoef="0" IVar="7" Cut="7.50959395999999946E-01" cType="1" res="0.00000000000000000E+00" rms="0.0" purity="0.00000000E+00" nType="0">
        <Node pos="l" depth="2" NCoef="0" IVar="12" Cut="5.59513915999999995E+02" cType="1" res="0.00000000000000000E+00" rms="0.0" purity="0.00000000E+00" nType="0">
            <Node pos="l" depth="3" NCoef="0" IVar="2" Cut="1.54489654999999999E+02" cType="1" res="0.00000000000000000E+00" rms="0.0" purity="0.00000000E+00" nType="0">
                <Node pos="l" depth="4" NCoef="0" IVar="-1" Cut="0.00000000000000000E+00" cType="1" res="-7.03680515000000006E-02" rms="0.0e-00" purity="0.00000000E+00" nType="-99">
                </Node>
                <Node pos="r" depth="4" NCoef="0" IVar="-1" Cut="0.00000000000000000E+00" cType="1" res="-1.64079934000000011E-01" rms="0.0e-00" purity="0.00000000E+00" nType="-99">
                </Node>
            </Node>
            <Node pos="r" depth="3" NCoef="0" IVar="5" Cut="2.31373931999999996E+02" cType="1" res="0.00000000000000000E+00" rms="0.0" purity="0.00000000E+00" nType="0">
                <Node pos="l" depth="4" NCoef="0" IVar="-1" Cut="0.00000000000000000E+00" cType="1" res="2.65259594000000001E-02" rms="0.0e-00" purity="0.00000000E+00" nType="-99">
                </Node>
                <Node pos="r" depth="4" NCoef="0" IVar="-1" Cut="0.00000000000000000E+00" cType="1" res="1.65126010999999989E-01" rms="0.0e-00" purity="0.00000000E+00" nType="-99">
                </Node>
            </Node>
        </Node>
        <Node pos="r" depth="2" NCoef="0" IVar="12" Cut="3.30608947999999998E+02" cType="1" res="0.00000000000000000E+00" rms="0.0" purity="0.00000000E+00" nType="0">
            <Node pos="l" depth="3" NCoef="0" IVar="2" Cut="1.44649811000000000E+02" cType="1" res="0.00000000000000000E+00" rms="0.0" purity="0.00000000E+00" nType="0">
                <Node pos="l" depth="4" NCoef="0" IVar="-1" Cut="0.00000000000000000E+00" cType="1" res="6.11941032000000024E-02" rms="0.0e-00" purity="0.00000000E+00" nType="-99">
                </Node>
                <Node pos="r" depth="4" NCoef="0" IVar="-1" Cut="0.00000000000000000E+00" cType="1" res="-1.22259431000000002E-01" rms="0.0e-00" purity="0.00000000E+00" nType="-99">
                </Node>
            </Node>
            <Node pos="r" depth="3" NCoef="0" IVar="2" Cut="1.61842957000000013E+02" cType="1" res="0.00000000000000000E+00" rms="0.0" purity="0.00000000E+00" nType="0">
                <Node pos="l" depth="4" NCoef="0" IVar="-1" Cut="0.00000000000000000E+00" cType="1" res="1.59516394000000006E-01" rms="0.0e-00" purity="0.00000000E+00" nType="-99">
                </Node>
                <Node pos="r" depth="4" NCoef="0" IVar="-1" Cut="0.00000000000000000E+00" cType="1" res="6.64730146999999993E-02" rms="0.0e-00" purity="0.00000000E+00" nType="-99">
                </Node>
            </Node>
        </Node>
    </Node>
</BinaryTree>
<BinaryTree type="DecisionTree" boostWeight="0.0" itree="4">
    <Node pos="c" depth="1" NCoef="0" IVar="24" Cut="6.79822143999999980E+02" cType="1" res="0.00000000000000000E+00" rms="0.0" purity="0.00000000E+00" nType="0">
        <Node pos="l" depth="2" NCoef="0" IVar="7" Cut="8.32614659999999951E-01" cType="1" res="0.00000000000000000E+00" rms="0.0" purity="0.00000000E+00" nType="0">
            <Node pos="l" depth="3" NCoef="0" IVar="1" Cut="1.02415619000000007E+02" cType="1" res="0.00000000000000000E+00" rms="0.0" purity="0.00000000E+00" nType="0">
                <Node pos="l" depth="4" NCoef="0" IVar="-1" Cut="0.00000000000000000E+00" cType="1" res="-1.29906698999999987E-01" rms="0.0e-00" purity="0.00000000E+00" nType="-99">
                </Node>
                <Node pos="r" depth="4" NCoef="0" IVar="-1" Cut="0.00000000000000000E+00" cType="1" res="-4.69144061000000001E-02" rms="0.0e-00" purity="0.00000000E+00" nType="-99">
                </Node>
            </Node>
            <Node pos="r" depth="3" NCoef="0" IVar="6" Cut="1.41955902000000009E+02" cType="1" res="0.00000000000000000E+00" rms="0.0" purity="0.00000000E+00" nType="0">
                <Node pos="l" depth="4" NCoef="0" IVar="-1" Cut="0.00000000000000000E+00" cType="1" res="1.10709518000000007E-01" rms="0.0e-00" purity="0.00000000E+00" nType="-99">
                </Node>
                <Node pos="r" depth="4" NCoef="0" IVar="-1" Cut="0.00000000000000000E+00" cType="1" res="-5.78830205000000018E-03" rms="0.0e-00" purity="0.00000000E+00" nType="-99">
                </Node>
            </Node>
        </Node>
        <Node pos="r" depth="2" NCoef="0" IVar="1" Cut="9.03556061000000028E+01" cType="1" res="0.00000000000000000E+00" rms="0.0" purity="0.00000000E+00" nType="0">
            <Node pos="l" depth="3" NCoef="0" IVar="0" Cut="7.22410201999999946E-01" cType="1" res="0.00000000000000000E+00" rms="0.0" purity="0.00000000E+00" nType="0">
                <Node pos="l" depth="4" NCoef="0" IVar="-1" Cut="0.00000000000000000E+00" cType="1" res="4.94996234999999993E-02" rms="0.0e-00" purity="0.00000000E+00" nType="-99">
                </Node>
                <Node pos="r" depth="4" NCoef="0" IVar="-1" Cut="0.00000000000000000E+00" cType="1" res="-1.18859700999999998E-01" rms="0.0e-00" purity="0.00000000E+00" nType="-99">
                </Node>
            </Node>
            <Node pos="r" depth="3" NCoef="0" IVar="1" Cut="1.48183471999999995E+02" cType="1" res="0.00000000000000000E+00" rms="0.0" purity="0.00000000E+00" nType="0">
                <Node pos="l" depth="4" NCoef="0" IVar="-1" Cut="0.00000000000000000E+00" cType="1" res="1.34772465000000008E-01" rms="0.0e-00" purity="0.00000000E+00" nType="-99">
                </Node>
                <Node pos="r" depth="4" NCoef="0" IVar="-1" Cut="0.00000000000000000E+00" cType="1" res="-4.99165691000000022E-02" rms="0.0e-00" purity="0.00000000E+00" nType="-99">
                </Node>
            </Node>
        </Node>
    </Node>
</BinaryTree>
<BinaryTree type="DecisionTree" boostWeight="0.0" itree="5">
    <Node pos="c" depth="1" NCoef="0" IVar="7" Cut="7.46040582999999979E-01" cType="1" res="0.00000000000000000E+00" rms="0.0" purity="0.00000000E+00" nType="0">
        <Node pos="l" depth="2" NCoef="0" IVar="12" Cut="3.97934570000000008E+02" cType="1" res="0.00000000000000000E+00" rms="0.0" purity="0.00000000E+00" nType="0">
            <Node pos="l" depth="3" NCoef="0" IVar="6" Cut="1.37773514000000006E+02" cType="1" res="0.00000000000000000E+00" rms="0.0" purity="0.00000000E+00" nType="0">
                <Node pos="l" depth="4" NCoef="0" IVar="-1" Cut="0.00000000000000000E+00" cType="1" res="-6.73721656000000058E-02" rms="0.0e-00" purity="0.00000000E+00" nType="-99">
                </Node>
                <Node pos="r" depth="4" NCoef="0" IVar="-1" Cut="0.00000000000000000E+00" cType="1" res="-1.37841045999999995E-01" rms="0.0e-00" purity="0.00000000E+00" nType="-99">
                </Node>
            </Node>
            <Node pos="r" depth="3" NCoef="0" IVar="2" Cut="1.52414153999999996E+02" cType="1" res="0.00000000000000000E+00" rms="0.0" purity="0.00000000E+00" nType="0">
                <Node pos="l" depth="4" NCoef="0" IVar="-1" Cut="0.00000000000000000E+00" cType="1" res="9.60844009999999998E-02" rms="0.0e-00" purity="0.00000000E+00" nType="-99">
                </Node>
                <Node pos="r" depth="4" NCoef="0" IVar="-1" Cut="0.00000000000000000E+00" cType="1" res="-8.89884531000000034E-02" rms="0.0e-00" purity="0.00000000E+00" nType="-99">
                </Node>
            </Node>
        </Node>
        <Node pos="r" depth="2" NCoef="0" IVar="1" Cut="9.35582581000000033E+01" cType="1" res="0.00000000000000000E+00" rms="0.0" purity="0.00000000E+00" nType="0">
            <Node pos="l" depth="3" NCoef="0" IVar="0" Cut="6.31641149999999985E-01" cType="1" res="0.00000000000000000E+00" rms="0.0" purity="0.00000000E+00" nType="0">
                <Node pos="l" depth="4" NCoef="0" IVar="-1" Cut="0.00000000000000000E+00" cType="1" res="6.46367818000000011E-02" rms="0.0e-00" purity="0.00000000E+00" nType="-99">
                </Node>
                <Node pos="r" depth="4" NCoef="0" IVar="-1" Cut="0.00000000000000000E+00" cType="1" res="-5.34073450000000019E-02" rms="0.0e-00" purity="0.00000000E+00" nType="-99">
                </Node>
            </Node>
            <Node pos="r" depth="3" NCoef="0" IVar="2" Cut="1.61482634999999988E+02" cType="1" res="0.00000000000000000E+00" rms="0.0" purity="0.00000000E+00" nType="0">
                <Node pos="l" depth="4" NCoef="0" IVar="-1" Cut="0.00000000000000000E+00" cType="1" res="1.39201343000000005E-01" rms="0.0e-00" purity="0.00000000E+00" nType="-99">
                </Node>
                <Node pos="r" depth="4" NCoef="0" IVar="-1" Cut="0.00000000000000000E+00" cType="1" res="4.79464008999999983E-02" rms="0.0e-00" purity="0.00000000E+00" nType="-99">
                </Node>
            </Node>
        </Node>
    </Node>
</BinaryTree>
<BinaryTree type="DecisionTree" boostWeight="0.0" itree="6">
    <Node pos="c" depth="1" NCoef="0" IVar="7" Cut="7.49320686000000014E-01" cType="1" res="0.00000000000000000E+00" rms="0.0" purity="0.00000000E+00" nType="0">
        <Node pos="l" depth="2" NCoef="0" IVar="12" Cut="3.81778931000000000E+02" cType="1" res="0.00000000000000000E+00" rms="0.0" purity="0.00000000E+00" nType="0">
            <Node pos="l" depth="3" NCoef="0" IVar="2" Cut="1.54399657999999988E+02" cType="1" res="0.00000000000000000E+00" rms="0.0" purity="0.00000000E+00" nType="0">
                <Node pos="l" depth="4" NCoef="0" IVar="-1" Cut="0.00000000000000000E+00" cType="1" res="-7.72844478000000029E-02" rms="0.0e-00" purity="0.00000000E+00" nType="-99">
                </Node>
                <Node pos="r" depth="4" NCoef="0" IVar="-1" Cut="0.00000000000000000E+00" cType="1" res="-1.43616244000000004E-01" rms="0.0e-00" purity="0.00000000E+00" nType="-99">
                </Node>
            </Node>
            <Node pos="r" depth="3" NCoef="0" IVar="2" Cut="1.53408890000000014E+02" cType="1" res="0.00000000000000000E+00" rms="0.0" purity="0.00000000E+00" nType="0">
                <Node pos="l" depth="4" NCoef="0" IVar="-1" Cut="0.00000000000000000E+00" cType="1" res="7.77409151000000020E-02" rms="0.0e-00" purity="0.00000000E+00" nType="-99">
                </Node>
                <Node pos="r" depth="4" NCoef="0" IVar="-1" Cut="0.00000000000000000E+00" cType="1" res="-8.24672951999999987E-02" rms="0.0e-00" purity="0.00000000E+00" nType="-99">
                </Node>
            </Node>
        </Node>
        <Node pos="r" depth="2" NCoef="0" IVar="12" Cut="3.38789611999999977E+02" cType="1" res="0.00000000000000000E+00" rms="0.0" purity="0.00000000E+00" nType="0">
            <Node pos="l" depth="3" NCoef="0" IVar="2" Cut="1.41682770000000005E+02" cType="1" res="0.00000000000000000E+00" rms="0.0" purity="0.00000000E+00" nType="0">
                <Node pos="l" depth="4" NCoef="0" IVar="-1" Cut="0.00000000000000000E+00" cType="1" res="5.13510256999999970E-02" rms="0.0e-00" purity="0.00000000E+00" nType="-99">
                </Node>
                <Node pos="r" depth="4" NCoef="0" IVar="-1" Cut="0.00000000000000000E+00" cType="1" res="-1.07503011999999995E-01" rms="0.0e-00" purity="0.00000000E+00" nType="-99">
                </Node>
            </Node>
            <Node pos="r" depth="3" NCoef="0" IVar="3" Cut="6.04248047000000010E-02" cType="1" res="0.00000000000000000E+00" rms="0.0" purity="0.00000000E+00" nType="0">
                <Node pos="l" depth="4" NCoef="0" IVar="-1" Cut="0.00000000000000000E+00" cType="1" res="3.06939742999999994E-02" rms="0.0e-00" purity="0.00000000E+00" nType="-99">
                </Node>
                <Node pos="r" depth="4" NCoef="0" IVar="-1" Cut="0.00000000000000000E+00" cType="1" res="1.35806709999999997E-01" rms="0.0e-00" purity="0.00000000E+00" nType="-99">
                </Node>
            </Node>
        </Node>
    </Node>
</BinaryTree>
<BinaryTree type="DecisionTree" boostWeight="0.0" itree="7">
    <Node pos="c" depth="1" NCoef="0" IVar="24" Cut="7.95819458000000054E+02" cType="1" res="0.00000000000000000E+00" rms="0.0" purity="0.00000000E+00" nType="0">
        <Node pos="l" depth="2" NCoef="0" IVar="7" Cut="8.37420701999999961E-01" cType="1" res="0.00000000000000000E+00" rms="0.0" purity="0.00000000E+00" nType="0">
            <Node pos="l" depth="3" NCoef="0" IVar="6" Cut="1.41605651999999992E+02" cType="1" res="0.00000000000000000E+00" rms="0.0" purity="0.00000000E+00" nType="0">
                <Node pos="l" depth="4" NCoef="0" IVar="-1" Cut="0.00000000000000000E+00" cType="1" res="-4.29841316999999973E-02" rms="0.0e-00" purity="0.00000000E+00" nType="-99">
                </Node>
                <Node pos="r" depth="4" NCoef="0" IVar="-1" Cut="0.00000000000000000E+00" cType="1" res="-1.20821922999999998E-01" rms="0.0e-00" purity="0.00000000E+00" nType="-99">
                </Node>
            </Node>
            <Node pos="r" depth="3" NCoef="0" IVar="2" Cut="1.36278167999999994E+02" cType="1" res="0.00000000000000000E+00" rms="0.0" purity="0.00000000E+00" nType="0">
                <Node pos="l" depth="4" NCoef="0" IVar="-1" Cut="0.00000000000000000E+00" cType="1" res="9.15803238999999963E-02" rms="0.0e-00" purity="0.00000000E+00" nType="-99">
                </Node>
                <Node pos="r" depth="4" NCoef="0" IVar="-1" Cut="0.00000000000000000E+00" cType="1" res="-3.30292135000000014E-02" rms="0.0e-00" purity="0.00000000E+00" nType="-99">
                </Node>
            </Node>
        </Node>
        <Node pos="r" depth="2" NCoef="0" IVar="1" Cut="7.89265137000000010E+01" cType="1" res="0.00000000000000000E+00" rms="0.0" purity="0.00000000E+00" nType="0">
            <Node pos="l" depth="3" NCoef="0" IVar="7" Cut="8.34219456000000026E-01" cType="1" res="0.00000000000000000E+00" rms="0.0" purity="0.00000000E+00" nType="0">
                <Node pos="l" depth="4" NCoef="0" IVar="-1" Cut="0.00000000000000000E+00" cType="1" res="-9.98042001999999984E-02" rms="0.0e-00" purity="0.00000000E+00" nType="-99">
                </Node>
                <Node pos="r" depth="4" NCoef="0" IVar="-1" Cut="0.00000000000000000E+00" cType="1" res="5.40772824999999971E-02" rms="0.0e-00" purity="0.00000000E+00" nType="-99">
                </Node>
            </Node>
            <Node pos="r" depth="3" NCoef="0" IVar="1" Cut="1.53903229000000010E+02" cType="1" res="0.00000000000000000E+00" rms="0.0" purity="0.00000000E+00" nType="0">
                <Node pos="l" depth="4" NCoef="0" IVar="-1" Cut="0.00000000000000000E+00" cType="1" res="1.20701477000000001E-01" rms="0.0e-00" purity="0.00000000E+00" nType="-99">
                </Node>
                <Node pos="r" depth="4" NCoef="0" IVar="-1" Cut="0.00000000000000000E+00" cType="1" res="-8.00315887000000031E-02" rms="0.0e-00" purity="0.00000000E+00" nType="-99">
                </Node>
            </Node>
        </Node>
    </Node>
</BinaryTree>
<BinaryTree type="DecisionTree" boostWeight="0.0" itree="8">
    <Node pos="c" depth="1" NCoef="0" IVar="7" Cut="8.34850906999999975E-01" cType="1" res="0.00000000000000000E+00" rms="0.0" purity="0.00000000E+00" nType="0">
        <Node pos="l" depth="2" NCoef="0" IVar="1" Cut="9.52384186000000028E+01" cType="1" res="0.00000000000000000E+00" rms="0.0" purity="0.00000000E+00" nType="0">
            <Node pos="l" depth="3" NCoef="0" IVar="2" Cut="1.41787749999999988E+02" cType="1" res="0.00000000000000000E+00" rms="0.0" purity="0.00000000E+00" nType="0">
                <Node pos="l" depth="4" NCoef="0" IVar="-1" Cut="0.00000000000000000E+00" cType="1" res="-7.98552111000000037E-02" rms="0.0e-00" purity="0.00000000E+00" nType="-99">
                </Node>
                <Node pos="r" depth="4" NCoef="0" IVar="-1" Cut="0.00000000000000000E+00" cType="1" res="-1.32917002000000006E-01" rms="0.0e-00" purity="0.00000000E+00" nType="-99">
                </Node>
            </Node>
            <Node pos="r" depth="3" NCoef="0" IVar="2" Cut="1.52400238000000002E+02" cType="1" res="0.00000000000000000E+00" rms="0.0" purity="0.00000000E+00" nType="0">
                <Node pos="l" depth="4" NCoef="0" IVar="-1" Cut="0.00000000000000000E+00" cType="1" res="5.41856661000000017E-02" rms="0.0e-00" purity="0.00000000E+00" nType="-99">
                </Node>
                <Node pos="r" depth="4" NCoef="0" IVar="-1" Cut="0.00000000000000000E+00" cType="1" res="-8.30013676999999950E-02" rms="0.0e-00" purity="0.00000000E+00" nType="-99">
                </Node>
            </Node>
        </Node>
        <Node pos="r" depth="2" NCoef="0" IVar="1" Cut="9.22407836999999944E+01" cType="1" res="0.00000000000000000E+00" rms="0.0" purity="0.00000000E+00" nType="0">
            <Node pos="l" depth="3" NCoef="0" IVar="0" Cut="6.39612078999999945E-01" cType="1" res="0.00000000000000000E+00" rms="0.0" purity="0.00000000E+00" nType="0">
                <Node pos="l" depth="4" NCoef="0" IVar="-1" Cut="0.00000000000000000E+00" cType="1" res="6.62094131000000030E-02" rms="0.0e-00" purity="0.00000000E+00" nType="-99">
                </Node>
                <Node pos="r" depth="4" NCoef="0" IVar="-1" Cut="0.00000000000000000E+00" cType="1" res="-4.00721766000000021E-02" rms="0.0e-00" purity="0.00000000E+00" nType="-99">
                </Node>
            </Node>
            <Node pos="r" depth="3" NCoef="0" IVar="1" Cut="1.44936919999999986E+02" cType="1" res="0.00000000000000000E+00" rms="0.0" purity="0.00000000E+00" nType="0">
                <Node pos="l" depth="4" NCoef="0" IVar="-1" Cut="0.00000000000000000E+00" cType="1" res="1.27537429000000008E-01" rms="0.0e-00" purity="0.00000000E+00" nType="-99">
                </Node>
                <Node pos="r" depth="4" NCoef="0" IVar="-1" Cut="0.00000000000000000E+00" cType="1" res="2.39285584999999988E-02" rms="0.0e-00" purity="0.00000000E+00" nType="-99">
                </Node>
            </Node>
        </Node>
    </Node>
</BinaryTree>
<BinaryTree type="DecisionTree" boostWeight="0.0" itree="9">
    <Node pos="c" depth="1" NCoef="0" IVar="12" Cut="3.35310669000000019E+02" cType="1" res="0.00000000000000000E+00" rms="0.0" purity="0.00000000E+00" nType="0">
        <Node pos="l" depth="2" NCoef="0" IVar="0" Cut="8.15364182000000048E-01" cType="1" res="0.00000000000000000E+00" rms="0.0" purity="0.00000000E+00" nType="0">
            <Node pos="l" depth="3" NCoef="0" IVar="2" Cut="1.41632233000000014E+02" cType="1" res="0.00000000000000000E+00" rms="0.0" purity="0.00000000E+00" nType="0">
                <Node pos="l" depth="4" NCoef="0" IVar="-1" Cut="0.00000000000000000E+00" cType="1" res="4.30941284000000008E-02" rms="0.0e-00" purity="0.00000000E+00" nType="-99">
                </Node>
                <Node pos="r" depth="4" NCoef="0" IVar="-1" Cut="0.00000000000000000E+00" cType="1" res="-1.03186882999999993E-01" rms="0.0e-00" purity="0.00000000E+00" nType="-99">
                </Node>
            </Node>
            <Node pos="r" depth="3" NCoef="0" IVar="6" Cut="1.35806702000000001E+02" cType="1" res="0.00000000000000000E+00" rms="0.0" purity="0.00000000E+00" nType="0">
                <Node pos="l" depth="4" NCoef="0" IVar="-1" Cut="0.00000000000000000E+00" cType="1" res="-8.02256912000000044E-02" rms="0.0e-00" purity="0.00000000E+00" nType="-99">
                </Node>
                <Node pos="r" depth="4" NCoef="0" IVar="-1" Cut="0.00000000000000000E+00" cType="1" res="-1.23337849999999999E-01" rms="0.0e-00" purity="0.00000000E+00" nType="-99">
                </Node>
            </Node>
        </Node>
        <Node pos="r" depth="2" NCoef="0" IVar="2" Cut="1.55775115999999997E+02" cType="1" res="0.00000000000000000E+00" rms="0.0" purity="0.00000000E+00" nType="0">
            <Node pos="l" depth="3" NCoef="0" IVar="1" Cut="1.58766234999999995E+02" cType="1" res="0.00000000000000000E+00" rms="0.0" purity="0.00000000E+00" nType="0">
                <Node pos="l" depth="4" NCoef="0" IVar="-1" Cut="0.00000000000000000E+00" cType="1" res="1.04400149999999997E-01" rms="0.0e-00" purity="0.00000000E+00" nType="-99">
                </Node>
                <Node pos="r" depth="4" NCoef="0" IVar="-1" Cut="0.00000000000000000E+00" cType="1" res="-8.91673042999999999E-02" rms="0.0e-00" purity="0.00000000E+00" nType="-99">
                </Node>
            </Node>
            <Node pos="r" depth="3" NCoef="0" IVar="2" Cut="8.02849854000000050E+02" cType="1" res="0.00000000000000000E+00" rms="0.0" purity="0.00000000E+00" nType="0">
                <Node pos="l" depth="4" NCoef="0" IVar="-1" Cut="0.00000000000000000E+00" cType="1" res="-7.96547905000000028E-02" rms="0.0e-00" purity="0.00000000E+00" nType="-99">
                </Node>
                <Node pos="r" depth="4" NCoef="0" IVar="-1" Cut="0.00000000000000000E+00" cType="1" res="1.04029752000000003E-01" rms="0.0e-00" purity="0.00000000E+00" nType="-99">
                </Node>
            </Node>
        </Node>
    </Node>
</BinaryTree>
<BinaryTree type="DecisionTree" boostWeight="0.0" itree="10">
    <Node pos="c" depth="1" NCoef="0" IVar="12" Cut="3.27968903000000012E+02" cType="1" res="0.00000000000000000E+00" rms="0.0" purity="0.00000000E+00" nType="0">
        <Node pos="l" depth="2" NCoef="0" IVar="0" Cut="8.63981365999999973E-01" cType="1" res="0.00000000000000000E+00" rms="0.0" purity="0.00000000E+00" nType="0">
            <Node pos="l" depth="3" NCoef="0" IVar="2" Cut="1.41298157000000003E+02" cType="1" res="0.00000000000000000E+00" rms="0.0" purity="0.00000000E+00" nType="0">
                <Node pos="l" depth="4" NCoef="0" IVar="-1" Cut="0.00000000000000000E+00" cType="1" res="3.28399204000000000E-02" rms="0.0e-00" purity="0.00000000E+00" nType="-99">
                </Node>
                <Node pos="r" depth="4" NCoef="0" IVar="-1" Cut="0.00000000000000000E+00" cType="1" res="-1.01329221999999997E-01" rms="0.0e-00" purity="0.00000000E+00" nType="-99">
                </Node>
            </Node>
            <Node pos="r" depth="3" NCoef="0" IVar="12" Cut="2.80076904000000013E+02" cType="1" res="0.00000000000000000E+00" rms="0.0" purity="0.00000000E+00" nType="0">
                <Node pos="l" depth="4" NCoef="0" IVar="-1" Cut="0.00000000000000000E+00" cType="1" res="-1.10570475000000001E-01" rms="0.0e-00" purity="0.00000000E+00" nType="-99">
                </Node>
                <Node pos="r" depth="4" NCoef="0" IVar="-1" Cut="0.00000000000000000E+00" cType="1" res="-6.09702691000000019E-02" rms="0.0e-00" purity="0.00000000E+00" nType="-99">
                </Node>
            </Node>
        </Node>
        <Node pos="r" depth="2" NCoef="0" IVar="22" Cut="5.97858581999999998E+01" cType="1" res="0.00000000000000000E+00" rms="0.0" purity="0.00000000E+00" nType="0">
            <Node pos="l" depth="3" NCoef="0" IVar="1" Cut="1.44904204999999990E+02" cType="1" res="0.00000000000000000E+00" rms="0.0" purity="0.00000000E+00" nType="0">
                <Node pos="l" depth="4" NCoef="0" IVar="-1" Cut="0.00000000000000000E+00" cType="1" res="9.15054082999999935E-02" rms="0.0e-00" purity="0.00000000E+00" nType="-99">
                </Node>
                <Node pos="r" depth="4" NCoef="0" IVar="-1" Cut="0.00000000000000000E+00" cType="1" res="-6.13676645000000021E-02" rms="0.0e-00" purity="0.00000000E+00" nType="-99">
                </Node>
            </Node>
            <Node pos="r" depth="3" NCoef="0" IVar="-1" Cut="0.00000000000000000E+00" cType="1" res="-1.59594252999999991E-01" rms="0.0e-00" purity="0.00000000E+00" nType="-99">
            </Node>
        </Node>
    </Node>
</BinaryTree>
<BinaryTree type="DecisionTree" boostWeight="0.0" itree="11">
    <Node pos="c" depth="1" NCoef="0" IVar="24" Cut="8.31662108999999987E+02" cType="1" res="0.00000000000000000E+00" rms="0.0" purity="0.00000000E+00" nType="0">
        <Node pos="l" depth="2" NCoef="0" IVar="7" Cut="8.62778306000000050E-01" cType="1" res="0.00000000000000000E+00" rms="0.0" purity="0.00000000E+00" nType="0">
            <Node pos="l" depth="3" NCoef="0" IVar="6" Cut="1.41499725000000012E+02" cType="1" res="0.00000000000000000E+00" rms="0.0" purity="0.00000000E+00" nType="0">
                <Node pos="l" depth="4" NCoef="0" IVar="-1" Cut="0.00000000000000000E+00" cType="1" res="-2.44681593000000003E-02" rms="0.0e-00" purity="0.00000000E+00" nType="-99">
                </Node>
                <Node pos="r" depth="4" NCoef="0" IVar="-1" Cut="0.00000000000000000E+00" cType="1" res="-9.86234545999999934E-02" rms="0.0e-00" purity="0.00000000E+00" nType="-99">
                </Node>
            </Node>
            <Node pos="r" depth="3" NCoef="0" IVar="6" Cut="1.46227035999999998E+02" cType="1" res="0.00000000000000000E+00" rms="0.0" purity="0.00000000E+00" nType="0">
                <Node pos="l" depth="4" NCoef="0" IVar="-1" Cut="0.00000000000000000E+00" cType="1" res="9.87735911999999966E-02" rms="0.0e-00" purity="0.00000000E+00" nType="-99">
                </Node>
                <Node pos="r" depth="4" NCoef="0" IVar="-1" Cut="0.00000000000000000E+00" cType="1" res="1.76979043000000009E-02" rms="0.0e-00" purity="0.00000000E+00" nType="-99">
                </Node>
            </Node>
        </Node>
        <Node pos="r" depth="2" NCoef="0" IVar="1" Cut="7.81593170000000015E+01" cType="1" res="0.00000000000000000E+00" rms="0.0" purity="0.00000000E+00" nType="0">
            <Node pos="l" depth="3" NCoef="0" IVar="7" Cut="8.34213018000000028E-01" cType="1" res="0.00000000000000000E+00" rms="0.0" purity="0.00000000E+00" nType="0">
                <Node pos="l" depth="4" NCoef="0" IVar="-1" Cut="0.00000000000000000E+00" cType="1" res="-9.34487878999999966E-02" rms="0.0e-00" purity="0.00000000E+00" nType="-99">
                </Node>
                <Node pos="r" depth="4" NCoef="0" IVar="-1" Cut="0.00000000000000000E+00" cType="1" res="2.74904928999999999E-02" rms="0.0e-00" purity="0.00000000E+00" nType="-99">
                </Node>
            </Node>
            <Node pos="r" depth="3" NCoef="0" IVar="1" Cut="1.44670211999999992E+02" cType="1" res="0.00000000000000000E+00" rms="0.0" purity="0.00000000E+00" nType="0">
                <Node pos="l" depth="4" NCoef="0" IVar="-1" Cut="0.00000000000000000E+00" cType="1" res="1.06816365999999996E-01" rms="0.0e-00" purity="0.00000000E+00" nType="-99">
                </Node>
                <Node pos="r" depth="4" NCoef="0" IVar="-1" Cut="0.00000000000000000E+00" cType="1" res="-1.10491766000000002E-02" rms="0.0e-00" purity="0.00000000E+00" nType="-99">
                </Node>
            </Node>
        </Node>
    </Node>
</BinaryTree>
<BinaryTree type="DecisionTree" boostWeight="0.0" itree="12">
    <Node pos="c" depth="1" NCoef="0" IVar="1" Cut="9.82871245999999985E+01" cType="1" res="0.00000000000000000E+00" rms="0.0" purity="0.00000000E+00" nType="0">
        <Node pos="l" depth="2" NCoef="0" IVar="0" Cut="8.00739883999999957E-01" cType="1" res="0.00000000000000000E+00" rms="0.0" purity="0.00000000E+00" nType="0">
            <Node pos="l" depth="3" NCoef="0" IVar="22" Cut="5.86526337000000026E+01" cType="1" res="0.00000000000000000E+00" rms="0.0" purity="0.00000000E+00" nType="0">
                <Node pos="l" depth="4" NCoef="0" IVar="-1" Cut="0.00000000000000000E+00" cType="1" res="1.29870391000000002E-02" rms="0.0e-00" purity="0.00000000E+00" nType="-99">
                </Node>
                <Node pos="r" depth="4" NCoef="0" IVar="-1" Cut="0.00000000000000000E+00" cType="1" res="-1.48412183000000003E-01" rms="0.0e-00" purity="0.00000000E+00" nType="-99">
                </Node>
            </Node>
            <Node pos="r" depth="3" NCoef="0" IVar="5" Cut="2.30990982000000002E+02" cType="1" res="0.00000000000000000E+00" rms="0.0" purity="0.00000000E+00" nType="0">
                <Node pos="l" depth="4" NCoef="0" IVar="-1" Cut="0.00000000000000000E+00" cType="1" res="-9.37533452999999989E-02" rms="0.0e-00" purity="0.00000000E+00" nType="-99">
                </Node>
                <Node pos="r" depth="4" NCoef="0" IVar="-1" Cut="0.00000000000000000E+00" cType="1" res="-2.14516022000000011E-03" rms="0.0e-00" purity="0.00000000E+00" nType="-99">
                </Node>
            </Node>
        </Node>
        <Node pos="r" depth="2" NCoef="0" IVar="3" Cut="1.07940674000000000E-01" cType="1" res="0.00000000000000000E+00" rms="0.0" purity="0.00000000E+00" nType="0">
            <Node pos="l" depth="3" NCoef="0" IVar="24" Cut="9.56112061000000040E+02" cType="1" res="0.00000000000000000E+00" rms="0.0" purity="0.00000000E+00" nType="0">
                <Node pos="l" depth="4" NCoef="0" IVar="-1" Cut="0.00000000000000000E+00" cType="1" res="-8.50896388000000059E-02" rms="0.0e-00" purity="0.00000000E+00" nType="-99">
                </Node>
                <Node pos="r" depth="4" NCoef="0" IVar="-1" Cut="0.00000000000000000E+00" cType="1" res="3.89621928000000034E-02" rms="0.0e-00" purity="0.00000000E+00" nType="-99">
                </Node>
            </Node>
            <Node pos="r" depth="3" NCoef="0" IVar="8" Cut="7.32116698999999982E-02" cType="1" res="0.00000000000000000E+00" rms="0.0" purity="0.00000000E+00" nType="0">
                <Node pos="l" depth="4" NCoef="0" IVar="-1" Cut="0.00000000000000000E+00" cType="1" res="-5.95429763000000015E-02" rms="0.0e-00" purity="0.00000000E+00" nType="-99">
                </Node>
                <Node pos="r" depth="4" NCoef="0" IVar="-1" Cut="0.00000000000000000E+00" cType="1" res="1.03622243000000003E-01" rms="0.0e-00" purity="0.00000000E+00" nType="-99">
                </Node>
            </Node>
        </Node>
    </Node>
</BinaryTree>
<BinaryTree type="DecisionTree" boostWeight="0.0" itree="13">
    <Node pos="c" depth="1" NCoef="0" IVar="7" Cut="8.34850906999999975E-01" cType="1" res="0.00000000000000000E+00" rms="0.0" purity="0.00000000E+00" nType="0">
        <Node pos="l" depth="2" NCoef="0" IVar="1" Cut="9.91363678000000021E+01" cType="1" res="0.00000000000000000E+00" rms="0.0" purity="0.00000000E+00" nType="0">
            <Node pos="l" depth="3" NCoef="0" IVar="22" Cut="2.90956039000000004E+01" cType="1" res="0.00000000000000000E+00" rms="0.0" purity="0.00000000E+00" nType="0">
                <Node pos="l" depth="4" NCoef="0" IVar="-1" Cut="0.00000000000000000E+00" cType="1" res="-5.84495775000000023E-02" rms="0.0e-00" purity="0.00000000E+00" nType="-99">
                </Node>
                <Node pos="r" depth="4" NCoef="0" IVar="-1" Cut="0.00000000000000000E+00" cType="1" res="-1.36690705999999995E-01" rms="0.0e-00" purity="0.00000000E+00" nType="-99">
                </Node>
            </Node>
            <Node pos="r" depth="3" NCoef="0" IVar="20" Cut="5.00937819000000006E-01" cType="1" res="0.00000000000000000E+00" rms="0.0" purity="0.00000000E+00" nType="0">
                <Node pos="l" depth="4" NCoef="0" IVar="-1" Cut="0.00000000000000000E+00" cType="1" res="1.00889720000000002E-01" rms="0.0e-00" purity="0.00000000E+00" nType="-99">
                </Node>
                <Node pos="r" depth="4" NCoef="0" IVar="-1" Cut="0.00000000000000000E+00" cType="1" res="-2.01840252000000005E-02" rms="0.0e-00" purity="0.00000000E+00" nType="-99">
                </Node>
            </Node>
        </Node>
        <Node pos="r" depth="2" NCoef="0" IVar="26" Cut="2.34530791999999991E+02" cType="1" res="0.00000000000000000E+00" rms="0.0" purity="0.00000000E+00" nType="0">
            <Node pos="l" depth="3" NCoef="0" IVar="3" Cut="5.67474364999999981E-02" cType="1" res="0.00000000000000000E+00" rms="0.0" purity="0.00000000E+00" nType="0">
                <Node pos="l" depth="4" NCoef="0" IVar="-1" Cut="0.00000000000000000E+00" cType="1" res="2.91727147999999992E-02" rms="0.0e-00" purity="0.00000000E+00" nType="-99">
                </Node>
                <Node pos="r" depth="4" NCoef="0" IVar="-1" Cut="0.00000000000000000E+00" cType="1" res="1.02500245000000004E-01" rms="0.0e-00" purity="0.00000000E+00" nType="-99">
                </Node>
            </Node>
            <Node pos="r" depth="3" NCoef="0" IVar="-1" Cut="0.00000000000000000E+00" cType="1" res="-4.65218200999999998E-02" rms="0.0e-00" purity="0.00000000E+00" nType="-99">
            </Node>
        </Node>
    </Node>
</BinaryTree>
<BinaryTree type="DecisionTree" boostWeight="0.0" itree="14">
    <Node pos="c" depth="1" NCoef="0" IVar="24" Cut="8.55677979000000050E+02" cType="1" res="0.00000000000000000E+00" rms="0.0" purity="0.00000000E+00" nType="0">
        <Node pos="l" depth="2" NCoef="0" IVar="2" Cut="1.54488907000000012E+02" cType="1" res="0.00000000000000000E+00" rms="0.0" purity="0.00000000E+00" nType="0">
            <Node pos="l" depth="3" NCoef="0" IVar="2" Cut="8.25532455000000027E+01" cType="1" res="0.00000000000000000E+00" rms="0.0" purity="0.00000000E+00" nType="0">
                <Node pos="l" depth="4" NCoef="0" IVar="-1" Cut="0.00000000000000000E+00" cType="1" res="-5.59171437999999993E-02" rms="0.0e-00" purity="0.00000000E+00" nType="-99">
                </Node>
                <Node pos="r" depth="4" NCoef="0" IVar="-1" Cut="0.00000000000000000E+00" cType="1" res="9.22262221999999993E-02" rms="0.0e-00" purity="0.00000000E+00" nType="-99">
                </Node>
            </Node>
            <Node pos="r" depth="3" NCoef="0" IVar="17" Cut="8.06879729999999995E+01" cType="1" res="0.00000000000000000E+00" rms="0.0" purity="0.00000000E+00" nType="0">
                <Node pos="l" depth="4" NCoef="0" IVar="-1" Cut="0.00000000000000000E+00" cType="1" res="-1.09639861000000005E-01" rms="0.0e-00" purity="0.00000000E+00" nType="-99">
                </Node>
                <Node pos="r" depth="4" NCoef="0" IVar="-1" Cut="0.00000000000000000E+00" cType="1" res="-2.47782058999999992E-02" rms="0.0e-00" purity="0.00000000E+00" nType="-99">
                </Node>
            </Node>
        </Node>
        <Node pos="r" depth="2" NCoef="0" IVar="22" Cut="2.23549575999999988E+01" cType="1" res="0.00000000000000000E+00" rms="0.0" purity="0.00000000E+00" nType="0">
            <Node pos="l" depth="3" NCoef="0" IVar="1" Cut="1.59126006999999987E+02" cType="1" res="0.00000000000000000E+00" rms="0.0" purity="0.00000000E+00" nType="0">
                <Node pos="l" depth="4" NCoef="0" IVar="-1" Cut="0.00000000000000000E+00" cType="1" res="8.92702714000000036E-02" rms="0.0e-00" purity="0.00000000E+00" nType="-99">
                </Node>
                <Node pos="r" depth="4" NCoef="0" IVar="-1" Cut="0.00000000000000000E+00" cType="1" res="-4.24031987999999999E-02" rms="0.0e-00" purity="0.00000000E+00" nType="-99">
                </Node>
            </Node>
            <Node pos="r" depth="3" NCoef="0" IVar="-1" Cut="0.00000000000000000E+00" cType="1" res="-7.87321626999999968E-02" rms="0.0e-00" purity="0.00000000E+00" nType="-99">
            </Node>
        </Node>
    </Node>
</BinaryTree>
<BinaryTree type="DecisionTree" boostWeight="0.0" itree="15">
    <Node pos="c" depth="1" NCoef="0" IVar="7" Cut="7.08706260000000032E-01" cType="1" res="0.00000000000000000E+00" rms="0.0" purity="0.00000000E+00" nType="0">
        <Node pos="l" depth="2" NCoef="0" IVar="5" Cut="2.22993805000000009E+02" cType="1" res="0.00000000000000000E+00" rms="0.0" purity="0.00000000E+00" nType="0">
            <Node pos="l" depth="3" NCoef="0" IVar="2" Cut="1.52752974999999992E+02" cType="1" res="0.00000000000000000E+00" rms="0.0" purity="0.00000000E+00" nType="0">
                <Node pos="l" depth="4" NCoef="0" IVar="-1" Cut="0.00000000000000000E+00" cType="1" res="-4.25522289999999970E-02" rms="0.0e-00" purity="0.00000000E+00" nType="-99">
                </Node>
                <Node pos="r" depth="4" NCoef="0" IVar="-1" Cut="0.00000000000000000E+00" cType="1" res="-1.08211160000000001E-01" rms="0.0e-00" purity="0.00000000E+00" nType="-99">
                </Node>
            </Node>
            <Node pos="r" depth="3" NCoef="0" IVar="12" Cut="6.22104736000000003E+02" cType="1" res="0.00000000000000000E+00" rms="0.0" purity="0.00000000E+00" nType="0">
                <Node pos="l" depth="4" NCoef="0" IVar="-1" Cut="0.00000000000000000E+00" cType="1" res="1.85436277999999994E-03" rms="0.0e-00" purity="0.00000000E+00" nType="-99">
                </Node>
                <Node pos="r" depth="4" NCoef="0" IVar="-1" Cut="0.00000000000000000E+00" cType="1" res="1.22617945000000006E-01" rms="0.0e-00" purity="0.00000000E+00" nType="-99">
                </Node>
            </Node>
        </Node>
        <Node pos="r" depth="2" NCoef="0" IVar="22" Cut="2.23402862999999989E+01" cType="1" res="0.00000000000000000E+00" rms="0.0" purity="0.00000000E+00" nType="0">
            <Node pos="l" depth="3" NCoef="0" IVar="12" Cut="2.43054229999999990E+02" cType="1" res="0.00000000000000000E+00" rms="0.0" purity="0.00000000E+00" nType="0">
                <Node pos="l" depth="4" NCoef="0" IVar="-1" Cut="0.00000000000000000E+00" cType="1" res="-2.92057301999999984E-02" rms="0.0e-00" purity="0.00000000E+00" nType="-99">
                </Node>
                <Node pos="r" depth="4" NCoef="0" IVar="-1" Cut="0.00000000000000000E+00" cType="1" res="7.92853460000000065E-02" rms="0.0e-00" purity="0.00000000E+00" nType="-99">
                </Node>
            </Node>
            <Node pos="r" depth="3" NCoef="0" IVar="-1" Cut="0.00000000000000000E+00" cType="1" res="-1.13587602999999995E-01" rms="0.0e-00" purity="0.00000000E+00" nType="-99">
            </Node>
        </Node>
    </Node>
</BinaryTree>
<BinaryTree type="DecisionTree" boostWeight="0.0" itree="16">
    <Node pos="c" depth="1" NCoef="0" IVar="24" Cut="9.30520874000000049E+02" cType="1" res="0.00000000000000000E+00" rms="0.0" purity="0.00000000E+00" nType="0">
        <Node pos="l" depth="2" NCoef="0" IVar="2" Cut="1.46974792000000008E+02" cType="1" res="0.00000000000000000E+00" rms="0.0" purity="0.00000000E+00" nType="0">
            <Node pos="l" depth="3" NCoef="0" IVar="2" Cut="8.05954741999999982E+01" cType="1" res="0.00000000000000000E+00" rms="0.0" purity="0.00000000E+00" nType="0">
                <Node pos="l" depth="4" NCoef="0" IVar="-1" Cut="0.00000000000000000E+00" cType="1" res="-4.67709601000000016E-02" rms="0.0e-00" purity="0.00000000E+00" nType="-99">
                </Node>
                <Node pos="r" depth="4" NCoef="0" IVar="-1" Cut="0.00000000000000000E+00" cType="1" res="9.03377533000000038E-02" rms="0.0e-00" purity="0.00000000E+00" nType="-99">
                </Node>
            </Node>
            <Node pos="r" depth="3" NCoef="0" IVar="3" Cut="2.31140136999999996E-01" cType="1" res="0.00000000000000000E+00" rms="0.0" purity="0.00000000E+00" nType="0">
                <Node pos="l" depth="4" NCoef="0" IVar="-1" Cut="0.00000000000000000E+00" cType="1" res="-1.08683258000000005E-01" rms="0.0e-00" purity="0.00000000E+00" nType="-99">
                </Node>
                <Node pos="r" depth="4" NCoef="0" IVar="-1" Cut="0.00000000000000000E+00" cType="1" res="-5.88844530000000033E-02" rms="0.0e-00" purity="0.00000000E+00" nType="-99">
                </Node>
            </Node>
        </Node>
        <Node pos="r" depth="2" NCoef="0" IVar="1" Cut="8.14042891999999938E+01" cType="1" res="0.00000000000000000E+00" rms="0.0" purity="0.00000000E+00" nType="0">
            <Node pos="l" depth="3" NCoef="0" IVar="-1" Cut="0.00000000000000000E+00" cType="1" res="-2.37740817999999993E-02" rms="0.0e-00" purity="0.00000000E+00" nType="-99">
            </Node>
            <Node pos="r" depth="3" NCoef="0" IVar="1" Cut="1.45393585000000002E+02" cType="1" res="0.00000000000000000E+00" rms="0.0" purity="0.00000000E+00" nType="0">
                <Node pos="l" depth="4" NCoef="0" IVar="-1" Cut="0.00000000000000000E+00" cType="1" res="9.86735299000000010E-02" rms="0.0e-00" purity="0.00000000E+00" nType="-99">
                </Node>
                <Node pos="r" depth="4" NCoef="0" IVar="-1" Cut="0.00000000000000000E+00" cType="1" res="-1.95351336000000007E-02" rms="0.0e-00" purity="0.00000000E+00" nType="-99">
                </Node>
            </Node>
        </Node>
    </Node>
</BinaryTree>
<BinaryTree type="DecisionTree" boostWeight="0.0" itree="17">
    <Node pos="c" depth="1" NCoef="0" IVar="7" Cut="8.66821826000000017E-01" cType="1" res="0.00000000000000000E+00" rms="0.0" purity="0.00000000E+00" nType="0">
        <Node pos="l" depth="2" NCoef="0" IVar="3" Cut="1.47277831999999997E-01" cType="1" res="0.00000000000000000E+00" rms="0.0" purity="0.00000000E+00" nType="0">
            <Node pos="l" depth="3" NCoef="0" IVar="2" Cut="1.68623855999999989E+02" cType="1" res="0.00000000000000000E+00" rms="0.0" purity="0.00000000E+00" nType="0">
                <Node pos="l" depth="4" NCoef="0" IVar="-1" Cut="0.00000000000000000E+00" cType="1" res="-4.62055951000000034E-02" rms="0.0e-00" purity="0.00000000E+00" nType="-99">
                </Node>
                <Node pos="r" depth="4" NCoef="0" IVar="-1" Cut="0.00000000000000000E+00" cType="1" res="-1.07837044000000007E-01" rms="0.0e-00" purity="0.00000000E+00" nType="-99">
                </Node>
            </Node>
            <Node pos="r" depth="3" NCoef="0" IVar="8" Cut="1.81701659999999987E-01" cType="1" res="0.00000000000000000E+00" rms="0.0" purity="0.00000000E+00" nType="0">
                <Node pos="l" depth="4" NCoef="0" IVar="-1" Cut="0.00000000000000000E+00" cType="1" res="-7.21022189000000008E-02" rms="0.0e-00" purity="0.00000000E+00" nType="-99">
                </Node>
                <Node pos="r" depth="4" NCoef="0" IVar="-1" Cut="0.00000000000000000E+00" cType="1" res="5.85711151000000013E-02" rms="0.0e-00" purity="0.00000000E+00" nType="-99">
                </Node>
            </Node>
        </Node>
        <Node pos="r" depth="2" NCoef="0" IVar="2" Cut="1.61542556999999988E+02" cType="1" res="0.00000000000000000E+00" rms="0.0" purity="0.00000000E+00" nType="0">
            <Node pos="l" depth="3" NCoef="0" IVar="1" Cut="8.65738067999999998E+01" cType="1" res="0.00000000000000000E+00" rms="0.0" purity="0.00000000E+00" nType="0">
                <Node pos="l" depth="4" NCoef="0" IVar="-1" Cut="0.00000000000000000E+00" cType="1" res="3.29123623999999990E-02" rms="0.0e-00" purity="0.00000000E+00" nType="-99">
                </Node>
                <Node pos="r" depth="4" NCoef="0" IVar="-1" Cut="0.00000000000000000E+00" cType="1" res="1.05566709999999994E-01" rms="0.0e-00" purity="0.00000000E+00" nType="-99">
                </Node>
            </Node>
            <Node pos="r" depth="3" NCoef="0" IVar="-1" Cut="0.00000000000000000E+00" cType="1" res="9.47385094999999948E-03" rms="0.0e-00" purity="0.00000000E+00" nType="-99">
            </Node>
        </Node>
    </Node>
</BinaryTree>
<BinaryTree type="DecisionTree" boostWeight="0.0" itree="18">
    <Node pos="c" depth="1" NCoef="0" IVar="7" Cut="7.20576227000000014E-01" cType="1" res="0.00000000000000000E+00" rms="0.0" purity="0.00000000E+00" nType="0">
        <Node pos="l" depth="2" NCoef="0" IVar="5" Cut="2.07528594999999996E+02" cType="1" res="0.00000000000000000E+00" rms="0.0" purity="0.00000000E+00" nType="0">
            <Node pos="l" depth="3" NCoef="0" IVar="22" Cut="3.92644997000000018E+01" cType="1" res="0.00000000000000000E+00" rms="0.0" purity="0.00000000E+00" nType="0">
                <Node pos="l" depth="4" NCoef="0" IVar="-1" Cut="0.00000000000000000E+00" cType="1" res="-4.39071394999999975E-02" rms="0.0e-00" purity="0.00000000E+00" nType="-99">
                </Node>
                <Node pos="r" depth="4" NCoef="0" IVar="-1" Cut="0.00000000000000000E+00" cType="1" res="-1.29607378999999995E-01" rms="0.0e-00" purity="0.00000000E+00" nType="-99">
                </Node>
            </Node>
            <Node pos="r" depth="3" NCoef="0" IVar="9" Cut="1.63128387000000004E+02" cType="1" res="0.00000000000000000E+00" rms="0.0" purity="0.00000000E+00" nType="0">
                <Node pos="l" depth="4" NCoef="0" IVar="-1" Cut="0.00000000000000000E+00" cType="1" res="1.20027623999999999E-01" rms="0.0e-00" purity="0.00000000E+00" nType="-99">
                </Node>
                <Node pos="r" depth="4" NCoef="0" IVar="-1" Cut="0.00000000000000000E+00" cType="1" res="-1.47745580999999997E-02" rms="0.0e-00" purity="0.00000000E+00" nType="-99">
                </Node>
            </Node>
        </Node>
        <Node pos="r" depth="2" NCoef="0" IVar="22" Cut="6.02740592999999976E+01" cType="1" res="0.00000000000000000E+00" rms="0.0" purity="0.00000000E+00" nType="0">
            <Node pos="l" depth="3" NCoef="0" IVar="0" Cut="9.36387897000000025E-01" cType="1" res="0.00000000000000000E+00" rms="0.0" purity="0.00000000E+00" nType="0">
                <Node pos="l" depth="4" NCoef="0" IVar="-1" Cut="0.00000000000000000E+00" cType="1" res="6.58810586000000004E-02" rms="0.0e-00" purity="0.00000000E+00" nType="-99">
                </Node>
                <Node pos="r" depth="4" NCoef="0" IVar="-1" Cut="0.00000000000000000E+00" cType="1" res="-1.00692317000000003E-01" rms="0.0e-00" purity="0.00000000E+00" nType="-99">
                </Node>
            </Node>
            <Node pos="r" depth="3" NCoef="0" IVar="-1" Cut="0.00000000000000000E+00" cType="1" res="-1.17607400000000001E-01" rms="0.0e-00" purity="0.00000000E+00" nType="-99">
            </Node>
        </Node>
    </Node>
</BinaryTree>
<BinaryTree type="DecisionTree" boostWeight="0.0" itree="19">
    <Node pos="c" depth="1" NCoef="0" IVar="1" Cut="9.90641021999999936E+01" cType="1" res="0.00000000000000000E+00" rms="0.0" purity="0.00000000E+00" nType="0">
        <Node pos="l" depth="2" NCoef="0" IVar="0" Cut="1.02018045999999996E+00" cType="1" res="0.00000000000000000E+00" rms="0.0" purity="0.00000000E+00" nType="0">
            <Node pos="l" depth="3" NCoef="0" IVar="2" Cut="1.41632233000000014E+02" cType="1" res="0.00000000000000000E+00" rms="0.0" purity="0.00000000E+00" nType="0">
                <Node pos="l" depth="4" NCoef="0" IVar="-1" Cut="0.00000000000000000E+00" cType="1" res="1.79502292999999986E-02" rms="0.0e-00" purity="0.00000000E+00" nType="-99">
                </Node>
                <Node pos="r" depth="4" NCoef="0" IVar="-1" Cut="0.00000000000000000E+00" cType="1" res="-7.41268097999999986E-02" rms="0.0e-00" purity="0.00000000E+00" nType="-99">
                </Node>
            </Node>
            <Node pos="r" depth="3" NCoef="0" IVar="5" Cut="2.36471100000000007E+02" cType="1" res="0.00000000000000000E+00" rms="0.0" purity="0.00000000E+00" nType="0">
                <Node pos="l" depth="4" NCoef="0" IVar="-1" Cut="0.00000000000000000E+00" cType="1" res="-8.06935354999999965E-02" rms="0.0e-00" purity="0.00000000E+00" nType="-99">
                </Node>
                <Node pos="r" depth="4" NCoef="0" IVar="-1" Cut="0.00000000000000000E+00" cType="1" res="-9.20218136000000055E-03" rms="0.0e-00" purity="0.00000000E+00" nType="-99">
                </Node>
            </Node>
        </Node>
        <Node pos="r" depth="2" NCoef="0" IVar="1" Cut="1.44538971000000004E+02" cType="1" res="0.00000000000000000E+00" rms="0.0" purity="0.00000000E+00" nType="0">
            <Node pos="l" depth="3" NCoef="0" IVar="3" Cut="1.07147217000000003E-01" cType="1" res="0.00000000000000000E+00" rms="0.0" purity="0.00000000E+00" nType="0">
                <Node pos="l" depth="4" NCoef="0" IVar="-1" Cut="0.00000000000000000E+00" cType="1" res="-2.63709035000000008E-02" rms="0.0e-00" purity="0.00000000E+00" nType="-99">
                </Node>
                <Node pos="r" depth="4" NCoef="0" IVar="-1" Cut="0.00000000000000000E+00" cType="1" res="7.91237280000000043E-02" rms="0.0e-00" purity="0.00000000E+00" nType="-99">
                </Node>
            </Node>
            <Node pos="r" depth="3" NCoef="0" IVar="17" Cut="8.08275452000000030E+01" cType="1" res="0.00000000000000000E+00" rms="0.0" purity="0.00000000E+00" nType="0">
                <Node pos="l" depth="4" NCoef="0" IVar="-1" Cut="0.00000000000000000E+00" cType="1" res="-1.07351474000000002E-01" rms="0.0e-00" purity="0.00000000E+00" nType="-99">
                </Node>
                <Node pos="r" depth="4" NCoef="0" IVar="-1" Cut="0.00000000000000000E+00" cType="1" res="-3.40445572999999993E-03" rms="0.0e-00" purity="0.00000000E+00" nType="-99">
                </Node>
            </Node>
        </Node>
    </Node>
</BinaryTree>
<BinaryTree type="DecisionTree" boostWeight="0.0" itree="20">
    <Node pos="c" depth="1" NCoef="0" IVar="12" Cut="4.29987914999999987E+02" cType="1" res="0.00000000000000000E+00" rms="0.0" purity="0.00000000E+00" nType="0">
        <Node pos="l" depth="2" NCoef="0" IVar="6" Cut="1.46929091999999997E+02" cType="1" res="0.00000000000000000E+00" rms="0.0" purity="0.00000000E+00" nType="0">
            <Node pos="l" depth="3" NCoef="0" IVar="6" Cut="8.12953490999999957E+01" cType="1" res="0.00000000000000000E+00" rms="0.0" purity="0.00000000E+00" nType="0">
                <Node pos="l" depth="4" NCoef="0" IVar="-1" Cut="0.00000000000000000E+00" cType="1" res="-5.42413964999999970E-02" rms="0.0e-00" purity="0.00000000E+00" nType="-99">
                </Node>
                <Node pos="r" depth="4" NCoef="0" IVar="-1" Cut="0.00000000000000000E+00" cType="1" res="6.11266010000000026E-02" rms="0.0e-00" purity="0.00000000E+00" nType="-99">
                </Node>
            </Node>
            <Node pos="r" depth="3" NCoef="0" IVar="22" Cut="6.00558090000000000E+00" cType="1" res="0.00000000000000000E+00" rms="0.0" purity="0.00000000E+00" nType="0">
                <Node pos="l" depth="4" NCoef="0" IVar="-1" Cut="0.00000000000000000E+00" cType="1" res="-4.90765572000000025E-02" rms="0.0e-00" purity="0.00000000E+00" nType="-99">
                </Node>
                <Node pos="r" depth="4" NCoef="0" IVar="-1" Cut="0.00000000000000000E+00" cType="1" res="-1.26157581999999990E-01" rms="0.0e-00" purity="0.00000000E+00" nType="-99">
                </Node>
            </Node>
        </Node>
        <Node pos="r" depth="2" NCoef="0" IVar="1" Cut="1.44892288000000008E+02" cType="1" res="0.00000000000000000E+00" rms="0.0" purity="0.00000000E+00" nType="0">
            <Node pos="l" depth="3" NCoef="0" IVar="3" Cut="4.00085448999999982E-02" cType="1" res="0.00000000000000000E+00" rms="0.0" purity="0.00000000E+00" nType="0">
                <Node pos="l" depth="4" NCoef="0" IVar="-1" Cut="0.00000000000000000E+00" cType="1" res="-2.36762129000000002E-02" rms="0.0e-00" purity="0.00000000E+00" nType="-99">
                </Node>
                <Node pos="r" depth="4" NCoef="0" IVar="-1" Cut="0.00000000000000000E+00" cType="1" res="9.36884134999999979E-02" rms="0.0e-00" purity="0.00000000E+00" nType="-99">
                </Node>
            </Node>
            <Node pos="r" depth="3" NCoef="0" IVar="-1" Cut="0.00000000000000000E+00" cType="1" res="-4.09423634000000009E-02" rms="0.0e-00" purity="0.00000000E+00" nType="-99">
            </Node>
        </Node>
    </Node>
</BinaryTree>
<BinaryTree type="DecisionTree" boostWeight="0.0" itree="21">
    <Node pos="c" depth="1" NCoef="0" IVar="7" Cut="8.88214945999999950E-01" cType="1" res="0.00000000000000000E+00" rms="0.0" purity="0.00000000E+00" nType="0">
        <Node pos="l" depth="2" NCoef="0" IVar="22" Cut="6.00539445999999977E+00" cType="1" res="0.00000000000000000E+00" rms="0.0" purity="0.00000000E+00" nType="0">
            <Node pos="l" depth="3" NCoef="0" IVar="5" Cut="2.06146178999999989E+02" cType="1" res="0.00000000000000000E+00" rms="0.0" purity="0.00000000E+00" nType="0">
                <Node pos="l" depth="4" NCoef="0" IVar="-1" Cut="0.00000000000000000E+00" cType="1" res="-2.19967234999999990E-02" rms="0.0e-00" purity="0.00000000E+00" nType="-99">
                </Node>
                <Node pos="r" depth="4" NCoef="0" IVar="-1" Cut="0.00000000000000000E+00" cType="1" res="5.57802281999999969E-02" rms="0.0e-00" purity="0.00000000E+00" nType="-99">
                </Node>
            </Node>
            <Node pos="r" depth="3" NCoef="0" IVar="18" Cut="1.27081750000000011E+03" cType="1" res="0.00000000000000000E+00" rms="0.0" purity="0.00000000E+00" nType="0">
                <Node pos="l" depth="4" NCoef="0" IVar="-1" Cut="0.00000000000000000E+00" cType="1" res="-6.59365058000000032E-02" rms="0.0e-00" purity="0.00000000E+00" nType="-99">
                </Node>
                <Node pos="r" depth="4" NCoef="0" IVar="-1" Cut="0.00000000000000000E+00" cType="1" res="-1.25173569000000012E-01" rms="0.0e-00" purity="0.00000000E+00" nType="-99">
                </Node>
            </Node>
        </Node>
        <Node pos="r" depth="2" NCoef="0" IVar="3" Cut="1.85729979999999989E-01" cType="1" res="0.00000000000000000E+00" rms="0.0" purity="0.00000000E+00" nType="0">
            <Node pos="l" depth="3" NCoef="0" IVar="-1" Cut="0.00000000000000000E+00" cType="1" res="5.37137352000000012E-02" rms="0.0e-00" purity="0.00000000E+00" nType="-99">
            </Node>
            <Node pos="r" depth="3" NCoef="0" IVar="8" Cut="1.16180420000000006E-01" cType="1" res="0.00000000000000000E+00" rms="0.0" purity="0.00000000E+00" nType="0">
                <Node pos="l" depth="4" NCoef="0" IVar="-1" Cut="0.00000000000000000E+00" cType="1" res="4.53262105999999998E-02" rms="0.0e-00" purity="0.00000000E+00" nType="-99">
                </Node>
                <Node pos="r" depth="4" NCoef="0" IVar="-1" Cut="0.00000000000000000E+00" cType="1" res="1.13196275999999998E-01" rms="0.0e-00" purity="0.00000000E+00" nType="-99">
                </Node>
            </Node>
        </Node>
    </Node>
</BinaryTree>
<BinaryTree type="DecisionTree" boostWeight="0.0" itree="22">
    <Node pos="c" depth="1" NCoef="0" IVar="7" Cut="8.79450440000000055E-01" cType="1" res="0.00000000000000000E+00" rms="0.0" purity="0.00000000E+00" nType="0">
        <Node pos="l" depth="2" NCoef="0" IVar="8" Cut="7.12585448999999982E-02" cType="1" res="0.00000000000000000E+00" rms="0.0" purity="0.00000000E+00" nType="0">
            <Node pos="l" depth="3" NCoef="0" IVar="20" Cut="4.11924928000000024E-01" cType="1" res="0.00000000000000000E+00" rms="0.0" purity="0.00000000E+00" nType="0">
                <Node pos="l" depth="4" NCoef="0" IVar="-1" Cut="0.00000000000000000E+00" cType="1" res="-3.42444703000000031E-02" rms="0.0e-00" purity="0.00000000E+00" nType="-99">
                </Node>
                <Node pos="r" depth="4" NCoef="0" IVar="-1" Cut="0.00000000000000000E+00" cType="1" res="-9.98022929000000059E-02" rms="0.0e-00" purity="0.00000000E+00" nType="-99">
                </Node>
            </Node>
            <Node pos="r" depth="3" NCoef="0" IVar="3" Cut="2.92602538999999995E-01" cType="1" res="0.00000000000000000E+00" rms="0.0" purity="0.00000000E+00" nType="0">
                <Node pos="l" depth="4" NCoef="0" IVar="-1" Cut="0.00000000000000000E+00" cType="1" res="-4.56346794999999972E-02" rms="0.0e-00" purity="0.00000000E+00" nType="-99">
                </Node>
                <Node pos="r" depth="4" NCoef="0" IVar="-1" Cut="0.00000000000000000E+00" cType="1" res="5.10247424000000033E-02" rms="0.0e-00" purity="0.00000000E+00" nType="-99">
                </Node>
            </Node>
        </Node>
        <Node pos="r" depth="2" NCoef="0" IVar="2" Cut="1.59840407999999996E+02" cType="1" res="0.00000000000000000E+00" rms="0.0" purity="0.00000000E+00" nType="0">
            <Node pos="l" depth="3" NCoef="0" IVar="2" Cut="8.46259002999999979E+01" cType="1" res="0.00000000000000000E+00" rms="0.0" purity="0.00000000E+00" nType="0">
                <Node pos="l" depth="4" NCoef="0" IVar="-1" Cut="0.00000000000000000E+00" cType="1" res="6.41292408000000008E-02" rms="0.0e-00" purity="0.00000000E+00" nType="-99">
                </Node>
                <Node pos="r" depth="4" NCoef="0" IVar="-1" Cut="0.00000000000000000E+00" cType="1" res="1.12098380999999997E-01" rms="0.0e-00" purity="0.00000000E+00" nType="-99">
                </Node>
            </Node>
            <Node pos="r" depth="3" NCoef="0" IVar="-1" Cut="0.00000000000000000E+00" cType="1" res="1.26375853999999999E-02" rms="0.0e-00" purity="0.00000000E+00" nType="-99">
            </Node>
        </Node>
    </Node>
</BinaryTree>
<BinaryTree type="DecisionTree" boostWeight="0.0" itree="23">
    <Node pos="c" depth="1" NCoef="0" IVar="17" Cut="4.79634704999999997E+01" cType="1" res="0.00000000000000000E+00" rms="0.0" purity="0.00000000E+00" nType="0">
        <Node pos="l" depth="2" NCoef="0" IVar="5" Cut="3.23157836999999972E+02" cType="1" res="0.00000000000000000E+00" rms="0.0" purity="0.00000000E+00" nType="0">
            <Node pos="l" depth="3" NCoef="0" IVar="2" Cut="1.51894730000000010E+02" cType="1" res="0.00000000000000000E+00" rms="0.0" purity="0.00000000E+00" nType="0">
                <Node pos="l" depth="4" NCoef="0" IVar="-1" Cut="0.00000000000000000E+00" cType="1" res="-2.19037197999999989E-02" rms="0.0e-00" purity="0.00000000E+00" nType="-99">
                </Node>
                <Node pos="r" depth="4" NCoef="0" IVar="-1" Cut="0.00000000000000000E+00" cType="1" res="-8.67587625999999973E-02" rms="0.0e-00" purity="0.00000000E+00" nType="-99">
                </Node>
            </Node>
            <Node pos="r" depth="3" NCoef="0" IVar="9" Cut="2.89367065000000025E+02" cType="1" res="0.00000000000000000E+00" rms="0.0" purity="0.00000000E+00" nType="0">
                <Node pos="l" depth="4" NCoef="0" IVar="-1" Cut="0.00000000000000000E+00" cType="1" res="1.41399681999999999E-01" rms="0.0e-00" purity="0.00000000E+00" nType="-99">
                </Node>
                <Node pos="r" depth="4" NCoef="0" IVar="-1" Cut="0.00000000000000000E+00" cType="1" res="1.29705829999999991E-03" rms="0.0e-00" purity="0.00000000E+00" nType="-99">
                </Node>
            </Node>
        </Node>
        <Node pos="r" depth="2" NCoef="0" IVar="26" Cut="1.92342026000000004E+02" cType="1" res="0.00000000000000000E+00" rms="0.0" purity="0.00000000E+00" nType="0">
            <Node pos="l" depth="3" NCoef="0" IVar="21" Cut="1.05688049000000007E+02" cType="1" res="0.00000000000000000E+00" rms="0.0" purity="0.00000000E+00" nType="0">
                <Node pos="l" depth="4" NCoef="0" IVar="-1" Cut="0.00000000000000000E+00" cType="1" res="8.38127211000000011E-02" rms="0.0e-00" purity="0.00000000E+00" nType="-99">
                </Node>
                <Node pos="r" depth="4" NCoef="0" IVar="-1" Cut="0.00000000000000000E+00" cType="1" res="1.23749524000000000E-02" rms="0.0e-00" purity="0.00000000E+00" nType="-99">
                </Node>
            </Node>
            <Node pos="r" depth="3" NCoef="0" IVar="-1" Cut="0.00000000000000000E+00" cType="1" res="-6.97196350000000020E-02" rms="0.0e-00" purity="0.00000000E+00" nType="-99">
            </Node>
        </Node>
    </Node>
</BinaryTree>
<BinaryTree type="DecisionTree" boostWeight="0.0" itree="24">
    <Node pos="c" depth="1" NCoef="0" IVar="24" Cut="9.34885742000000050E+02" cType="1" res="0.00000000000000000E+00" rms="0.0" purity="0.00000000E+00" nType="0">
        <Node pos="l" depth="2" NCoef="0" IVar="22" Cut="5.37355042000000012E+01" cType="1" res="0.00000000000000000E+00" rms="0.0" purity="0.00000000E+00" nType="0">
            <Node pos="l" depth="3" NCoef="0" IVar="2" Cut="1.54984283000000005E+02" cType="1" res="0.00000000000000000E+00" rms="0.0" purity="0.00000000E+00" nType="0">
                <Node pos="l" depth="4" NCoef="0" IVar="-1" Cut="0.00000000000000000E+00" cType="1" res="7.44120916000000007E-03" rms="0.0e-00" purity="0.00000000E+00" nType="-99">
                </Node>
                <Node pos="r" depth="4" NCoef="0" IVar="-1" Cut="0.00000000000000000E+00" cType="1" res="-6.05424903000000014E-02" rms="0.0e-00" purity="0.00000000E+00" nType="-99">
                </Node>
            </Node>
            <Node pos="r" depth="3" NCoef="0" IVar="-1" Cut="0.00000000000000000E+00" cType="1" res="-1.14608458999999996E-01" rms="0.0e-00" purity="0.00000000E+00" nType="-99">
            </Node>
        </Node>
        <Node pos="r" depth="2" NCoef="0" IVar="8" Cut="7.11975098000000028E-02" cType="1" res="0.00000000000000000E+00" rms="0.0" purity="0.00000000E+00" nType="0">
            <Node pos="l" depth="3" NCoef="0" IVar="-1" Cut="0.00000000000000000E+00" cType="1" res="-4.63032535999999967E-02" rms="0.0e-00" purity="0.00000000E+00" nType="-99">
            </Node>
            <Node pos="r" depth="3" NCoef="0" IVar="3" Cut="4.01153564000000032E-02" cType="1" res="0.00000000000000000E+00" rms="0.0" purity="0.00000000E+00" nType="0">
                <Node pos="l" depth="4" NCoef="0" IVar="-1" Cut="0.00000000000000000E+00" cType="1" res="-1.72241106999999997E-02" rms="0.0e-00" purity="0.00000000E+00" nType="-99">
                </Node>
                <Node pos="r" depth="4" NCoef="0" IVar="-1" Cut="0.00000000000000000E+00" cType="1" res="8.13007429000000004E-02" rms="0.0e-00" purity="0.00000000E+00" nType="-99">
                </Node>
            </Node>
        </Node>
    </Node>
</BinaryTree>
<BinaryTree type="DecisionTree" boostWeight="0.0" itree="25">
    <Node pos="c" depth="1" NCoef="0" IVar="7" Cut="8.89621973000000010E-01" cType="1" res="0.00000000000000000E+00" rms="0.0" purity="0.00000000E+00" nType="0">
        <Node pos="l" depth="2" NCoef="0" IVar="2" Cut="1.52061400999999989E+02" cType="1" res="0.00000000000000000E+00" rms="0.0" purity="0.00000000E+00" nType="0">
            <Node pos="l" depth="3" NCoef="0" IVar="2" Cut="8.73898772999999949E+01" cType="1" res="0.00000000000000000E+00" rms="0.0" purity="0.00000000E+00" nType="0">
                <Node pos="l" depth="4" NCoef="0" IVar="-1" Cut="0.00000000000000000E+00" cType="1" res="-2.75196452000000015E-02" rms="0.0e-00" purity="0.00000000E+00" nType="-99">
                </Node>
                <Node pos="r" depth="4" NCoef="0" IVar="-1" Cut="0.00000000000000000E+00" cType="1" res="7.84602389000000067E-02" rms="0.0e-00" purity="0.00000000E+00" nType="-99">
                </Node>
            </Node>
            <Node pos="r" depth="3" NCoef="0" IVar="2" Cut="7.46170776000000046E+02" cType="1" res="0.00000000000000000E+00" rms="0.0" purity="0.00000000E+00" nType="0">
                <Node pos="l" depth="4" NCoef="0" IVar="-1" Cut="0.00000000000000000E+00" cType="1" res="-7.87033661999999995E-02" rms="0.0e-00" purity="0.00000000E+00" nType="-99">
                </Node>
                <Node pos="r" depth="4" NCoef="0" IVar="-1" Cut="0.00000000000000000E+00" cType="1" res="5.23187480999999996E-02" rms="0.0e-00" purity="0.00000000E+00" nType="-99">
                </Node>
            </Node>
        </Node>
        <Node pos="r" depth="2" NCoef="0" IVar="6" Cut="1.60036560000000009E+02" cType="1" res="0.00000000000000000E+00" rms="0.0" purity="0.00000000E+00" nType="0">
            <Node pos="l" depth="3" NCoef="0" IVar="6" Cut="9.05431671000000051E+01" cType="1" res="0.00000000000000000E+00" rms="0.0" purity="0.00000000E+00" nType="0">
                <Node pos="l" depth="4" NCoef="0" IVar="-1" Cut="0.00000000000000000E+00" cType="1" res="6.38031960000000065E-02" rms="0.0e-00" purity="0.00000000E+00" nType="-99">
                </Node>
                <Node pos="r" depth="4" NCoef="0" IVar="-1" Cut="0.00000000000000000E+00" cType="1" res="1.07045769999999998E-01" rms="0.0e-00" purity="0.00000000E+00" nType="-99">
                </Node>
            </Node>
            <Node pos="r" depth="3" NCoef="0" IVar="10" Cut="7.73669739000000050E+01" cType="1" res="0.00000000000000000E+00" rms="0.0" purity="0.00000000E+00" nType="0">
                <Node pos="l" depth="4" NCoef="0" IVar="-1" Cut="0.00000000000000000E+00" cType="1" res="7.66357854000000033E-02" rms="0.0e-00" purity="0.00000000E+00" nType="-99">
                </Node>
                <Node pos="r" depth="4" NCoef="0" IVar="-1" Cut="0.00000000000000000E+00" cType="1" res="1.42263527999999997E-03" rms="0.0e-00" purity="0.00000000E+00" nType="-99">
                </Node>
            </Node>
        </Node>
    </Node>
</BinaryTree>
<BinaryTree type="DecisionTree" boostWeight="0.0" itree="26">
    <Node pos="c" depth="1" NCoef="0" IVar="7" Cut="6.38375520999999946E-01" cType="1" res="0.00000000000000000E+00" rms="0.0" purity="0.00000000E+00" nType="0">
        <Node pos="l" depth="2" NCoef="0" IVar="5" Cut="3.23314453000000015E+02" cType="1" res="0.00000000000000000E+00" rms="0.0" purity="0.00000000E+00" nType="0">
            <Node pos="l" depth="3" NCoef="0" IVar="22" Cut="5.30318375000000017E+01" cType="1" res="0.00000000000000000E+00" rms="0.0" purity="0.00000000E+00" nType="0">
                <Node pos="l" depth="4" NCoef="0" IVar="-1" Cut="0.00000000000000000E+00" cType="1" res="-3.82082089999999999E-02" rms="0.0e-00" purity="0.00000000E+00" nType="-99">
                </Node>
                <Node pos="r" depth="4" NCoef="0" IVar="-1" Cut="0.00000000000000000E+00" cType="1" res="-1.22640781000000004E-01" rms="0.0e-00" purity="0.00000000E+00" nType="-99">
                </Node>
            </Node>
            <Node pos="r" depth="3" NCoef="0" IVar="-1" Cut="0.00000000000000000E+00" cType="1" res="6.27286135999999966E-02" rms="0.0e-00" purity="0.00000000E+00" nType="-99">
            </Node>
        </Node>
        <Node pos="r" depth="2" NCoef="0" IVar="0" Cut="1.04186343999999997E+00" cType="1" res="0.00000000000000000E+00" rms="0.0" purity="0.00000000E+00" nType="0">
            <Node pos="l" depth="3" NCoef="0" IVar="22" Cut="1.24864397000000000E+01" cType="1" res="0.00000000000000000E+00" rms="0.0" purity="0.00000000E+00" nType="0">
                <Node pos="l" depth="4" NCoef="0" IVar="-1" Cut="0.00000000000000000E+00" cType="1" res="4.71860020999999991E-02" rms="0.0e-00" purity="0.00000000E+00" nType="-99">
                </Node>
                <Node pos="r" depth="4" NCoef="0" IVar="-1" Cut="0.00000000000000000E+00" cType="1" res="-7.50157162999999932E-02" rms="0.0e-00" purity="0.00000000E+00" nType="-99">
                </Node>
            </Node>
            <Node pos="r" depth="3" NCoef="0" IVar="7" Cut="6.92336559000000018E-01" cType="1" res="0.00000000000000000E+00" rms="0.0" purity="0.00000000E+00" nType="0">
                <Node pos="l" depth="4" NCoef="0" IVar="-1" Cut="0.00000000000000000E+00" cType="1" res="-3.64307686999999977E-02" rms="0.0e-00" purity="0.00000000E+00" nType="-99">
                </Node>
                <Node pos="r" depth="4" NCoef="0" IVar="-1" Cut="0.00000000000000000E+00" cType="1" res="-1.05995394000000007E-01" rms="0.0e-00" purity="0.00000000E+00" nType="-99">
                </Node>
            </Node>
        </Node>
    </Node>
</BinaryTree>
<BinaryTree type="DecisionTree" boostWeight="0.0" itree="27">
    <Node pos="c" depth="1" NCoef="0" IVar="1" Cut="9.02882689999999997E+01" cType="1" res="0.00000000000000000E+00" rms="0.0" purity="0.00000000E+00" nType="0">
        <Node pos="l" depth="2" NCoef="0" IVar="0" Cut="1.12899660999999996E+00" cType="1" res="0.00000000000000000E+00" rms="0.0" purity="0.00000000E+00" nType="0">
            <Node pos="l" depth="3" NCoef="0" IVar="18" Cut="8.54064257999999973E+03" cType="1" res="0.00000000000000000E+00" rms="0.0" purity="0.00000000E+00" nType="0">
                <Node pos="l" depth="4" NCoef="0" IVar="-1" Cut="0.00000000000000000E+00" cType="1" res="1.12575469999999997E-02" rms="0.0e-00" purity="0.00000000E+00" nType="-99">
                </Node>
                <Node pos="r" depth="4" NCoef="0" IVar="-1" Cut="0.00000000000000000E+00" cType="1" res="-6.26227111000000058E-02" rms="0.0e-00" purity="0.00000000E+00" nType="-99">
                </Node>
            </Node>
            <Node pos="r" depth="3" NCoef="0" IVar="14" Cut="3.19734230000000004E+01" cType="1" res="0.00000000000000000E+00" rms="0.0" purity="0.00000000E+00" nType="0">
                <Node pos="l" depth="4" NCoef="0" IVar="-1" Cut="0.00000000000000000E+00" cType="1" res="-8.75666514000000007E-02" rms="0.0e-00" purity="0.00000000E+00" nType="-99">
                </Node>
                <Node pos="r" depth="4" NCoef="0" IVar="-1" Cut="0.00000000000000000E+00" cType="1" res="-4.00376207999999997E-02" rms="0.0e-00" purity="0.00000000E+00" nType="-99">
                </Node>
            </Node>
        </Node>
        <Node pos="r" depth="2" NCoef="0" IVar="1" Cut="1.41077118000000013E+02" cType="1" res="0.00000000000000000E+00" rms="0.0" purity="0.00000000E+00" nType="0">
            <Node pos="l" depth="3" NCoef="0" IVar="3" Cut="7.89489745999999992E-02" cType="1" res="0.00000000000000000E+00" rms="0.0" purity="0.00000000E+00" nType="0">
                <Node pos="l" depth="4" NCoef="0" IVar="-1" Cut="0.00000000000000000E+00" cType="1" res="-3.12392581000000003E-02" rms="0.0e-00" purity="0.00000000E+00" nType="-99">
                </Node>
                <Node pos="r" depth="4" NCoef="0" IVar="-1" Cut="0.00000000000000000E+00" cType="1" res="6.03784211000000029E-02" rms="0.0e-00" purity="0.00000000E+00" nType="-99">
                </Node>
            </Node>
            <Node pos="r" depth="3" NCoef="0" IVar="21" Cut="8.44766082999999952E+01" cType="1" res="0.00000000000000000E+00" rms="0.0" purity="0.00000000E+00" nType="0">
                <Node pos="l" depth="4" NCoef="0" IVar="-1" Cut="0.00000000000000000E+00" cType="1" res="-5.03797957000000026E-04" rms="0.0e-00" purity="0.00000000E+00" nType="-99">
                </Node>
                <Node pos="r" depth="4" NCoef="0" IVar="-1" Cut="0.00000000000000000E+00" cType="1" res="-9.43840294999999940E-02" rms="0.0e-00" purity="0.00000000E+00" nType="-99">
                </Node>
            </Node>
        </Node>
    </Node>
</BinaryTree>
<BinaryTree type="DecisionTree" boostWeight="0.0" itree="28">
    <Node pos="c" depth="1" NCoef="0" IVar="8" Cut="1.07940674000000000E-01" cType="1" res="0.00000000000000000E+00" rms="0.0" purity="0.00000000E+00" nType="0">
        <Node pos="l" depth="2" NCoef="0" IVar="0" Cut="6.18575334999999948E-01" cType="1" res="0.00000000000000000E+00" rms="0.0" purity="0.00000000E+00" nType="0">
            <Node pos="l" depth="3" NCoef="0" IVar="-1" Cut="0.00000000000000000E+00" cType="1" res="-1.44448066000000003E-02" rms="0.0e-00" purity="0.00000000E+00" nType="-99">
            </Node>
            <Node pos="r" depth="3" NCoef="0" IVar="10" Cut="6.21441650000000010E+01" cType="1" res="0.00000000000000000E+00" rms="0.0" purity="0.00000000E+00" nType="0">
                <Node pos="l" depth="4" NCoef="0" IVar="-1" Cut="0.00000000000000000E+00" cType="1" res="-4.86710891000000020E-02" rms="0.0e-00" purity="0.00000000E+00" nType="-99">
                </Node>
                <Node pos="r" depth="4" NCoef="0" IVar="-1" Cut="0.00000000000000000E+00" cType="1" res="-9.52138901000000037E-02" rms="0.0e-00" purity="0.00000000E+00" nType="-99">
                </Node>
            </Node>
        </Node>
        <Node pos="r" depth="2" NCoef="0" IVar="3" Cut="4.82543944999999974E-01" cType="1" res="0.00000000000000000E+00" rms="0.0" purity="0.00000000E+00" nType="0">
            <Node pos="l" depth="3" NCoef="0" IVar="2" Cut="1.44865967000000012E+02" cType="1" res="0.00000000000000000E+00" rms="0.0" purity="0.00000000E+00" nType="0">
                <Node pos="l" depth="4" NCoef="0" IVar="-1" Cut="0.00000000000000000E+00" cType="1" res="-3.08113638000000016E-03" rms="0.0e-00" purity="0.00000000E+00" nType="-99">
                </Node>
                <Node pos="r" depth="4" NCoef="0" IVar="-1" Cut="0.00000000000000000E+00" cType="1" res="-6.45046308999999984E-02" rms="0.0e-00" purity="0.00000000E+00" nType="-99">
                </Node>
            </Node>
            <Node pos="r" depth="3" NCoef="0" IVar="4" Cut="4.16991948999999973E-01" cType="1" res="0.00000000000000000E+00" rms="0.0" purity="0.00000000E+00" nType="0">
                <Node pos="l" depth="4" NCoef="0" IVar="-1" Cut="0.00000000000000000E+00" cType="1" res="9.84418764999999973E-02" rms="0.0e-00" purity="0.00000000E+00" nType="-99">
                </Node>
                <Node pos="r" depth="4" NCoef="0" IVar="-1" Cut="0.00000000000000000E+00" cType="1" res="8.51635075999999935E-03" rms="0.0e-00" purity="0.00000000E+00" nType="-99">
                </Node>
            </Node>
        </Node>
    </Node>
</BinaryTree>
<BinaryTree type="DecisionTree" boostWeight="0.0" itree="29">
    <Node pos="c" depth="1" NCoef="0" IVar="12" Cut="6.21955994000000032E+02" cType="1" res="0.00000000000000000E+00" rms="0.0" purity="0.00000000E+00" nType="0">
        <Node pos="l" depth="2" NCoef="0" IVar="22" Cut="5.99513358999999966E+01" cType="1" res="0.00000000000000000E+00" rms="0.0" purity="0.00000000E+00" nType="0">
            <Node pos="l" depth="3" NCoef="0" IVar="8" Cut="1.93054199000000010E-01" cType="1" res="0.00000000000000000E+00" rms="0.0" purity="0.00000000E+00" nType="0">
                <Node pos="l" depth="4" NCoef="0" IVar="-1" Cut="0.00000000000000000E+00" cType="1" res="-4.72240821000000019E-02" rms="0.0e-00" purity="0.00000000E+00" nType="-99">
                </Node>
                <Node pos="r" depth="4" NCoef="0" IVar="-1" Cut="0.00000000000000000E+00" cType="1" res="1.57642010999999999E-02" rms="0.0e-00" purity="0.00000000E+00" nType="-99">
                </Node>
            </Node>
            <Node pos="r" depth="3" NCoef="0" IVar="3" Cut="9.56420897999999964E-02" cType="1" res="0.00000000000000000E+00" rms="0.0" purity="0.00000000E+00" nType="0">
                <Node pos="l" depth="4" NCoef="0" IVar="-1" Cut="0.00000000000000000E+00" cType="1" res="-1.22352742000000000E-01" rms="0.0e-00" purity="0.00000000E+00" nType="-99">
                </Node>
                <Node pos="r" depth="4" NCoef="0" IVar="-1" Cut="0.00000000000000000E+00" cType="1" res="-8.01047607999999939E-02" rms="0.0e-00" purity="0.00000000E+00" nType="-99">
                </Node>
            </Node>
        </Node>
        <Node pos="r" depth="2" NCoef="0" IVar="5" Cut="4.27230225000000019E+02" cType="1" res="0.00000000000000000E+00" rms="0.0" purity="0.00000000E+00" nType="0">
            <Node pos="l" depth="3" NCoef="0" IVar="-1" Cut="0.00000000000000000E+00" cType="1" res="7.56686404000000007E-02" rms="0.0e-00" purity="0.00000000E+00" nType="-99">
            </Node>
            <Node pos="r" depth="3" NCoef="0" IVar="-1" Cut="0.00000000000000000E+00" cType="1" res="1.17475531999999994E-01" rms="0.0e-00" purity="0.00000000E+00" nType="-99">
            </Node>
        </Node>
    </Node>
</BinaryTree>
<BinaryTree type="DecisionTree" boostWeight="0.0" itree="30">
    <Node pos="c" depth="1" NCoef="0" IVar="12" Cut="3.49615295000000003E+02" cType="1" res="0.00000000000000000E+00" rms="0.0" purity="0.00000000E+00" nType="0">
        <Node pos="l" depth="2" NCoef="0" IVar="0" Cut="1.08533823000000007E+00" cType="1" res="0.00000000000000000E+00" rms="0.0" purity="0.00000000E+00" nType="0">
            <Node pos="l" depth="3" NCoef="0" IVar="6" Cut="1.38067779999999999E+02" cType="1" res="0.00000000000000000E+00" rms="0.0" purity="0.00000000E+00" nType="0">
                <Node pos="l" depth="4" NCoef="0" IVar="-1" Cut="0.00000000000000000E+00" cType="1" res="3.02033051999999989E-02" rms="0.0e-00" purity="0.00000000E+00" nType="-99">
                </Node>
                <Node pos="r" depth="4" NCoef="0" IVar="-1" Cut="0.00000000000000000E+00" cType="1" res="-3.23392077999999986E-02" rms="0.0e-00" purity="0.00000000E+00" nType="-99">
                </Node>
            </Node>
            <Node pos="r" depth="3" NCoef="0" IVar="10" Cut="1.79013855000000007E+02" cType="1" res="0.00000000000000000E+00" rms="0.0" purity="0.00000000E+00" nType="0">
                <Node pos="l" depth="4" NCoef="0" IVar="-1" Cut="0.00000000000000000E+00" cType="1" res="-6.89450501999999965E-02" rms="0.0e-00" purity="0.00000000E+00" nType="-99">
                </Node>
                <Node pos="r" depth="4" NCoef="0" IVar="-1" Cut="0.00000000000000000E+00" cType="1" res="2.17203124999999983E-02" rms="0.0e-00" purity="0.00000000E+00" nType="-99">
                </Node>
            </Node>
        </Node>
        <Node pos="r" depth="2" NCoef="0" IVar="1" Cut="1.41540039000000007E+02" cType="1" res="0.00000000000000000E+00" rms="0.0" purity="0.00000000E+00" nType="0">
            <Node pos="l" depth="3" NCoef="0" IVar="3" Cut="2.38723755000000010E-02" cType="1" res="0.00000000000000000E+00" rms="0.0" purity="0.00000000E+00" nType="0">
                <Node pos="l" depth="4" NCoef="0" IVar="-1" Cut="0.00000000000000000E+00" cType="1" res="-4.54561636000000019E-02" rms="0.0e-00" purity="0.00000000E+00" nType="-99">
                </Node>
                <Node pos="r" depth="4" NCoef="0" IVar="-1" Cut="0.00000000000000000E+00" cType="1" res="6.17480688000000000E-02" rms="0.0e-00" purity="0.00000000E+00" nType="-99">
                </Node>
            </Node>
            <Node pos="r" depth="3" NCoef="0" IVar="21" Cut="8.54727019999999982E+01" cType="1" res="0.00000000000000000E+00" rms="0.0" purity="0.00000000E+00" nType="0">
                <Node pos="l" depth="4" NCoef="0" IVar="-1" Cut="0.00000000000000000E+00" cType="1" res="1.19942230999999996E-02" rms="0.0e-00" purity="0.00000000E+00" nType="-99">
                </Node>
                <Node pos="r" depth="4" NCoef="0" IVar="-1" Cut="0.00000000000000000E+00" cType="1" res="-7.84299821000000036E-02" rms="0.0e-00" purity="0.00000000E+00" nType="-99">
                </Node>
            </Node>
        </Node>
    </Node>
</BinaryTree>
<BinaryTree type="DecisionTree" boostWeight="0.0" itree="31">
    <Node pos="c" depth="1" NCoef="0" IVar="22" Cut="5.99513358999999966E+01" cType="1" res="0.00000000000000000E+00" rms="0.0" purity="0.00000000E+00" nType="0">
        <Node pos="l" depth="2" NCoef="0" IVar="3" Cut="7.41943358999999969E-01" cType="1" res="0.00000000000000000E+00" rms="0.0" purity="0.00000000E+00" nType="0">
            <Node pos="l" depth="3" NCoef="0" IVar="8" Cut="5.81298827999999990E-01" cType="1" res="0.00000000000000000E+00" rms="0.0" purity="0.00000000E+00" nType="0">
                <Node pos="l" depth="4" NCoef="0" IVar="-1" Cut="0.00000000000000000E+00" cType="1" res="-4.65643592000000023E-02" rms="0.0e-00" purity="0.00000000E+00" nType="-99">
                </Node>
                <Node pos="r" depth="4" NCoef="0" IVar="-1" Cut="0.00000000000000000E+00" cType="1" res="1.02269417000000005E-02" rms="0.0e-00" purity="0.00000000E+00" nType="-99">
                </Node>
            </Node>
            <Node pos="r" depth="3" NCoef="0" IVar="8" Cut="2.05505370999999992E-01" cType="1" res="0.00000000000000000E+00" rms="0.0" purity="0.00000000E+00" nType="0">
                <Node pos="l" depth="4" NCoef="0" IVar="-1" Cut="0.00000000000000000E+00" cType="1" res="-7.82326795000000061E-03" rms="0.0e-00" purity="0.00000000E+00" nType="-99">
                </Node>
                <Node pos="r" depth="4" NCoef="0" IVar="-1" Cut="0.00000000000000000E+00" cType="1" res="8.43420252000000037E-02" rms="0.0e-00" purity="0.00000000E+00" nType="-99">
                </Node>
            </Node>
        </Node>
        <Node pos="r" depth="2" NCoef="0" IVar="18" Cut="3.38521142999999984E+03" cType="1" res="0.00000000000000000E+00" rms="0.0" purity="0.00000000E+00" nType="0">
            <Node pos="l" depth="3" NCoef="0" IVar="-1" Cut="0.00000000000000000E+00" cType="1" res="-6.44182935000000012E-02" rms="0.0e-00" purity="0.00000000E+00" nType="-99">
            </Node>
            <Node pos="r" depth="3" NCoef="0" IVar="-1" Cut="0.00000000000000000E+00" cType="1" res="-1.10772393999999996E-01" rms="0.0e-00" purity="0.00000000E+00" nType="-99">
            </Node>
        </Node>
    </Node>
</BinaryTree>
<BinaryTree type="DecisionTree" boostWeight="0.0" itree="32">
    <Node pos="c" depth="1" NCoef="0" IVar="22" Cut="6.00558090000000000E+00" cType="1" res="0.00000000000000000E+00" rms="0.0" purity="0.00000000E+00" nType="0">
        <Node pos="l" depth="2" NCoef="0" IVar="15" Cut="2.08210087000000010E+00" cType="1" res="0.00000000000000000E+00" rms="0.0" purity="0.00000000E+00" nType="0">
            <Node pos="l" depth="3" NCoef="0" IVar="5" Cut="1.38154572000000002E+02" cType="1" res="0.00000000000000000E+00" rms="0.0" purity="0.00000000E+00" nType="0">
                <Node pos="l" depth="4" NCoef="0" IVar="-1" Cut="0.00000000000000000E+00" cType="1" res="-5.00386804000000004E-02" rms="0.0e-00" purity="0.00000000E+00" nType="-99">
                </Node>
                <Node pos="r" depth="4" NCoef="0" IVar="-1" Cut="0.00000000000000000E+00" cType="1" res="4.43820433999999990E-04" rms="0.0e-00" purity="0.00000000E+00" nType="-99">
                </Node>
            </Node>
            <Node pos="r" depth="3" NCoef="0" IVar="7" Cut="6.10067785000000029E-01" cType="1" res="0.00000000000000000E+00" rms="0.0" purity="0.00000000E+00" nType="0">
                <Node pos="l" depth="4" NCoef="0" IVar="-1" Cut="0.00000000000000000E+00" cType="1" res="-6.22390537000000032E-03" rms="0.0e-00" purity="0.00000000E+00" nType="-99">
                </Node>
                <Node pos="r" depth="4" NCoef="0" IVar="-1" Cut="0.00000000000000000E+00" cType="1" res="4.60250526999999993E-02" rms="0.0e-00" purity="0.00000000E+00" nType="-99">
                </Node>
            </Node>
        </Node>
        <Node pos="r" depth="2" NCoef="0" IVar="18" Cut="2.95626024999999981E+03" cType="1" res="0.00000000000000000E+00" rms="0.0" purity="0.00000000E+00" nType="0">
            <Node pos="l" depth="3" NCoef="0" IVar="-1" Cut="0.00000000000000000E+00" cType="1" res="-3.75019871000000019E-02" rms="0.0e-00" purity="0.00000000E+00" nType="-99">
            </Node>
            <Node pos="r" depth="3" NCoef="0" IVar="-1" Cut="0.00000000000000000E+00" cType="1" res="-1.03634088999999999E-01" rms="0.0e-00" purity="0.00000000E+00" nType="-99">
            </Node>
        </Node>
    </Node>
</BinaryTree>
<BinaryTree type="DecisionTree" boostWeight="0.0" itree="33">
    <Node pos="c" depth="1" NCoef="0" IVar="12" Cut="4.59340331999999989E+02" cType="1" res="0.00000000000000000E+00" rms="0.0" purity="0.00000000E+00" nType="0">
        <Node pos="l" depth="2" NCoef="0" IVar="6" Cut="1.37683013999999986E+02" cType="1" res="0.00000000000000000E+00" rms="0.0" purity="0.00000000E+00" nType="0">
