<?xml version="1.0"?>
<MethodSetup Method="BDT::bdt">
<GeneralInfo>
<Info name="TMVA Release" value=""/>
<Info name="ROOT Release" value=""/>
<Info name="Creator" value="mlglue"/>
<Info name="Date" value=""/>
<Info name="Host" value=""/>
<Info name="Dir" value=""/>
<Info name="Training events" value="-1"/>
<Info name="TrainingTime" value="-1"/>
<Info name="AnalysisType" value="Classification"/>
</GeneralInfo>
<Options>
<Option name="NTrees" modified="Yes">500</Option>
<Option name="MaxDepth" modified="Yes">3</Option>
<Option name="BoostType" modified="Yes">Grad</Option>
<Option name="Shrinkage" modified="Yes">0.1141154649</Option>
<Option name="UseNvars" modified="Yes">25</Option>
</Options>
<Variables NVar="25">
<Variable VarIndex="0" Expression="m_ll" Label="m_ll" Title="m_ll" Unit="" Internal="m_ll" Type="F" Min="0.0000000000000000000000000000000000000000000000000000000000000000E+00" Max="0.0000000000000000000000000000000000000000000000000000000000000000E+00"/>
<Variable VarIndex="1" Expression="m_Hbb" Label="m_Hbb" Title="m_Hbb" Unit="" Internal="m_Hbb" Type="F" Min="0.0000000000000000000000000000000000000000000000000000000000000000E+00" Max="0.0000000000000000000000000000000000000000000000000000000000000000E+00"/>
<Variable VarIndex="2" Expression="mbb_loose" Label="mbb_loose" Title="mbb_loose" Unit="" Internal="mbb_loose" Type="F" Min="0.0000000000000000000000000000000000000000000000000000000000000000E+00" Max="0.0000000000000000000000000000000000000000000000000000000000000000E+00"/>
<Variable VarIndex="3" Expression="dR_ll" Label="dR_ll" Title="dR_ll" Unit="" Internal="dR_ll" Type="F" Min="0.0000000000000000000000000000000000000000000000000000000000000000E+00" Max="0.0000000000000000000000000000000000000000000000000000000000000000E+00"/>
<Variable VarIndex="4" Expression="mbb_medium" Label="mbb_medium" Title="mbb_medium" Unit="" Internal="mbb_medium" Type="F" Min="0.0000000000000000000000000000000000000000000000000000000000000000E+00" Max="0.0000000000000000000000000000000000000000000000000000000000000000E+00"/>
<Variable VarIndex="5" Expression="Smin_Hww" Label="Smin_Hww" Title="Smin_Hww" Unit="" Internal="Smin_Hww" Type="F" Min="0.0000000000000000000000000000000000000000000000000000000000000000E+00" Max="0.0000000000000000000000000000000000000000000000000000000000000000E+00"/>
<Variable VarIndex="6" Expression="mindr_lep1_jet" Label="mindr_lep1_jet" Title="mindr_lep1_jet" Unit="" Internal="mindr_lep1_jet" Type="F" Min="0.0000000000000000000000000000000000000000000000000000000000000000E+00" Max="0.0000000000000000000000000000000000000000000000000000000000000000E+00"/>
<Variable VarIndex="7" Expression="max_dPhi_lepMEt" Label="max_dPhi_lepMEt" Title="max_dPhi_lepMEt" Unit="" Internal="max_dPhi_lepMEt" Type="F" Min="0.0000000000000000000000000000000000000000000000000000000000000000E+00" Max="0.0000000000000000000000000000000000000000000000000000000000000000E+00"/>
<Variable VarIndex="8" Expression="dR_Hbb" Label="dR_Hbb" Title="dR_Hbb" Unit="" Internal="dR_Hbb" Type="F" Min="0.0000000000000000000000000000000000000000000000000000000000000000E+00" Max="0.0000000000000000000000000000000000000000000000000000000000000000E+00"/>
<Variable VarIndex="9" Expression="tau21_Hbb" Label="tau21_Hbb" Title="tau21_Hbb" Unit="" Internal="tau21_Hbb" Type="F" Min="0.0000000000000000000000000000000000000000000000000000000000000000E+00" Max="0.0000000000000000000000000000000000000000000000000000000000000000E+00"/>
<Variable VarIndex="10" Expression="STMET" Label="STMET" Title="STMET" Unit="" Internal="STMET" Type="F" Min="0.0000000000000000000000000000000000000000000000000000000000000000E+00" Max="0.0000000000000000000000000000000000000000000000000000000000000000E+00"/>
<Variable VarIndex="11" Expression="pT_HH" Label="pT_HH" Title="pT_HH" Unit="" Internal="pT_HH" Type="F" Min="0.0000000000000000000000000000000000000000000000000000000000000000E+00" Max="0.0000000000000000000000000000000000000000000000000000000000000000E+00"/>
<Variable VarIndex="12" Expression="bjet2_pt" Label="bjet2_pt" Title="bjet2_pt" Unit="" Internal="bjet2_pt" Type="F" Min="0.0000000000000000000000000000000000000000000000000000000000000000E+00" Max="0.0000000000000000000000000000000000000000000000000000000000000000E+00"/>
<Variable VarIndex="13" Expression="avg_dr_jet_central" Label="avg_dr_jet_central" Title="avg_dr_jet_central" Unit="" Internal="avg_dr_jet_central" Type="F" Min="0.0000000000000000000000000000000000000000000000000000000000000000E+00" Max="0.0000000000000000000000000000000000000000000000000000000000000000E+00"/>
<Variable VarIndex="14" Expression="lep1_e" Label="lep1_e" Title="lep1_e" Unit="" Internal="lep1_e" Type="F" Min="0.0000000000000000000000000000000000000000000000000000000000000000E+00" Max="0.0000000000000000000000000000000000000000000000000000000000000000E+00"/>
<Variable VarIndex="15" Expression="mht" Label="mht" Title="mht" Unit="" Internal="mht" Type="F" Min="0.0000000000000000000000000000000000000000000000000000000000000000E+00" Max="0.0000000000000000000000000000000000000000000000000000000000000000E+00"/>
<Variable VarIndex="16" Expression="m_HHvis" Label="m_HHvis" Title="m_HHvis" Unit="" Internal="m_HHvis" Type="F" Min="0.0000000000000000000000000000000000000000000000000000000000000000E+00" Max="0.0000000000000000000000000000000000000000000000000000000000000000E+00"/>
<Variable VarIndex="17" Expression="pT_ll" Label="pT_ll" Title="pT_ll" Unit="" Internal="pT_ll" Type="F" Min="0.0000000000000000000000000000000000000000000000000000000000000000E+00" Max="0.0000000000000000000000000000000000000000000000000000000000000000E+00"/>
<Variable VarIndex="18" Expression="dPhi_HH" Label="dPhi_HH" Title="dPhi_HH" Unit="" Internal="dPhi_HH" Type="F" Min="0.0000000000000000000000000000000000000000000000000000000000000000E+00" Max="0.0000000000000000000000000000000000000000000000000000000000000000E+00"/>
<Variable VarIndex="19" Expression="logHiggsness_fixedChi2" Label="logHiggsness_fixedChi2" Title="logHiggsness_fixedChi2" Unit="" Internal="logHiggsness_fixedChi2" Type="F" Min="0.0000000000000000000000000000000000000000000000000000000000000000E+00" Max="0.0000000000000000000000000000000000000000000000000000000000000000E+00"/>
<Variable VarIndex="20" Expression="dPhi_HHvis" Label="dPhi_HHvis" Title="dPhi_HHvis" Unit="" Internal="dPhi_HHvis" Type="F" Min="0.0000000000000000000000000000000000000000000000000000000000000000E+00" Max="0.0000000000000000000000000000000000000000000000000000000000000000E+00"/>
<Variable VarIndex="21" Expression="lep2_pt" Label="lep2_pt" Title="lep2_pt" Unit="" Internal="lep2_pt" Type="F" Min="0.0000000000000000000000000000000000000000000000000000000000000000E+00" Max="0.0000000000000000000000000000000000000000000000000000000000000000E+00"/>
<Variable VarIndex="22" Expression="eta_HHvis" Label="eta_HHvis" Title="eta_HHvis" Unit="" Internal="eta_HHvis" Type="F" Min="0.0000000000000000000000000000000000000000000000000000000000000000E+00" Max="0.0000000000000000000000000000000000000000000000000000000000000000E+00"/>
<Variable VarIndex="23" Expression="dR_b1lep2" Label="dR_b1lep2" Title="dR_b1lep2" Unit="" Internal="dR_b1lep2" Type="F" Min="0.0000000000000000000000000000000000000000000000000000000000000000E+00" Max="0.0000000000000000000000000000000000000000000000000000000000000000E+00"/>
<Variable VarIndex="24" Expression="logTopness_fixedChi2" Label="logTopness_fixedChi2" Title="logTopness_fixedChi2" Unit="" Internal="logTopness_fixedChi2" Type="F" Min="0.0000000000000000000000000000000000000000000000000000000000000000E+00" Max="0.0000000000000000000000000000000000000000000000000000000000000000E+00"/>

</Variables>
<Classes NClass="2">
<Class Name="Background" Index="0"/>
<Class Name="Signal" Index="1"/>

</Classes>
<Targets NTrgt="0">

</Targets>
<Transformations NTransformations="0"/>
<MVAPdfs/>
<Weights NTrees="500" AnalysisType="1"><BinaryTree type="DecisionTree" boostWeight="0.0" itree="0">
    <Node pos="c" depth="1" NCoef="0" IVar="3" Cut="8.79982829000000022E-01" cType="1" res="0.00000000000000000E+00" rms="0.0" purity="0.00000000E+00" nType="0">
        <Node pos="l" depth="2" NCoef="0" IVar="10" Cut="6.24393677000000025E+02" cType="1" res="0.00000000000000000E+00" rms="0.0" purity="0.00000000E+00" nType="0">
            <Node pos="l" depth="3" NCoef="0" IVar="1" Cut="9.72931975999999992E+01" cType="1" res="0.00000000000000000E+00" rms="0.0" purity="0.00000000E+00" nType="0">
                <Node pos="l" depth="4" NCoef="0" IVar="-1" Cut="0.00000000000000000E+00" cType="1" res="-5.29018268000000028E-02" rms="0.0e-00" purity="0.00000000E+00" nType="-99">
                </Node>
                <Node pos="r" depth="4" NCoef="0" IVar="-1" Cut="0.00000000000000000E+00" cType="1" res="1.23625240999999997E-01" rms="0.0e-00" purity="0.00000000E+00" nType="-99">
                </Node>
            </Node>
            <Node pos="r" depth="3" NCoef="0" IVar="0" Cut="7.01756744000000054E+01" cType="1" res="0.00000000000000000E+00" rms="0.0" purity="0.00000000E+00" nType="0">
                <Node pos="l" depth="4" NCoef="0" IVar="-1" Cut="0.00000000000000000E+00" cType="1" res="2.17536448999999993E-01" rms="0.0e-00" purity="0.00000000E+00" nType="-99">
                </Node>
                <Node pos="r" depth="4" NCoef="0" IVar="-1" Cut="0.00000000000000000E+00" cType="1" res="1.32270492999999999E-02" rms="0.0e-00" purity="0.00000000E+00" nType="-99">
                </Node>
            </Node>
        </Node>
        <Node pos="r" depth="2" NCoef="0" IVar="19" Cut="7.65862166999999983E-01" cType="1" res="0.00000000000000000E+00" rms="0.0" purity="0.00000000E+00" nType="0">
            <Node pos="l" depth="3" NCoef="0" IVar="10" Cut="5.98080688000000009E+02" cType="1" res="0.00000000000000000E+00" rms="0.0" purity="0.00000000E+00" nType="0">
                <Node pos="l" depth="4" NCoef="0" IVar="-1" Cut="0.00000000000000000E+00" cType="1" res="-1.63379833000000002E-01" rms="0.0e-00" purity="0.00000000E+00" nType="-99">
                </Node>
                <Node pos="r" depth="4" NCoef="0" IVar="-1" Cut="0.00000000000000000E+00" cType="1" res="1.37634023999999994E-01" rms="0.0e-00" purity="0.00000000E+00" nType="-99">
                </Node>
            </Node>
            <Node pos="r" depth="3" NCoef="0" IVar="3" Cut="1.10957170000000005E+00" cType="1" res="0.00000000000000000E+00" rms="0.0" purity="0.00000000E+00" nType="0">
                <Node pos="l" depth="4" NCoef="0" IVar="-1" Cut="0.00000000000000000E+00" cType="1" res="-1.59208103999999989E-01" rms="0.0e-00" purity="0.00000000E+00" nType="-99">
                </Node>
                <Node pos="r" depth="4" NCoef="0" IVar="-1" Cut="0.00000000000000000E+00" cType="1" res="-2.24306910999999998E-01" rms="0.0e-00" purity="0.00000000E+00" nType="-99">
                </Node>
            </Node>
        </Node>
    </Node>
</BinaryTree>
<BinaryTree type="DecisionTree" boostWeight="0.0" itree="1">
    <Node pos="c" depth="1" NCoef="0" IVar="3" Cut="9.04902219999999979E-01" cType="1" res="0.00000000000000000E+00" rms="0.0" purity="0.00000000E+00" nType="0">
        <Node pos="l" depth="2" NCoef="0" IVar="10" Cut="5.60401122999999984E+02" cType="1" res="0.00000000000000000E+00" rms="0.0" purity="0.00000000E+00" nType="0">
            <Node pos="l" depth="3" NCoef="0" IVar="24" Cut="2.22982168000000014E+00" cType="1" res="0.00000000000000000E+00" rms="0.0" purity="0.00000000E+00" nType="0">
                <Node pos="l" depth="4" NCoef="0" IVar="-1" Cut="0.00000000000000000E+00" cType="1" res="-1.09626792000000001E-01" rms="0.0e-00" purity="0.00000000E+00" nType="-99">
                </Node>
                <Node pos="r" depth="4" NCoef="0" IVar="-1" Cut="0.00000000000000000E+00" cType="1" res="2.57023647000000008E-02" rms="0.0e-00" purity="0.00000000E+00" nType="-99">
                </Node>
            </Node>
            <Node pos="r" depth="3" NCoef="0" IVar="0" Cut="7.43148345999999975E+01" cType="1" res="0.00000000000000000E+00" rms="0.0" purity="0.00000000E+00" nType="0">
                <Node pos="l" depth="4" NCoef="0" IVar="-1" Cut="0.00000000000000000E+00" cType="1" res="1.91106691999999995E-01" rms="0.0e-00" purity="0.00000000E+00" nType="-99">
                </Node>
                <Node pos="r" depth="4" NCoef="0" IVar="-1" Cut="0.00000000000000000E+00" cType="1" res="-6.68080672999999958E-02" rms="0.0e-00" purity="0.00000000E+00" nType="-99">
                </Node>
            </Node>
        </Node>
        <Node pos="r" depth="2" NCoef="0" IVar="19" Cut="6.73516213999999946E-01" cType="1" res="0.00000000000000000E+00" rms="0.0" purity="0.00000000E+00" nType="0">
            <Node pos="l" depth="3" NCoef="0" IVar="10" Cut="5.38642090000000053E+02" cType="1" res="0.00000000000000000E+00" rms="0.0" purity="0.00000000E+00" nType="0">
                <Node pos="l" depth="4" NCoef="0" IVar="-1" Cut="0.00000000000000000E+00" cType="1" res="-1.62671894000000011E-01" rms="0.0e-00" purity="0.00000000E+00" nType="-99">
                </Node>
                <Node pos="r" depth="4" NCoef="0" IVar="-1" Cut="0.00000000000000000E+00" cType="1" res="8.32837448000000036E-02" rms="0.0e-00" purity="0.00000000E+00" nType="-99">
                </Node>
            </Node>
            <Node pos="r" depth="3" NCoef="0" IVar="0" Cut="7.09225006000000064E+01" cType="1" res="0.00000000000000000E+00" rms="0.0" purity="0.00000000E+00" nType="0">
                <Node pos="l" depth="4" NCoef="0" IVar="-1" Cut="0.00000000000000000E+00" cType="1" res="-1.60084575000000007E-01" rms="0.0e-00" purity="0.00000000E+00" nType="-99">
                </Node>
                <Node pos="r" depth="4" NCoef="0" IVar="-1" Cut="0.00000000000000000E+00" cType="1" res="-2.04014510000000010E-01" rms="0.0e-00" purity="0.00000000E+00" nType="-99">
                </Node>
            </Node>
        </Node>
    </Node>
</BinaryTree>
<BinaryTree type="DecisionTree" boostWeight="0.0" itree="2">
    <Node pos="c" depth="1" NCoef="0" IVar="3" Cut="9.04545425999999986E-01" cType="1" res="0.00000000000000000E+00" rms="0.0" purity="0.00000000E+00" nType="0">
        <Node pos="l" depth="2" NCoef="0" IVar="10" Cut="6.24393677000000025E+02" cType="1" res="0.00000000000000000E+00" rms="0.0" purity="0.00000000E+00" nType="0">
            <Node pos="l" depth="3" NCoef="0" IVar="3" Cut="5.03949760999999996E-01" cType="1" res="0.00000000000000000E+00" rms="0.0" purity="0.00000000E+00" nType="0">
                <Node pos="l" depth="4" NCoef="0" IVar="-1" Cut="0.00000000000000000E+00" cType="1" res="9.03688073000000064E-02" rms="0.0e-00" purity="0.00000000E+00" nType="-99">
                </Node>
                <Node pos="r" depth="4" NCoef="0" IVar="-1" Cut="0.00000000000000000E+00" cType="1" res="-5.97645044000000014E-02" rms="0.0e-00" purity="0.00000000E+00" nType="-99">
                </Node>
            </Node>
            <Node pos="r" depth="3" NCoef="0" IVar="0" Cut="7.01700057999999984E+01" cType="1" res="0.00000000000000000E+00" rms="0.0" purity="0.00000000E+00" nType="0">
                <Node pos="l" depth="4" NCoef="0" IVar="-1" Cut="0.00000000000000000E+00" cType="1" res="1.79081677999999994E-01" rms="0.0e-00" purity="0.00000000E+00" nType="-99">
                </Node>
                <Node pos="r" depth="4" NCoef="0" IVar="-1" Cut="0.00000000000000000E+00" cType="1" res="4.86872345000000008E-03" rms="0.0e-00" purity="0.00000000E+00" nType="-99">
                </Node>
            </Node>
        </Node>
        <Node pos="r" depth="2" NCoef="0" IVar="5" Cut="1.21096351999999996E+02" cType="1" res="0.00000000000000000E+00" rms="0.0" purity="0.00000000E+00" nType="0">
            <Node pos="l" depth="3" NCoef="0" IVar="10" Cut="5.01323303000000010E+02" cType="1" res="0.00000000000000000E+00" rms="0.0" purity="0.00000000E+00" nType="0">
                <Node pos="l" depth="4" NCoef="0" IVar="-1" Cut="0.00000000000000000E+00" cType="1" res="-1.56161517000000000E-01" rms="0.0e-00" purity="0.00000000E+00" nType="-99">
                </Node>
                <Node pos="r" depth="4" NCoef="0" IVar="-1" Cut="0.00000000000000000E+00" cType="1" res="6.26516639999999958E-02" rms="0.0e-00" purity="0.00000000E+00" nType="-99">
                </Node>
            </Node>
            <Node pos="r" depth="3" NCoef="0" IVar="0" Cut="5.79934806999999992E+01" cType="1" res="0.00000000000000000E+00" rms="0.0" purity="0.00000000E+00" nType="0">
                <Node pos="l" depth="4" NCoef="0" IVar="-1" Cut="0.00000000000000000E+00" cType="1" res="-1.40816361000000001E-01" rms="0.0e-00" purity="0.00000000E+00" nType="-99">
                </Node>
                <Node pos="r" depth="4" NCoef="0" IVar="-1" Cut="0.00000000000000000E+00" cType="1" res="-1.85964956999999986E-01" rms="0.0e-00" purity="0.00000000E+00" nType="-99">
                </Node>
            </Node>
        </Node>
    </Node>
</BinaryTree>
<BinaryTree type="DecisionTree" boostWeight="0.0" itree="3">
    <Node pos="c" depth="1" NCoef="0" IVar="3" Cut="9.38411415000000027E-01" cType="1" res="0.00000000000000000E+00" rms="0.0" purity="0.00000000E+00" nType="0">
        <Node pos="l" depth="2" NCoef="0" IVar="24" Cut="2.87783480000000003E+00" cType="1" res="0.00000000000000000E+00" rms="0.0" purity="0.00000000E+00" nType="0">
            <Node pos="l" depth="3" NCoef="0" IVar="16" Cut="2.96013061999999991E+02" cType="1" res="0.00000000000000000E+00" rms="0.0" purity="0.00000000E+00" nType="0">
                <Node pos="l" depth="4" NCoef="0" IVar="-1" Cut="0.00000000000000000E+00" cType="1" res="-1.33861154000000010E-01" rms="0.0e-00" purity="0.00000000E+00" nType="-99">
                </Node>
                <Node pos="r" depth="4" NCoef="0" IVar="-1" Cut="0.00000000000000000E+00" cType="1" res="4.96816169000000030E-03" rms="0.0e-00" purity="0.00000000E+00" nType="-99">
                </Node>
            </Node>
            <Node pos="r" depth="3" NCoef="0" IVar="0" Cut="7.49157028000000054E+01" cType="1" res="0.00000000000000000E+00" rms="0.0" purity="0.00000000E+00" nType="0">
                <Node pos="l" depth="4" NCoef="0" IVar="-1" Cut="0.00000000000000000E+00" cType="1" res="1.62176042999999992E-01" rms="0.0e-00" purity="0.00000000E+00" nType="-99">
                </Node>
                <Node pos="r" depth="4" NCoef="0" IVar="-1" Cut="0.00000000000000000E+00" cType="1" res="-7.49904289999999973E-02" rms="0.0e-00" purity="0.00000000E+00" nType="-99">
                </Node>
            </Node>
        </Node>
        <Node pos="r" depth="2" NCoef="0" IVar="0" Cut="5.43655891000000011E+01" cType="1" res="0.00000000000000000E+00" rms="0.0" purity="0.00000000E+00" nType="0">
            <Node pos="l" depth="3" NCoef="0" IVar="24" Cut="2.62271069999999984E+00" cType="1" res="0.00000000000000000E+00" rms="0.0" purity="0.00000000E+00" nType="0">
                <Node pos="l" depth="4" NCoef="0" IVar="-1" Cut="0.00000000000000000E+00" cType="1" res="-1.29055947000000004E-01" rms="0.0e-00" purity="0.00000000E+00" nType="-99">
                </Node>
                <Node pos="r" depth="4" NCoef="0" IVar="-1" Cut="0.00000000000000000E+00" cType="1" res="8.90927836000000029E-02" rms="0.0e-00" purity="0.00000000E+00" nType="-99">
                </Node>
            </Node>
            <Node pos="r" depth="3" NCoef="0" IVar="3" Cut="1.29728496000000004E+00" cType="1" res="0.00000000000000000E+00" rms="0.0" purity="0.00000000E+00" nType="0">
                <Node pos="l" depth="4" NCoef="0" IVar="-1" Cut="0.00000000000000000E+00" cType="1" res="-1.18248417999999994E-01" rms="0.0e-00" purity="0.00000000E+00" nType="-99">
                </Node>
                <Node pos="r" depth="4" NCoef="0" IVar="-1" Cut="0.00000000000000000E+00" cType="1" res="-1.72850906999999998E-01" rms="0.0e-00" purity="0.00000000E+00" nType="-99">
                </Node>
            </Node>
        </Node>
    </Node>
</BinaryTree>
<BinaryTree type="DecisionTree" boostWeight="0.0" itree="4">
    <Node pos="c" depth="1" NCoef="0" IVar="3" Cut="9.50504421999999960E-01" cType="1" res="0.00000000000000000E+00" rms="0.0" purity="0.00000000E+00" nType="0">
        <Node pos="l" depth="2" NCoef="0" IVar="1" Cut="8.48838271999999989E+01" cType="1" res="0.00000000000000000E+00" rms="0.0" purity="0.00000000E+00" nType="0">
            <Node pos="l" depth="3" NCoef="0" IVar="3" Cut="4.24721420000000016E-01" cType="1" res="0.00000000000000000E+00" rms="0.0" purity="0.00000000E+00" nType="0">
                <Node pos="l" depth="4" NCoef="0" IVar="-1" Cut="0.00000000000000000E+00" cType="1" res="1.21421426999999998E-01" rms="0.0e-00" purity="0.00000000E+00" nType="-99">
                </Node>
                <Node pos="r" depth="4" NCoef="0" IVar="-1" Cut="0.00000000000000000E+00" cType="1" res="-6.91108703999999963E-02" rms="0.0e-00" purity="0.00000000E+00" nType="-99">
                </Node>
            </Node>
            <Node pos="r" depth="3" NCoef="0" IVar="24" Cut="2.71231318000000021E+00" cType="1" res="0.00000000000000000E+00" rms="0.0" purity="0.00000000E+00" nType="0">
                <Node pos="l" depth="4" NCoef="0" IVar="-1" Cut="0.00000000000000000E+00" cType="1" res="1.36143108999999991E-02" rms="0.0e-00" purity="0.00000000E+00" nType="-99">
                </Node>
                <Node pos="r" depth="4" NCoef="0" IVar="-1" Cut="0.00000000000000000E+00" cType="1" res="1.56166389999999988E-01" rms="0.0e-00" purity="0.00000000E+00" nType="-99">
                </Node>
            </Node>
        </Node>
        <Node pos="r" depth="2" NCoef="0" IVar="0" Cut="6.10304946999999984E+01" cType="1" res="0.00000000000000000E+00" rms="0.0" purity="0.00000000E+00" nType="0">
            <Node pos="l" depth="3" NCoef="0" IVar="24" Cut="2.84103370000000011E+00" cType="1" res="0.00000000000000000E+00" rms="0.0" purity="0.00000000E+00" nType="0">
                <Node pos="l" depth="4" NCoef="0" IVar="-1" Cut="0.00000000000000000E+00" cType="1" res="-1.19478798999999997E-01" rms="0.0e-00" purity="0.00000000E+00" nType="-99">
                </Node>
                <Node pos="r" depth="4" NCoef="0" IVar="-1" Cut="0.00000000000000000E+00" cType="1" res="7.76103437000000007E-02" rms="0.0e-00" purity="0.00000000E+00" nType="-99">
                </Node>
            </Node>
            <Node pos="r" depth="3" NCoef="0" IVar="0" Cut="7.45905838000000045E+01" cType="1" res="0.00000000000000000E+00" rms="0.0" purity="0.00000000E+00" nType="0">
                <Node pos="l" depth="4" NCoef="0" IVar="-1" Cut="0.00000000000000000E+00" cType="1" res="-1.30933746999999989E-01" rms="0.0e-00" purity="0.00000000E+00" nType="-99">
                </Node>
                <Node pos="r" depth="4" NCoef="0" IVar="-1" Cut="0.00000000000000000E+00" cType="1" res="-1.65217965999999994E-01" rms="0.0e-00" purity="0.00000000E+00" nType="-99">
                </Node>
            </Node>
        </Node>
    </Node>
</BinaryTree>
<BinaryTree type="DecisionTree" boostWeight="0.0" itree="5">
    <Node pos="c" depth="1" NCoef="0" IVar="3" Cut="8.31855655000000027E-01" cType="1" res="0.00000000000000000E+00" rms="0.0" purity="0.00000000E+00" nType="0">
        <Node pos="l" depth="2" NCoef="0" IVar="1" Cut="9.28883514000000048E+01" cType="1" res="0.00000000000000000E+00" rms="0.0" purity="0.00000000E+00" nType="0">
            <Node pos="l" depth="3" NCoef="0" IVar="3" Cut="4.24753696000000014E-01" cType="1" res="0.00000000000000000E+00" rms="0.0" purity="0.00000000E+00" nType="0">
                <Node pos="l" depth="4" NCoef="0" IVar="-1" Cut="0.00000000000000000E+00" cType="1" res="1.27254336999999995E-01" rms="0.0e-00" purity="0.00000000E+00" nType="-99">
                </Node>
                <Node pos="r" depth="4" NCoef="0" IVar="-1" Cut="0.00000000000000000E+00" cType="1" res="-4.21246253000000029E-02" rms="0.0e-00" purity="0.00000000E+00" nType="-99">
                </Node>
            </Node>
            <Node pos="r" depth="3" NCoef="0" IVar="24" Cut="2.99894214000000003E+00" cType="1" res="0.00000000000000000E+00" rms="0.0" purity="0.00000000E+00" nType="0">
                <Node pos="l" depth="4" NCoef="0" IVar="-1" Cut="0.00000000000000000E+00" cType="1" res="7.29335546000000057E-02" rms="0.0e-00" purity="0.00000000E+00" nType="-99">
                </Node>
                <Node pos="r" depth="4" NCoef="0" IVar="-1" Cut="0.00000000000000000E+00" cType="1" res="1.53716236000000006E-01" rms="0.0e-00" purity="0.00000000E+00" nType="-99">
                </Node>
            </Node>
        </Node>
        <Node pos="r" depth="2" NCoef="0" IVar="19" Cut="7.05166756999999977E-01" cType="1" res="0.00000000000000000E+00" rms="0.0" purity="0.00000000E+00" nType="0">
            <Node pos="l" depth="3" NCoef="0" IVar="24" Cut="2.86055779000000010E+00" cType="1" res="0.00000000000000000E+00" rms="0.0" purity="0.00000000E+00" nType="0">
                <Node pos="l" depth="4" NCoef="0" IVar="-1" Cut="0.00000000000000000E+00" cType="1" res="-1.04536772000000000E-01" rms="0.0e-00" purity="0.00000000E+00" nType="-99">
                </Node>
                <Node pos="r" depth="4" NCoef="0" IVar="-1" Cut="0.00000000000000000E+00" cType="1" res="9.89979804000000047E-02" rms="0.0e-00" purity="0.00000000E+00" nType="-99">
                </Node>
            </Node>
            <Node pos="r" depth="3" NCoef="0" IVar="3" Cut="1.26569927000000004E+00" cType="1" res="0.00000000000000000E+00" rms="0.0" purity="0.00000000E+00" nType="0">
                <Node pos="l" depth="4" NCoef="0" IVar="-1" Cut="0.00000000000000000E+00" cType="1" res="-1.08606957000000004E-01" rms="0.0e-00" purity="0.00000000E+00" nType="-99">
                </Node>
                <Node pos="r" depth="4" NCoef="0" IVar="-1" Cut="0.00000000000000000E+00" cType="1" res="-1.55794888999999992E-01" rms="0.0e-00" purity="0.00000000E+00" nType="-99">
                </Node>
            </Node>
        </Node>
    </Node>
</BinaryTree>
<BinaryTree type="DecisionTree" boostWeight="0.0" itree="6">
    <Node pos="c" depth="1" NCoef="0" IVar="3" Cut="9.50448155000000017E-01" cType="1" res="0.00000000000000000E+00" rms="0.0" purity="0.00000000E+00" nType="0">
        <Node pos="l" depth="2" NCoef="0" IVar="10" Cut="6.93204345999999987E+02" cType="1" res="0.00000000000000000E+00" rms="0.0" purity="0.00000000E+00" nType="0">
            <Node pos="l" depth="3" NCoef="0" IVar="7" Cut="1.53889966000000000E+00" cType="1" res="0.00000000000000000E+00" rms="0.0" purity="0.00000000E+00" nType="0">
                <Node pos="l" depth="4" NCoef="0" IVar="-1" Cut="0.00000000000000000E+00" cType="1" res="4.60335165000000032E-02" rms="0.0e-00" purity="0.00000000E+00" nType="-99">
                </Node>
                <Node pos="r" depth="4" NCoef="0" IVar="-1" Cut="0.00000000000000000E+00" cType="1" res="-9.31467041000000051E-02" rms="0.0e-00" purity="0.00000000E+00" nType="-99">
                </Node>
            </Node>
            <Node pos="r" depth="3" NCoef="0" IVar="0" Cut="7.30653228999999982E+01" cType="1" res="0.00000000000000000E+00" rms="0.0" purity="0.00000000E+00" nType="0">
                <Node pos="l" depth="4" NCoef="0" IVar="-1" Cut="0.00000000000000000E+00" cType="1" res="1.44859149999999992E-01" rms="0.0e-00" purity="0.00000000E+00" nType="-99">
                </Node>
                <Node pos="r" depth="4" NCoef="0" IVar="-1" Cut="0.00000000000000000E+00" cType="1" res="-1.55482217999999995E-02" rms="0.0e-00" purity="0.00000000E+00" nType="-99">
                </Node>
            </Node>
        </Node>
        <Node pos="r" depth="2" NCoef="0" IVar="5" Cut="1.23337233999999995E+02" cType="1" res="0.00000000000000000E+00" rms="0.0" purity="0.00000000E+00" nType="0">
            <Node pos="l" depth="3" NCoef="0" IVar="10" Cut="6.47886963000000037E+02" cType="1" res="0.00000000000000000E+00" rms="0.0" purity="0.00000000E+00" nType="0">
                <Node pos="l" depth="4" NCoef="0" IVar="-1" Cut="0.00000000000000000E+00" cType="1" res="-9.74462702999999986E-02" rms="0.0e-00" purity="0.00000000E+00" nType="-99">
                </Node>
                <Node pos="r" depth="4" NCoef="0" IVar="-1" Cut="0.00000000000000000E+00" cType="1" res="1.05295517000000005E-01" rms="0.0e-00" purity="0.00000000E+00" nType="-99">
                </Node>
            </Node>
            <Node pos="r" depth="3" NCoef="0" IVar="3" Cut="1.20823108999999995E+00" cType="1" res="0.00000000000000000E+00" rms="0.0" purity="0.00000000E+00" nType="0">
                <Node pos="l" depth="4" NCoef="0" IVar="-1" Cut="0.00000000000000000E+00" cType="1" res="-1.15094989999999994E-01" rms="0.0e-00" purity="0.00000000E+00" nType="-99">
                </Node>
                <Node pos="r" depth="4" NCoef="0" IVar="-1" Cut="0.00000000000000000E+00" cType="1" res="-1.49656414999999987E-01" rms="0.0e-00" purity="0.00000000E+00" nType="-99">
                </Node>
            </Node>
        </Node>
    </Node>
</BinaryTree>
<BinaryTree type="DecisionTree" boostWeight="0.0" itree="7">
    <Node pos="c" depth="1" NCoef="0" IVar="3" Cut="7.77080894000000022E-01" cType="1" res="0.00000000000000000E+00" rms="0.0" purity="0.00000000E+00" nType="0">
        <Node pos="l" depth="2" NCoef="0" IVar="1" Cut="8.43787384000000031E+01" cType="1" res="0.00000000000000000E+00" rms="0.0" purity="0.00000000E+00" nType="0">
            <Node pos="l" depth="3" NCoef="0" IVar="7" Cut="1.32435583999999995E+00" cType="1" res="0.00000000000000000E+00" rms="0.0" purity="0.00000000E+00" nType="0">
                <Node pos="l" depth="4" NCoef="0" IVar="-1" Cut="0.00000000000000000E+00" cType="1" res="4.23388890999999989E-02" rms="0.0e-00" purity="0.00000000E+00" nType="-99">
                </Node>
                <Node pos="r" depth="4" NCoef="0" IVar="-1" Cut="0.00000000000000000E+00" cType="1" res="-9.54014881999999953E-02" rms="0.0e-00" purity="0.00000000E+00" nType="-99">
                </Node>
            </Node>
            <Node pos="r" depth="3" NCoef="0" IVar="24" Cut="2.99886131000000011E+00" cType="1" res="0.00000000000000000E+00" rms="0.0" purity="0.00000000E+00" nType="0">
                <Node pos="l" depth="4" NCoef="0" IVar="-1" Cut="0.00000000000000000E+00" cType="1" res="5.21067381000000010E-02" rms="0.0e-00" purity="0.00000000E+00" nType="-99">
                </Node>
                <Node pos="r" depth="4" NCoef="0" IVar="-1" Cut="0.00000000000000000E+00" cType="1" res="1.38741239999999988E-01" rms="0.0e-00" purity="0.00000000E+00" nType="-99">
                </Node>
            </Node>
        </Node>
        <Node pos="r" depth="2" NCoef="0" IVar="5" Cut="1.25513321000000005E+02" cType="1" res="0.00000000000000000E+00" rms="0.0" purity="0.00000000E+00" nType="0">
            <Node pos="l" depth="3" NCoef="0" IVar="10" Cut="5.59610961999999972E+02" cType="1" res="0.00000000000000000E+00" rms="0.0" purity="0.00000000E+00" nType="0">
                <Node pos="l" depth="4" NCoef="0" IVar="-1" Cut="0.00000000000000000E+00" cType="1" res="-9.71347988000000051E-02" rms="0.0e-00" purity="0.00000000E+00" nType="-99">
                </Node>
                <Node pos="r" depth="4" NCoef="0" IVar="-1" Cut="0.00000000000000000E+00" cType="1" res="8.53700638000000067E-02" rms="0.0e-00" purity="0.00000000E+00" nType="-99">
                </Node>
            </Node>
            <Node pos="r" depth="3" NCoef="0" IVar="0" Cut="6.81397323999999998E+01" cType="1" res="0.00000000000000000E+00" rms="0.0" purity="0.00000000E+00" nType="0">
                <Node pos="l" depth="4" NCoef="0" IVar="-1" Cut="0.00000000000000000E+00" cType="1" res="-1.06575123999999993E-01" rms="0.0e-00" purity="0.00000000E+00" nType="-99">
                </Node>
                <Node pos="r" depth="4" NCoef="0" IVar="-1" Cut="0.00000000000000000E+00" cType="1" res="-1.45509988000000007E-01" rms="0.0e-00" purity="0.00000000E+00" nType="-99">
                </Node>
            </Node>
        </Node>
    </Node>
</BinaryTree>
<BinaryTree type="DecisionTree" boostWeight="0.0" itree="8">
    <Node pos="c" depth="1" NCoef="0" IVar="3" Cut="7.37515926000000044E-01" cType="1" res="0.00000000000000000E+00" rms="0.0" purity="0.00000000E+00" nType="0">
        <Node pos="l" depth="2" NCoef="0" IVar="24" Cut="2.72150992999999985E+00" cType="1" res="0.00000000000000000E+00" rms="0.0" purity="0.00000000E+00" nType="0">
            <Node pos="l" depth="3" NCoef="0" IVar="6" Cut="1.70826340000000010E+00" cType="1" res="0.00000000000000000E+00" rms="0.0" purity="0.00000000E+00" nType="0">
                <Node pos="l" depth="4" NCoef="0" IVar="-1" Cut="0.00000000000000000E+00" cType="1" res="-6.79890885999999972E-02" rms="0.0e-00" purity="0.00000000E+00" nType="-99">
                </Node>
                <Node pos="r" depth="4" NCoef="0" IVar="-1" Cut="0.00000000000000000E+00" cType="1" res="4.63848635999999995E-02" rms="0.0e-00" purity="0.00000000E+00" nType="-99">
                </Node>
            </Node>
            <Node pos="r" depth="3" NCoef="0" IVar="0" Cut="7.14774627999999979E+01" cType="1" res="0.00000000000000000E+00" rms="0.0" purity="0.00000000E+00" nType="0">
                <Node pos="l" depth="4" NCoef="0" IVar="-1" Cut="0.00000000000000000E+00" cType="1" res="1.30025953000000000E-01" rms="0.0e-00" purity="0.00000000E+00" nType="-99">
                </Node>
                <Node pos="r" depth="4" NCoef="0" IVar="-1" Cut="0.00000000000000000E+00" cType="1" res="-2.92939842000000013E-02" rms="0.0e-00" purity="0.00000000E+00" nType="-99">
                </Node>
            </Node>
        </Node>
        <Node pos="r" depth="2" NCoef="0" IVar="0" Cut="6.89261168999999967E+01" cType="1" res="0.00000000000000000E+00" rms="0.0" purity="0.00000000E+00" nType="0">
            <Node pos="l" depth="3" NCoef="0" IVar="24" Cut="3.07159495000000016E+00" cType="1" res="0.00000000000000000E+00" rms="0.0" purity="0.00000000E+00" nType="0">
                <Node pos="l" depth="4" NCoef="0" IVar="-1" Cut="0.00000000000000000E+00" cType="1" res="-7.96284601000000064E-02" rms="0.0e-00" purity="0.00000000E+00" nType="-99">
                </Node>
                <Node pos="r" depth="4" NCoef="0" IVar="-1" Cut="0.00000000000000000E+00" cType="1" res="1.04073763000000000E-01" rms="0.0e-00" purity="0.00000000E+00" nType="-99">
                </Node>
            </Node>
            <Node pos="r" depth="3" NCoef="0" IVar="0" Cut="7.97618865999999969E+01" cType="1" res="0.00000000000000000E+00" rms="0.0" purity="0.00000000E+00" nType="0">
                <Node pos="l" depth="4" NCoef="0" IVar="-1" Cut="0.00000000000000000E+00" cType="1" res="-1.11799582999999994E-01" rms="0.0e-00" purity="0.00000000E+00" nType="-99">
                </Node>
                <Node pos="r" depth="4" NCoef="0" IVar="-1" Cut="0.00000000000000000E+00" cType="1" res="-1.42870143000000005E-01" rms="0.0e-00" purity="0.00000000E+00" nType="-99">
                </Node>
            </Node>
        </Node>
    </Node>
</BinaryTree>
<BinaryTree type="DecisionTree" boostWeight="0.0" itree="9">
    <Node pos="c" depth="1" NCoef="0" IVar="7" Cut="8.69809627999999946E-01" cType="1" res="0.00000000000000000E+00" rms="0.0" purity="0.00000000E+00" nType="0">
        <Node pos="l" depth="2" NCoef="0" IVar="0" Cut="7.49941711000000026E+01" cType="1" res="0.00000000000000000E+00" rms="0.0" purity="0.00000000E+00" nType="0">
            <Node pos="l" depth="3" NCoef="0" IVar="10" Cut="4.86629089000000022E+02" cType="1" res="0.00000000000000000E+00" rms="0.0" purity="0.00000000E+00" nType="0">
                <Node pos="l" depth="4" NCoef="0" IVar="-1" Cut="0.00000000000000000E+00" cType="1" res="-5.13284168999999998E-02" rms="0.0e-00" purity="0.00000000E+00" nType="-99">
                </Node>
                <Node pos="r" depth="4" NCoef="0" IVar="-1" Cut="0.00000000000000000E+00" cType="1" res="1.23026787999999998E-01" rms="0.0e-00" purity="0.00000000E+00" nType="-99">
                </Node>
            </Node>
            <Node pos="r" depth="3" NCoef="0" IVar="-1" Cut="0.00000000000000000E+00" cType="1" res="-1.02653384000000000E-01" rms="0.0e-00" purity="0.00000000E+00" nType="-99">
            </Node>
        </Node>
        <Node pos="r" depth="2" NCoef="0" IVar="0" Cut="6.19572448999999992E+01" cType="1" res="0.00000000000000000E+00" rms="0.0" purity="0.00000000E+00" nType="0">
            <Node pos="l" depth="3" NCoef="0" IVar="16" Cut="3.87969695999999999E+02" cType="1" res="0.00000000000000000E+00" rms="0.0" purity="0.00000000E+00" nType="0">
                <Node pos="l" depth="4" NCoef="0" IVar="-1" Cut="0.00000000000000000E+00" cType="1" res="-9.02833118999999962E-02" rms="0.0e-00" purity="0.00000000E+00" nType="-99">
                </Node>
                <Node pos="r" depth="4" NCoef="0" IVar="-1" Cut="0.00000000000000000E+00" cType="1" res="6.90262913999999950E-02" rms="0.0e-00" purity="0.00000000E+00" nType="-99">
                </Node>
            </Node>
            <Node pos="r" depth="3" NCoef="0" IVar="12" Cut="1.21593750000000000E+02" cType="1" res="0.00000000000000000E+00" rms="0.0" purity="0.00000000E+00" nType="0">
                <Node pos="l" depth="4" NCoef="0" IVar="-1" Cut="0.00000000000000000E+00" cType="1" res="-1.38032137999999999E-01" rms="0.0e-00" purity="0.00000000E+00" nType="-99">
                </Node>
                <Node pos="r" depth="4" NCoef="0" IVar="-1" Cut="0.00000000000000000E+00" cType="1" res="-8.81014987999999971E-02" rms="0.0e-00" purity="0.00000000E+00" nType="-99">
                </Node>
            </Node>
        </Node>
    </Node>
</BinaryTree>
<BinaryTree type="DecisionTree" boostWeight="0.0" itree="10">
    <Node pos="c" depth="1" NCoef="0" IVar="3" Cut="9.56690370999999984E-01" cType="1" res="0.00000000000000000E+00" rms="0.0" purity="0.00000000E+00" nType="0">
        <Node pos="l" depth="2" NCoef="0" IVar="1" Cut="9.55729979999999983E+01" cType="1" res="0.00000000000000000E+00" rms="0.0" purity="0.00000000E+00" nType="0">
            <Node pos="l" depth="3" NCoef="0" IVar="3" Cut="4.24859582999999985E-01" cType="1" res="0.00000000000000000E+00" rms="0.0" purity="0.00000000E+00" nType="0">
                <Node pos="l" depth="4" NCoef="0" IVar="-1" Cut="0.00000000000000000E+00" cType="1" res="9.03927608999999938E-02" rms="0.0e-00" purity="0.00000000E+00" nType="-99">
                </Node>
                <Node pos="r" depth="4" NCoef="0" IVar="-1" Cut="0.00000000000000000E+00" cType="1" res="-4.31516916000000000E-02" rms="0.0e-00" purity="0.00000000E+00" nType="-99">
                </Node>
            </Node>
            <Node pos="r" depth="3" NCoef="0" IVar="24" Cut="2.80424069999999981E+00" cType="1" res="0.00000000000000000E+00" rms="0.0" purity="0.00000000E+00" nType="0">
                <Node pos="l" depth="4" NCoef="0" IVar="-1" Cut="0.00000000000000000E+00" cType="1" res="3.12977247000000014E-02" rms="0.0e-00" purity="0.00000000E+00" nType="-99">
                </Node>
                <Node pos="r" depth="4" NCoef="0" IVar="-1" Cut="0.00000000000000000E+00" cType="1" res="1.25807061999999997E-01" rms="0.0e-00" purity="0.00000000E+00" nType="-99">
                </Node>
            </Node>
        </Node>
        <Node pos="r" depth="2" NCoef="0" IVar="5" Cut="1.20671783000000005E+02" cType="1" res="0.00000000000000000E+00" rms="0.0" purity="0.00000000E+00" nType="0">
            <Node pos="l" depth="3" NCoef="0" IVar="10" Cut="4.74282378999999992E+02" cType="1" res="0.00000000000000000E+00" rms="0.0" purity="0.00000000E+00" nType="0">
                <Node pos="l" depth="4" NCoef="0" IVar="-1" Cut="0.00000000000000000E+00" cType="1" res="-1.03056088000000004E-01" rms="0.0e-00" purity="0.00000000E+00" nType="-99">
                </Node>
                <Node pos="r" depth="4" NCoef="0" IVar="-1" Cut="0.00000000000000000E+00" cType="1" res="4.18487042000000031E-02" rms="0.0e-00" purity="0.00000000E+00" nType="-99">
                </Node>
            </Node>
            <Node pos="r" depth="3" NCoef="0" IVar="0" Cut="7.09225006000000064E+01" cType="1" res="0.00000000000000000E+00" rms="0.0" purity="0.00000000E+00" nType="0">
                <Node pos="l" depth="4" NCoef="0" IVar="-1" Cut="0.00000000000000000E+00" cType="1" res="-1.00956439999999995E-01" rms="0.0e-00" purity="0.00000000E+00" nType="-99">
                </Node>
                <Node pos="r" depth="4" NCoef="0" IVar="-1" Cut="0.00000000000000000E+00" cType="1" res="-1.34180530999999992E-01" rms="0.0e-00" purity="0.00000000E+00" nType="-99">
                </Node>
            </Node>
        </Node>
    </Node>
</BinaryTree>
<BinaryTree type="DecisionTree" boostWeight="0.0" itree="11">
    <Node pos="c" depth="1" NCoef="0" IVar="3" Cut="1.07048820999999994E+00" cType="1" res="0.00000000000000000E+00" rms="0.0" purity="0.00000000E+00" nType="0">
        <Node pos="l" depth="2" NCoef="0" IVar="10" Cut="7.14538512999999966E+02" cType="1" res="0.00000000000000000E+00" rms="0.0" purity="0.00000000E+00" nType="0">
            <Node pos="l" depth="3" NCoef="0" IVar="4" Cut="1.41026839999999993E+02" cType="1" res="0.00000000000000000E+00" rms="0.0" purity="0.00000000E+00" nType="0">
                <Node pos="l" depth="4" NCoef="0" IVar="-1" Cut="0.00000000000000000E+00" cType="1" res="1.29503757000000008E-02" rms="0.0e-00" purity="0.00000000E+00" nType="-99">
                </Node>
                <Node pos="r" depth="4" NCoef="0" IVar="-1" Cut="0.00000000000000000E+00" cType="1" res="-1.35578646999999997E-01" rms="0.0e-00" purity="0.00000000E+00" nType="-99">
                </Node>
            </Node>
            <Node pos="r" depth="3" NCoef="0" IVar="0" Cut="7.01756744000000054E+01" cType="1" res="0.00000000000000000E+00" rms="0.0" purity="0.00000000E+00" nType="0">
                <Node pos="l" depth="4" NCoef="0" IVar="-1" Cut="0.00000000000000000E+00" cType="1" res="1.24840505000000004E-01" rms="0.0e-00" purity="0.00000000E+00" nType="-99">
                </Node>
                <Node pos="r" depth="4" NCoef="0" IVar="-1" Cut="0.00000000000000000E+00" cType="1" res="-1.44971227000000001E-02" rms="0.0e-00" purity="0.00000000E+00" nType="-99">
                </Node>
            </Node>
        </Node>
        <Node pos="r" depth="2" NCoef="0" IVar="0" Cut="5.50581856000000016E+01" cType="1" res="0.00000000000000000E+00" rms="0.0" purity="0.00000000E+00" nType="0">
            <Node pos="l" depth="3" NCoef="0" IVar="16" Cut="3.30028258999999991E+02" cType="1" res="0.00000000000000000E+00" rms="0.0" purity="0.00000000E+00" nType="0">
                <Node pos="l" depth="4" NCoef="0" IVar="-1" Cut="0.00000000000000000E+00" cType="1" res="-7.87064135000000026E-02" rms="0.0e-00" purity="0.00000000E+00" nType="-99">
                </Node>
                <Node pos="r" depth="4" NCoef="0" IVar="-1" Cut="0.00000000000000000E+00" cType="1" res="6.80804178000000010E-02" rms="0.0e-00" purity="0.00000000E+00" nType="-99">
                </Node>
            </Node>
            <Node pos="r" depth="3" NCoef="0" IVar="3" Cut="1.42215657000000006E+00" cType="1" res="0.00000000000000000E+00" rms="0.0" purity="0.00000000E+00" nType="0">
                <Node pos="l" depth="4" NCoef="0" IVar="-1" Cut="0.00000000000000000E+00" cType="1" res="-7.75376930999999991E-02" rms="0.0e-00" purity="0.00000000E+00" nType="-99">
                </Node>
                <Node pos="r" depth="4" NCoef="0" IVar="-1" Cut="0.00000000000000000E+00" cType="1" res="-1.29310443999999997E-01" rms="0.0e-00" purity="0.00000000E+00" nType="-99">
                </Node>
            </Node>
        </Node>
    </Node>
</BinaryTree>
<BinaryTree type="DecisionTree" boostWeight="0.0" itree="12">
    <Node pos="c" depth="1" NCoef="0" IVar="3" Cut="7.29712664999999983E-01" cType="1" res="0.00000000000000000E+00" rms="0.0" purity="0.00000000E+00" nType="0">
        <Node pos="l" depth="2" NCoef="0" IVar="1" Cut="9.23722992000000005E+01" cType="1" res="0.00000000000000000E+00" rms="0.0" purity="0.00000000E+00" nType="0">
            <Node pos="l" depth="3" NCoef="0" IVar="0" Cut="5.66511611999999971E+01" cType="1" res="0.00000000000000000E+00" rms="0.0" purity="0.00000000E+00" nType="0">
                <Node pos="l" depth="4" NCoef="0" IVar="-1" Cut="0.00000000000000000E+00" cType="1" res="3.78913842000000028E-02" rms="0.0e-00" purity="0.00000000E+00" nType="-99">
                </Node>
                <Node pos="r" depth="4" NCoef="0" IVar="-1" Cut="0.00000000000000000E+00" cType="1" res="-9.73417236999999935E-02" rms="0.0e-00" purity="0.00000000E+00" nType="-99">
                </Node>
            </Node>
            <Node pos="r" depth="3" NCoef="0" IVar="24" Cut="2.99886131000000011E+00" cType="1" res="0.00000000000000000E+00" rms="0.0" purity="0.00000000E+00" nType="0">
                <Node pos="l" depth="4" NCoef="0" IVar="-1" Cut="0.00000000000000000E+00" cType="1" res="4.72904742000000017E-02" rms="0.0e-00" purity="0.00000000E+00" nType="-99">
                </Node>
                <Node pos="r" depth="4" NCoef="0" IVar="-1" Cut="0.00000000000000000E+00" cType="1" res="1.22428387000000000E-01" rms="0.0e-00" purity="0.00000000E+00" nType="-99">
                </Node>
            </Node>
        </Node>
        <Node pos="r" depth="2" NCoef="0" IVar="5" Cut="1.26844727000000006E+02" cType="1" res="0.00000000000000000E+00" rms="0.0" purity="0.00000000E+00" nType="0">
            <Node pos="l" depth="3" NCoef="0" IVar="1" Cut="1.00221207000000007E+02" cType="1" res="0.00000000000000000E+00" rms="0.0" purity="0.00000000E+00" nType="0">
                <Node pos="l" depth="4" NCoef="0" IVar="-1" Cut="0.00000000000000000E+00" cType="1" res="-7.12539479000000031E-02" rms="0.0e-00" purity="0.00000000E+00" nType="-99">
                </Node>
                <Node pos="r" depth="4" NCoef="0" IVar="-1" Cut="0.00000000000000000E+00" cType="1" res="8.21172968000000031E-02" rms="0.0e-00" purity="0.00000000E+00" nType="-99">
                </Node>
            </Node>
            <Node pos="r" depth="3" NCoef="0" IVar="12" Cut="1.37250000000000000E+02" cType="1" res="0.00000000000000000E+00" rms="0.0" purity="0.00000000E+00" nType="0">
                <Node pos="l" depth="4" NCoef="0" IVar="-1" Cut="0.00000000000000000E+00" cType="1" res="-1.25566452999999995E-01" rms="0.0e-00" purity="0.00000000E+00" nType="-99">
                </Node>
                <Node pos="r" depth="4" NCoef="0" IVar="-1" Cut="0.00000000000000000E+00" cType="1" res="-5.50999194000000025E-02" rms="0.0e-00" purity="0.00000000E+00" nType="-99">
                </Node>
            </Node>
        </Node>
    </Node>
</BinaryTree>
<BinaryTree type="DecisionTree" boostWeight="0.0" itree="13">
    <Node pos="c" depth="1" NCoef="0" IVar="7" Cut="1.03386687999999993E+00" cType="1" res="0.00000000000000000E+00" rms="0.0" purity="0.00000000E+00" nType="0">
        <Node pos="l" depth="2" NCoef="0" IVar="10" Cut="7.28215697999999975E+02" cType="1" res="0.00000000000000000E+00" rms="0.0" purity="0.00000000E+00" nType="0">
            <Node pos="l" depth="3" NCoef="0" IVar="0" Cut="6.93158111999999988E+01" cType="1" res="0.00000000000000000E+00" rms="0.0" purity="0.00000000E+00" nType="0">
                <Node pos="l" depth="4" NCoef="0" IVar="-1" Cut="0.00000000000000000E+00" cType="1" res="3.59043180999999989E-02" rms="0.0e-00" purity="0.00000000E+00" nType="-99">
                </Node>
                <Node pos="r" depth="4" NCoef="0" IVar="-1" Cut="0.00000000000000000E+00" cType="1" res="-1.12210116999999998E-01" rms="0.0e-00" purity="0.00000000E+00" nType="-99">
                </Node>
            </Node>
            <Node pos="r" depth="3" NCoef="0" IVar="0" Cut="6.91030884000000043E+01" cType="1" res="0.00000000000000000E+00" rms="0.0" purity="0.00000000E+00" nType="0">
                <Node pos="l" depth="4" NCoef="0" IVar="-1" Cut="0.00000000000000000E+00" cType="1" res="1.23016558999999998E-01" rms="0.0e-00" purity="0.00000000E+00" nType="-99">
                </Node>
                <Node pos="r" depth="4" NCoef="0" IVar="-1" Cut="0.00000000000000000E+00" cType="1" res="1.94596629999999986E-02" rms="0.0e-00" purity="0.00000000E+00" nType="-99">
                </Node>
            </Node>
        </Node>
        <Node pos="r" depth="2" NCoef="0" IVar="3" Cut="4.31774855000000013E-01" cType="1" res="0.00000000000000000E+00" rms="0.0" purity="0.00000000E+00" nType="0">
            <Node pos="l" depth="3" NCoef="0" IVar="-1" Cut="0.00000000000000000E+00" cType="1" res="8.23681056000000050E-02" rms="0.0e-00" purity="0.00000000E+00" nType="-99">
            </Node>
            <Node pos="r" depth="3" NCoef="0" IVar="0" Cut="5.22425574999999967E+01" cType="1" res="0.00000000000000000E+00" rms="0.0" purity="0.00000000E+00" nType="0">
                <Node pos="l" depth="4" NCoef="0" IVar="-1" Cut="0.00000000000000000E+00" cType="1" res="-3.90572511000000025E-02" rms="0.0e-00" purity="0.00000000E+00" nType="-99">
                </Node>
                <Node pos="r" depth="4" NCoef="0" IVar="-1" Cut="0.00000000000000000E+00" cType="1" res="-1.19721584000000006E-01" rms="0.0e-00" purity="0.00000000E+00" nType="-99">
                </Node>
            </Node>
        </Node>
    </Node>
</BinaryTree>
<BinaryTree type="DecisionTree" boostWeight="0.0" itree="14">
    <Node pos="c" depth="1" NCoef="0" IVar="10" Cut="7.65463562000000024E+02" cType="1" res="0.00000000000000000E+00" rms="0.0" purity="0.00000000E+00" nType="0">
        <Node pos="l" depth="2" NCoef="0" IVar="0" Cut="6.50592117000000059E+01" cType="1" res="0.00000000000000000E+00" rms="0.0" purity="0.00000000E+00" nType="0">
            <Node pos="l" depth="3" NCoef="0" IVar="2" Cut="1.54870589999999993E+02" cType="1" res="0.00000000000000000E+00" rms="0.0" purity="0.00000000E+00" nType="0">
                <Node pos="l" depth="4" NCoef="0" IVar="-1" Cut="0.00000000000000000E+00" cType="1" res="3.28413472000000026E-02" rms="0.0e-00" purity="0.00000000E+00" nType="-99">
                </Node>
                <Node pos="r" depth="4" NCoef="0" IVar="-1" Cut="0.00000000000000000E+00" cType="1" res="-8.92201140999999975E-02" rms="0.0e-00" purity="0.00000000E+00" nType="-99">
                </Node>
            </Node>
            <Node pos="r" depth="3" NCoef="0" IVar="1" Cut="1.03773499000000001E+02" cType="1" res="0.00000000000000000E+00" rms="0.0" purity="0.00000000E+00" nType="0">
                <Node pos="l" depth="4" NCoef="0" IVar="-1" Cut="0.00000000000000000E+00" cType="1" res="-1.25034868999999993E-01" rms="0.0e-00" purity="0.00000000E+00" nType="-99">
                </Node>
                <Node pos="r" depth="4" NCoef="0" IVar="-1" Cut="0.00000000000000000E+00" cType="1" res="-9.03412326999999959E-02" rms="0.0e-00" purity="0.00000000E+00" nType="-99">
                </Node>
            </Node>
        </Node>
        <Node pos="r" depth="2" NCoef="0" IVar="0" Cut="8.66554107999999985E+01" cType="1" res="0.00000000000000000E+00" rms="0.0" purity="0.00000000E+00" nType="0">
            <Node pos="l" depth="3" NCoef="0" IVar="2" Cut="1.51834823999999998E+02" cType="1" res="0.00000000000000000E+00" rms="0.0" purity="0.00000000E+00" nType="0">
                <Node pos="l" depth="4" NCoef="0" IVar="-1" Cut="0.00000000000000000E+00" cType="1" res="1.25786140999999990E-01" rms="0.0e-00" purity="0.00000000E+00" nType="-99">
                </Node>
                <Node pos="r" depth="4" NCoef="0" IVar="-1" Cut="0.00000000000000000E+00" cType="1" res="7.69887566999999939E-02" rms="0.0e-00" purity="0.00000000E+00" nType="-99">
                </Node>
            </Node>
            <Node pos="r" depth="3" NCoef="0" IVar="-1" Cut="0.00000000000000000E+00" cType="1" res="-1.37684121999999992E-01" rms="0.0e-00" purity="0.00000000E+00" nType="-99">
            </Node>
        </Node>
    </Node>
</BinaryTree>
<BinaryTree type="DecisionTree" boostWeight="0.0" itree="15">
    <Node pos="c" depth="1" NCoef="0" IVar="3" Cut="1.11618303999999990E+00" cType="1" res="0.00000000000000000E+00" rms="0.0" purity="0.00000000E+00" nType="0">
        <Node pos="l" depth="2" NCoef="0" IVar="1" Cut="9.29048308999999932E+01" cType="1" res="0.00000000000000000E+00" rms="0.0" purity="0.00000000E+00" nType="0">
            <Node pos="l" depth="3" NCoef="0" IVar="15" Cut="2.28720978000000002E+02" cType="1" res="0.00000000000000000E+00" rms="0.0" purity="0.00000000E+00" nType="0">
                <Node pos="l" depth="4" NCoef="0" IVar="-1" Cut="0.00000000000000000E+00" cType="1" res="-4.47349176000000001E-02" rms="0.0e-00" purity="0.00000000E+00" nType="-99">
                </Node>
                <Node pos="r" depth="4" NCoef="0" IVar="-1" Cut="0.00000000000000000E+00" cType="1" res="7.80668630999999946E-02" rms="0.0e-00" purity="0.00000000E+00" nType="-99">
                </Node>
            </Node>
            <Node pos="r" depth="3" NCoef="0" IVar="4" Cut="1.53969573999999994E+02" cType="1" res="0.00000000000000000E+00" rms="0.0" purity="0.00000000E+00" nType="0">
                <Node pos="l" depth="4" NCoef="0" IVar="-1" Cut="0.00000000000000000E+00" cType="1" res="1.08058363000000004E-01" rms="0.0e-00" purity="0.00000000E+00" nType="-99">
                </Node>
                <Node pos="r" depth="4" NCoef="0" IVar="-1" Cut="0.00000000000000000E+00" cType="1" res="-4.06228006000000034E-03" rms="0.0e-00" purity="0.00000000E+00" nType="-99">
                </Node>
            </Node>
        </Node>
        <Node pos="r" depth="2" NCoef="0" IVar="0" Cut="7.25869141000000013E+01" cType="1" res="0.00000000000000000E+00" rms="0.0" purity="0.00000000E+00" nType="0">
            <Node pos="l" depth="3" NCoef="0" IVar="1" Cut="1.01814064000000002E+02" cType="1" res="0.00000000000000000E+00" rms="0.0" purity="0.00000000E+00" nType="0">
                <Node pos="l" depth="4" NCoef="0" IVar="-1" Cut="0.00000000000000000E+00" cType="1" res="-8.44936817999999978E-02" rms="0.0e-00" purity="0.00000000E+00" nType="-99">
                </Node>
                <Node pos="r" depth="4" NCoef="0" IVar="-1" Cut="0.00000000000000000E+00" cType="1" res="3.65586057000000034E-02" rms="0.0e-00" purity="0.00000000E+00" nType="-99">
                </Node>
            </Node>
            <Node pos="r" depth="3" NCoef="0" IVar="-1" Cut="0.00000000000000000E+00" cType="1" res="-1.23541816999999998E-01" rms="0.0e-00" purity="0.00000000E+00" nType="-99">
            </Node>
        </Node>
    </Node>
</BinaryTree>
<BinaryTree type="DecisionTree" boostWeight="0.0" itree="16">
    <Node pos="c" depth="1" NCoef="0" IVar="3" Cut="6.38598442000000044E-01" cType="1" res="0.00000000000000000E+00" rms="0.0" purity="0.00000000E+00" nType="0">
        <Node pos="l" depth="2" NCoef="0" IVar="7" Cut="8.61561537000000044E-01" cType="1" res="0.00000000000000000E+00" rms="0.0" purity="0.00000000E+00" nType="0">
            <Node pos="l" depth="3" NCoef="0" IVar="24" Cut="3.34848976000000009E+00" cType="1" res="0.00000000000000000E+00" rms="0.0" purity="0.00000000E+00" nType="0">
                <Node pos="l" depth="4" NCoef="0" IVar="-1" Cut="0.00000000000000000E+00" cType="1" res="6.41198157999999935E-02" rms="0.0e-00" purity="0.00000000E+00" nType="-99">
                </Node>
                <Node pos="r" depth="4" NCoef="0" IVar="-1" Cut="0.00000000000000000E+00" cType="1" res="1.16912477000000001E-01" rms="0.0e-00" purity="0.00000000E+00" nType="-99">
                </Node>
            </Node>
            <Node pos="r" depth="3" NCoef="0" IVar="9" Cut="4.45540547000000009E-01" cType="1" res="0.00000000000000000E+00" rms="0.0" purity="0.00000000E+00" nType="0">
                <Node pos="l" depth="4" NCoef="0" IVar="-1" Cut="0.00000000000000000E+00" cType="1" res="5.99841847999999997E-02" rms="0.0e-00" purity="0.00000000E+00" nType="-99">
                </Node>
                <Node pos="r" depth="4" NCoef="0" IVar="-1" Cut="0.00000000000000000E+00" cType="1" res="-5.93241638999999973E-02" rms="0.0e-00" purity="0.00000000E+00" nType="-99">
                </Node>
            </Node>
        </Node>
        <Node pos="r" depth="2" NCoef="0" IVar="5" Cut="1.35585403000000014E+02" cType="1" res="0.00000000000000000E+00" rms="0.0" purity="0.00000000E+00" nType="0">
            <Node pos="l" depth="3" NCoef="0" IVar="1" Cut="1.01372649999999993E+02" cType="1" res="0.00000000000000000E+00" rms="0.0" purity="0.00000000E+00" nType="0">
                <Node pos="l" depth="4" NCoef="0" IVar="-1" Cut="0.00000000000000000E+00" cType="1" res="-5.15810735999999992E-02" rms="0.0e-00" purity="0.00000000E+00" nType="-99">
                </Node>
                <Node pos="r" depth="4" NCoef="0" IVar="-1" Cut="0.00000000000000000E+00" cType="1" res="6.92778005999999946E-02" rms="0.0e-00" purity="0.00000000E+00" nType="-99">
                </Node>
            </Node>
            <Node pos="r" depth="3" NCoef="0" IVar="0" Cut="7.87191085999999984E+01" cType="1" res="0.00000000000000000E+00" rms="0.0" purity="0.00000000E+00" nType="0">
                <Node pos="l" depth="4" NCoef="0" IVar="-1" Cut="0.00000000000000000E+00" cType="1" res="-8.67946967000000069E-02" rms="0.0e-00" purity="0.00000000E+00" nType="-99">
                </Node>
                <Node pos="r" depth="4" NCoef="0" IVar="-1" Cut="0.00000000000000000E+00" cType="1" res="-1.25063151000000011E-01" rms="0.0e-00" purity="0.00000000E+00" nType="-99">
                </Node>
            </Node>
        </Node>
    </Node>
</BinaryTree>
<BinaryTree type="DecisionTree" boostWeight="0.0" itree="17">
    <Node pos="c" depth="1" NCoef="0" IVar="3" Cut="1.28196596999999990E+00" cType="1" res="0.00000000000000000E+00" rms="0.0" purity="0.00000000E+00" nType="0">
        <Node pos="l" depth="2" NCoef="0" IVar="10" Cut="7.90497559000000024E+02" cType="1" res="0.00000000000000000E+00" rms="0.0" purity="0.00000000E+00" nType="0">
            <Node pos="l" depth="3" NCoef="0" IVar="4" Cut="1.54852294999999998E+02" cType="1" res="0.00000000000000000E+00" rms="0.0" purity="0.00000000E+00" nType="0">
                <Node pos="l" depth="4" NCoef="0" IVar="-1" Cut="0.00000000000000000E+00" cType="1" res="1.48592340000000007E-02" rms="0.0e-00" purity="0.00000000E+00" nType="-99">
                </Node>
                <Node pos="r" depth="4" NCoef="0" IVar="-1" Cut="0.00000000000000000E+00" cType="1" res="-1.09830588000000007E-01" rms="0.0e-00" purity="0.00000000E+00" nType="-99">
                </Node>
            </Node>
            <Node pos="r" depth="3" NCoef="0" IVar="0" Cut="7.06454848999999996E+01" cType="1" res="0.00000000000000000E+00" rms="0.0" purity="0.00000000E+00" nType="0">
                <Node pos="l" depth="4" NCoef="0" IVar="-1" Cut="0.00000000000000000E+00" cType="1" res="1.14127502000000006E-01" rms="0.0e-00" purity="0.00000000E+00" nType="-99">
                </Node>
                <Node pos="r" depth="4" NCoef="0" IVar="-1" Cut="0.00000000000000000E+00" cType="1" res="-4.46200231000000013E-03" rms="0.0e-00" purity="0.00000000E+00" nType="-99">
                </Node>
            </Node>
        </Node>
        <Node pos="r" depth="2" NCoef="0" IVar="0" Cut="5.86760864000000026E+01" cType="1" res="0.00000000000000000E+00" rms="0.0" purity="0.00000000E+00" nType="0">
            <Node pos="l" depth="3" NCoef="0" IVar="-1" Cut="0.00000000000000000E+00" cType="1" res="-4.73025328999999994E-02" rms="0.0e-00" purity="0.00000000E+00" nType="-99">
            </Node>
            <Node pos="r" depth="3" NCoef="0" IVar="0" Cut="7.86146240000000063E+01" cType="1" res="0.00000000000000000E+00" rms="0.0" purity="0.00000000E+00" nType="0">
                <Node pos="l" depth="4" NCoef="0" IVar="-1" Cut="0.00000000000000000E+00" cType="1" res="-9.26940665000000052E-02" rms="0.0e-00" purity="0.00000000E+00" nType="-99">
                </Node>
                <Node pos="r" depth="4" NCoef="0" IVar="-1" Cut="0.00000000000000000E+00" cType="1" res="-1.22446157000000000E-01" rms="0.0e-00" purity="0.00000000E+00" nType="-99">
                </Node>
            </Node>
        </Node>
    </Node>
</BinaryTree>
<BinaryTree type="DecisionTree" boostWeight="0.0" itree="18">
    <Node pos="c" depth="1" NCoef="0" IVar="7" Cut="1.24080944000000004E+00" cType="1" res="0.00000000000000000E+00" rms="0.0" purity="0.00000000E+00" nType="0">
        <Node pos="l" depth="2" NCoef="0" IVar="1" Cut="9.78406982000000056E+01" cType="1" res="0.00000000000000000E+00" rms="0.0" purity="0.00000000E+00" nType="0">
            <Node pos="l" depth="3" NCoef="0" IVar="0" Cut="6.56199493000000018E+01" cType="1" res="0.00000000000000000E+00" rms="0.0" purity="0.00000000E+00" nType="0">
                <Node pos="l" depth="4" NCoef="0" IVar="-1" Cut="0.00000000000000000E+00" cType="1" res="2.61008403999999986E-02" rms="0.0e-00" purity="0.00000000E+00" nType="-99">
                </Node>
                <Node pos="r" depth="4" NCoef="0" IVar="-1" Cut="0.00000000000000000E+00" cType="1" res="-1.01945244000000004E-01" rms="0.0e-00" purity="0.00000000E+00" nType="-99">
                </Node>
            </Node>
            <Node pos="r" depth="3" NCoef="0" IVar="4" Cut="1.51180969000000005E+02" cType="1" res="0.00000000000000000E+00" rms="0.0" purity="0.00000000E+00" nType="0">
                <Node pos="l" depth="4" NCoef="0" IVar="-1" Cut="0.00000000000000000E+00" cType="1" res="1.04673795000000000E-01" rms="0.0e-00" purity="0.00000000E+00" nType="-99">
                </Node>
                <Node pos="r" depth="4" NCoef="0" IVar="-1" Cut="0.00000000000000000E+00" cType="1" res="2.07019519000000004E-04" rms="0.0e-00" purity="0.00000000E+00" nType="-99">
                </Node>
            </Node>
        </Node>
        <Node pos="r" depth="2" NCoef="0" IVar="3" Cut="4.24859582999999985E-01" cType="1" res="0.00000000000000000E+00" rms="0.0" purity="0.00000000E+00" nType="0">
            <Node pos="l" depth="3" NCoef="0" IVar="-1" Cut="0.00000000000000000E+00" cType="1" res="6.94597811000000065E-02" rms="0.0e-00" purity="0.00000000E+00" nType="-99">
            </Node>
            <Node pos="r" depth="3" NCoef="0" IVar="0" Cut="6.65792388999999929E+01" cType="1" res="0.00000000000000000E+00" rms="0.0" purity="0.00000000E+00" nType="0">
                <Node pos="l" depth="4" NCoef="0" IVar="-1" Cut="0.00000000000000000E+00" cType="1" res="-5.52858598999999978E-02" rms="0.0e-00" purity="0.00000000E+00" nType="-99">
                </Node>
                <Node pos="r" depth="4" NCoef="0" IVar="-1" Cut="0.00000000000000000E+00" cType="1" res="-1.18436559999999996E-01" rms="0.0e-00" purity="0.00000000E+00" nType="-99">
                </Node>
            </Node>
        </Node>
    </Node>
</BinaryTree>
<BinaryTree type="DecisionTree" boostWeight="0.0" itree="19">
    <Node pos="c" depth="1" NCoef="0" IVar="3" Cut="1.28191400000000000E+00" cType="1" res="0.00000000000000000E+00" rms="0.0" purity="0.00000000E+00" nType="0">
        <Node pos="l" depth="2" NCoef="0" IVar="1" Cut="9.95214844000000056E+01" cType="1" res="0.00000000000000000E+00" rms="0.0" purity="0.00000000E+00" nType="0">
            <Node pos="l" depth="3" NCoef="0" IVar="3" Cut="5.59286535000000029E-01" cType="1" res="0.00000000000000000E+00" rms="0.0" purity="0.00000000E+00" nType="0">
                <Node pos="l" depth="4" NCoef="0" IVar="-1" Cut="0.00000000000000000E+00" cType="1" res="3.78540531000000000E-02" rms="0.0e-00" purity="0.00000000E+00" nType="-99">
                </Node>
                <Node pos="r" depth="4" NCoef="0" IVar="-1" Cut="0.00000000000000000E+00" cType="1" res="-4.65433076000000001E-02" rms="0.0e-00" purity="0.00000000E+00" nType="-99">
                </Node>
            </Node>
            <Node pos="r" depth="3" NCoef="0" IVar="4" Cut="1.51151520000000005E+02" cType="1" res="0.00000000000000000E+00" rms="0.0" purity="0.00000000E+00" nType="0">
                <Node pos="l" depth="4" NCoef="0" IVar="-1" Cut="0.00000000000000000E+00" cType="1" res="9.97691601999999983E-02" rms="0.0e-00" purity="0.00000000E+00" nType="-99">
                </Node>
                <Node pos="r" depth="4" NCoef="0" IVar="-1" Cut="0.00000000000000000E+00" cType="1" res="-1.30772198999999992E-02" rms="0.0e-00" purity="0.00000000E+00" nType="-99">
                </Node>
            </Node>
        </Node>
        <Node pos="r" depth="2" NCoef="0" IVar="5" Cut="1.30732208000000014E+02" cType="1" res="0.00000000000000000E+00" rms="0.0" purity="0.00000000E+00" nType="0">
            <Node pos="l" depth="3" NCoef="0" IVar="10" Cut="4.27075316999999984E+02" cType="1" res="0.00000000000000000E+00" rms="0.0" purity="0.00000000E+00" nType="0">
                <Node pos="l" depth="4" NCoef="0" IVar="-1" Cut="0.00000000000000000E+00" cType="1" res="-1.01418085000000005E-01" rms="0.0e-00" purity="0.00000000E+00" nType="-99">
                </Node>
                <Node pos="r" depth="4" NCoef="0" IVar="-1" Cut="0.00000000000000000E+00" cType="1" res="-4.86920168999999993E-03" rms="0.0e-00" purity="0.00000000E+00" nType="-99">
                </Node>
            </Node>
            <Node pos="r" depth="3" NCoef="0" IVar="-1" Cut="0.00000000000000000E+00" cType="1" res="-1.16999581000000005E-01" rms="0.0e-00" purity="0.00000000E+00" nType="-99">
            </Node>
        </Node>
    </Node>
</BinaryTree>
<BinaryTree type="DecisionTree" boostWeight="0.0" itree="20">
    <Node pos="c" depth="1" NCoef="0" IVar="7" Cut="1.03386687999999993E+00" cType="1" res="0.00000000000000000E+00" rms="0.0" purity="0.00000000E+00" nType="0">
        <Node pos="l" depth="2" NCoef="0" IVar="10" Cut="7.27285766999999964E+02" cType="1" res="0.00000000000000000E+00" rms="0.0" purity="0.00000000E+00" nType="0">
            <Node pos="l" depth="3" NCoef="0" IVar="0" Cut="6.19580040000000025E+01" cType="1" res="0.00000000000000000E+00" rms="0.0" purity="0.00000000E+00" nType="0">
                <Node pos="l" depth="4" NCoef="0" IVar="-1" Cut="0.00000000000000000E+00" cType="1" res="3.47639620000000024E-02" rms="0.0e-00" purity="0.00000000E+00" nType="-99">
                </Node>
                <Node pos="r" depth="4" NCoef="0" IVar="-1" Cut="0.00000000000000000E+00" cType="1" res="-7.30378478999999942E-02" rms="0.0e-00" purity="0.00000000E+00" nType="-99">
                </Node>
            </Node>
            <Node pos="r" depth="3" NCoef="0" IVar="1" Cut="8.18228912000000008E+01" cType="1" res="0.00000000000000000E+00" rms="0.0" purity="0.00000000E+00" nType="0">
                <Node pos="l" depth="4" NCoef="0" IVar="-1" Cut="0.00000000000000000E+00" cType="1" res="1.63854639999999989E-02" rms="0.0e-00" purity="0.00000000E+00" nType="-99">
                </Node>
                <Node pos="r" depth="4" NCoef="0" IVar="-1" Cut="0.00000000000000000E+00" cType="1" res="1.09060794000000003E-01" rms="0.0e-00" purity="0.00000000E+00" nType="-99">
                </Node>
            </Node>
        </Node>
        <Node pos="r" depth="2" NCoef="0" IVar="0" Cut="6.31898270000000011E+01" cType="1" res="0.00000000000000000E+00" rms="0.0" purity="0.00000000E+00" nType="0">
            <Node pos="l" depth="3" NCoef="0" IVar="16" Cut="4.06010895000000005E+02" cType="1" res="0.00000000000000000E+00" rms="0.0" purity="0.00000000E+00" nType="0">
                <Node pos="l" depth="4" NCoef="0" IVar="-1" Cut="0.00000000000000000E+00" cType="1" res="-6.48666992999999970E-02" rms="0.0e-00" purity="0.00000000E+00" nType="-99">
                </Node>
                <Node pos="r" depth="4" NCoef="0" IVar="-1" Cut="0.00000000000000000E+00" cType="1" res="4.78606373000000015E-02" rms="0.0e-00" purity="0.00000000E+00" nType="-99">
                </Node>
            </Node>
            <Node pos="r" depth="3" NCoef="0" IVar="9" Cut="2.91592002000000017E-01" cType="1" res="0.00000000000000000E+00" rms="0.0" purity="0.00000000E+00" nType="0">
                <Node pos="l" depth="4" NCoef="0" IVar="-1" Cut="0.00000000000000000E+00" cType="1" res="-6.56519084999999947E-02" rms="0.0e-00" purity="0.00000000E+00" nType="-99">
                </Node>
                <Node pos="r" depth="4" NCoef="0" IVar="-1" Cut="0.00000000000000000E+00" cType="1" res="-1.16285562999999995E-01" rms="0.0e-00" purity="0.00000000E+00" nType="-99">
                </Node>
            </Node>
        </Node>
    </Node>
</BinaryTree>
<BinaryTree type="DecisionTree" boostWeight="0.0" itree="21">
    <Node pos="c" depth="1" NCoef="0" IVar="0" Cut="6.91054381999999947E+01" cType="1" res="0.00000000000000000E+00" rms="0.0" purity="0.00000000E+00" nType="0">
        <Node pos="l" depth="2" NCoef="0" IVar="16" Cut="4.52833129999999983E+02" cType="1" res="0.00000000000000000E+00" rms="0.0" purity="0.00000000E+00" nType="0">
            <Node pos="l" depth="3" NCoef="0" IVar="6" Cut="1.55489980999999999E+00" cType="1" res="0.00000000000000000E+00" rms="0.0" purity="0.00000000E+00" nType="0">
                <Node pos="l" depth="4" NCoef="0" IVar="-1" Cut="0.00000000000000000E+00" cType="1" res="-7.05297217000000060E-02" rms="0.0e-00" purity="0.00000000E+00" nType="-99">
                </Node>
                <Node pos="r" depth="4" NCoef="0" IVar="-1" Cut="0.00000000000000000E+00" cType="1" res="1.84683837000000003E-02" rms="0.0e-00" purity="0.00000000E+00" nType="-99">
                </Node>
            </Node>
            <Node pos="r" depth="3" NCoef="0" IVar="1" Cut="6.82274857000000026E+01" cType="1" res="0.00000000000000000E+00" rms="0.0" purity="0.00000000E+00" nType="0">
                <Node pos="l" depth="4" NCoef="0" IVar="-1" Cut="0.00000000000000000E+00" cType="1" res="-1.55598600000000009E-03" rms="0.0e-00" purity="0.00000000E+00" nType="-99">
                </Node>
                <Node pos="r" depth="4" NCoef="0" IVar="-1" Cut="0.00000000000000000E+00" cType="1" res="9.94325130999999945E-02" rms="0.0e-00" purity="0.00000000E+00" nType="-99">
                </Node>
            </Node>
        </Node>
        <Node pos="r" depth="2" NCoef="0" IVar="12" Cut="1.22156250000000000E+02" cType="1" res="0.00000000000000000E+00" rms="0.0" purity="0.00000000E+00" nType="0">
            <Node pos="l" depth="3" NCoef="0" IVar="0" Cut="7.86468581999999969E+01" cType="1" res="0.00000000000000000E+00" rms="0.0" purity="0.00000000E+00" nType="0">
                <Node pos="l" depth="4" NCoef="0" IVar="-1" Cut="0.00000000000000000E+00" cType="1" res="-8.46037268999999953E-02" rms="0.0e-00" purity="0.00000000E+00" nType="-99">
                </Node>
                <Node pos="r" depth="4" NCoef="0" IVar="-1" Cut="0.00000000000000000E+00" cType="1" res="-1.23630553000000004E-01" rms="0.0e-00" purity="0.00000000E+00" nType="-99">
                </Node>
            </Node>
            <Node pos="r" depth="3" NCoef="0" IVar="-1" Cut="0.00000000000000000E+00" cType="1" res="-1.42109673000000002E-02" rms="0.0e-00" purity="0.00000000E+00" nType="-99">
            </Node>
        </Node>
    </Node>
</BinaryTree>
<BinaryTree type="DecisionTree" boostWeight="0.0" itree="22">
    <Node pos="c" depth="1" NCoef="0" IVar="10" Cut="7.93626769999999965E+02" cType="1" res="0.00000000000000000E+00" rms="0.0" purity="0.00000000E+00" nType="0">
        <Node pos="l" depth="2" NCoef="0" IVar="5" Cut="1.38716675000000009E+02" cType="1" res="0.00000000000000000E+00" rms="0.0" purity="0.00000000E+00" nType="0">
            <Node pos="l" depth="3" NCoef="0" IVar="4" Cut="1.49537948999999998E+02" cType="1" res="0.00000000000000000E+00" rms="0.0" purity="0.00000000E+00" nType="0">
                <Node pos="l" depth="4" NCoef="0" IVar="-1" Cut="0.00000000000000000E+00" cType="1" res="1.81137118000000014E-02" rms="0.0e-00" purity="0.00000000E+00" nType="-99">
                </Node>
                <Node pos="r" depth="4" NCoef="0" IVar="-1" Cut="0.00000000000000000E+00" cType="1" res="-9.50492918000000048E-02" rms="0.0e-00" purity="0.00000000E+00" nType="-99">
                </Node>
            </Node>
            <Node pos="r" depth="3" NCoef="0" IVar="9" Cut="2.78953850000000003E-01" cType="1" res="0.00000000000000000E+00" rms="0.0" purity="0.00000000E+00" nType="0">
                <Node pos="l" depth="4" NCoef="0" IVar="-1" Cut="0.00000000000000000E+00" cType="1" res="-3.47025431999999981E-02" rms="0.0e-00" purity="0.00000000E+00" nType="-99">
                </Node>
                <Node pos="r" depth="4" NCoef="0" IVar="-1" Cut="0.00000000000000000E+00" cType="1" res="-1.06691419999999995E-01" rms="0.0e-00" purity="0.00000000E+00" nType="-99">
                </Node>
            </Node>
        </Node>
        <Node pos="r" depth="2" NCoef="0" IVar="0" Cut="7.06454848999999996E+01" cType="1" res="0.00000000000000000E+00" rms="0.0" purity="0.00000000E+00" nType="0">
            <Node pos="l" depth="3" NCoef="0" IVar="24" Cut="3.90758370999999993E+00" cType="1" res="0.00000000000000000E+00" rms="0.0" purity="0.00000000E+00" nType="0">
                <Node pos="l" depth="4" NCoef="0" IVar="-1" Cut="0.00000000000000000E+00" cType="1" res="6.82539642000000030E-02" rms="0.0e-00" purity="0.00000000E+00" nType="-99">
                </Node>
                <Node pos="r" depth="4" NCoef="0" IVar="-1" Cut="0.00000000000000000E+00" cType="1" res="1.14475525999999994E-01" rms="0.0e-00" purity="0.00000000E+00" nType="-99">
                </Node>
            </Node>
            <Node pos="r" depth="3" NCoef="0" IVar="-1" Cut="0.00000000000000000E+00" cType="1" res="-2.75055896000000015E-02" rms="0.0e-00" purity="0.00000000E+00" nType="-99">
            </Node>
        </Node>
    </Node>
</BinaryTree>
<BinaryTree type="DecisionTree" boostWeight="0.0" itree="23">
    <Node pos="c" depth="1" NCoef="0" IVar="0" Cut="7.97618865999999969E+01" cType="1" res="0.00000000000000000E+00" rms="0.0" purity="0.00000000E+00" nType="0">
        <Node pos="l" depth="2" NCoef="0" IVar="10" Cut="7.38153747999999950E+02" cType="1" res="0.00000000000000000E+00" rms="0.0" purity="0.00000000E+00" nType="0">
            <Node pos="l" depth="3" NCoef="0" IVar="4" Cut="1.52048538000000008E+02" cType="1" res="0.00000000000000000E+00" rms="0.0" purity="0.00000000E+00" nType="0">
                <Node pos="l" depth="4" NCoef="0" IVar="-1" Cut="0.00000000000000000E+00" cType="1" res="4.57623461000000037E-03" rms="0.0e-00" purity="0.00000000E+00" nType="-99">
                </Node>
                <Node pos="r" depth="4" NCoef="0" IVar="-1" Cut="0.00000000000000000E+00" cType="1" res="-9.78703350000000027E-02" rms="0.0e-00" purity="0.00000000E+00" nType="-99">
                </Node>
            </Node>
            <Node pos="r" depth="3" NCoef="0" IVar="2" Cut="1.51845245000000006E+02" cType="1" res="0.00000000000000000E+00" rms="0.0" purity="0.00000000E+00" nType="0">
                <Node pos="l" depth="4" NCoef="0" IVar="-1" Cut="0.00000000000000000E+00" cType="1" res="1.08123958000000006E-01" rms="0.0e-00" purity="0.00000000E+00" nType="-99">
                </Node>
                <Node pos="r" depth="4" NCoef="0" IVar="-1" Cut="0.00000000000000000E+00" cType="1" res="3.61376888999999993E-02" rms="0.0e-00" purity="0.00000000E+00" nType="-99">
                </Node>
            </Node>
        </Node>
        <Node pos="r" depth="2" NCoef="0" IVar="-1" Cut="0.00000000000000000E+00" cType="1" res="-1.16988666000000005E-01" rms="0.0e-00" purity="0.00000000E+00" nType="-99">
        </Node>
    </Node>
</BinaryTree>
<BinaryTree type="DecisionTree" boostWeight="0.0" itree="24">
    <Node pos="c" depth="1" NCoef="0" IVar="0" Cut="7.97618865999999969E+01" cType="1" res="0.00000000000000000E+00" rms="0.0" purity="0.00000000E+00" nType="0">
        <Node pos="l" depth="2" NCoef="0" IVar="24" Cut="3.42727709000000003E+00" cType="1" res="0.00000000000000000E+00" rms="0.0" purity="0.00000000E+00" nType="0">
            <Node pos="l" depth="3" NCoef="0" IVar="6" Cut="1.71476506999999989E+00" cType="1" res="0.00000000000000000E+00" rms="0.0" purity="0.00000000E+00" nType="0">
                <Node pos="l" depth="4" NCoef="0" IVar="-1" Cut="0.00000000000000000E+00" cType="1" res="-4.96717766000000019E-02" rms="0.0e-00" purity="0.00000000E+00" nType="-99">
                </Node>
                <Node pos="r" depth="4" NCoef="0" IVar="-1" Cut="0.00000000000000000E+00" cType="1" res="3.32668758999999994E-02" rms="0.0e-00" purity="0.00000000E+00" nType="-99">
                </Node>
            </Node>
            <Node pos="r" depth="3" NCoef="0" IVar="10" Cut="1.08374938999999995E+03" cType="1" res="0.00000000000000000E+00" rms="0.0" purity="0.00000000E+00" nType="0">
                <Node pos="l" depth="4" NCoef="0" IVar="-1" Cut="0.00000000000000000E+00" cType="1" res="5.51266745000000002E-02" rms="0.0e-00" purity="0.00000000E+00" nType="-99">
                </Node>
                <Node pos="r" depth="4" NCoef="0" IVar="-1" Cut="0.00000000000000000E+00" cType="1" res="1.13598771000000001E-01" rms="0.0e-00" purity="0.00000000E+00" nType="-99">
                </Node>
            </Node>
        </Node>
        <Node pos="r" depth="2" NCoef="0" IVar="-1" Cut="0.00000000000000000E+00" cType="1" res="-1.15669838999999997E-01" rms="0.0e-00" purity="0.00000000E+00" nType="-99">
        </Node>
    </Node>
</BinaryTree>
<BinaryTree type="DecisionTree" boostWeight="0.0" itree="25">
    <Node pos="c" depth="1" NCoef="0" IVar="7" Cut="1.29107069999999990E+00" cType="1" res="0.00000000000000000E+00" rms="0.0" purity="0.00000000E+00" nType="0">
        <Node pos="l" depth="2" NCoef="0" IVar="1" Cut="9.66843108999999998E+01" cType="1" res="0.00000000000000000E+00" rms="0.0" purity="0.00000000E+00" nType="0">
            <Node pos="l" depth="3" NCoef="0" IVar="6" Cut="1.66846703999999990E+00" cType="1" res="0.00000000000000000E+00" rms="0.0" purity="0.00000000E+00" nType="0">
                <Node pos="l" depth="4" NCoef="0" IVar="-1" Cut="0.00000000000000000E+00" cType="1" res="-5.17178289999999999E-02" rms="0.0e-00" purity="0.00000000E+00" nType="-99">
                </Node>
                <Node pos="r" depth="4" NCoef="0" IVar="-1" Cut="0.00000000000000000E+00" cType="1" res="3.38471866999999968E-02" rms="0.0e-00" purity="0.00000000E+00" nType="-99">
                </Node>
            </Node>
            <Node pos="r" depth="3" NCoef="0" IVar="6" Cut="1.14490723999999999E+00" cType="1" res="0.00000000000000000E+00" rms="0.0" purity="0.00000000E+00" nType="0">
                <Node pos="l" depth="4" NCoef="0" IVar="-1" Cut="0.00000000000000000E+00" cType="1" res="6.15871325000000042E-03" rms="0.0e-00" purity="0.00000000E+00" nType="-99">
                </Node>
                <Node pos="r" depth="4" NCoef="0" IVar="-1" Cut="0.00000000000000000E+00" cType="1" res="9.26161333999999947E-02" rms="0.0e-00" purity="0.00000000E+00" nType="-99">
                </Node>
            </Node>
        </Node>
        <Node pos="r" depth="2" NCoef="0" IVar="0" Cut="5.46532288000000008E+01" cType="1" res="0.00000000000000000E+00" rms="0.0" purity="0.00000000E+00" nType="0">
            <Node pos="l" depth="3" NCoef="0" IVar="16" Cut="3.05481139999999982E+02" cType="1" res="0.00000000000000000E+00" rms="0.0" purity="0.00000000E+00" nType="0">
                <Node pos="l" depth="4" NCoef="0" IVar="-1" Cut="0.00000000000000000E+00" cType="1" res="-8.35512280000000052E-02" rms="0.0e-00" purity="0.00000000E+00" nType="-99">
                </Node>
                <Node pos="r" depth="4" NCoef="0" IVar="-1" Cut="0.00000000000000000E+00" cType="1" res="3.35851497999999984E-02" rms="0.0e-00" purity="0.00000000E+00" nType="-99">
                </Node>
            </Node>
            <Node pos="r" depth="3" NCoef="0" IVar="9" Cut="3.76751602000000019E-01" cType="1" res="0.00000000000000000E+00" rms="0.0" purity="0.00000000E+00" nType="0">
                <Node pos="l" depth="4" NCoef="0" IVar="-1" Cut="0.00000000000000000E+00" cType="1" res="-5.24194649999999984E-02" rms="0.0e-00" purity="0.00000000E+00" nType="-99">
                </Node>
                <Node pos="r" depth="4" NCoef="0" IVar="-1" Cut="0.00000000000000000E+00" cType="1" res="-1.16023652000000005E-01" rms="0.0e-00" purity="0.00000000E+00" nType="-99">
                </Node>
            </Node>
        </Node>
    </Node>
</BinaryTree>
<BinaryTree type="DecisionTree" boostWeight="0.0" itree="26">
    <Node pos="c" depth="1" NCoef="0" IVar="0" Cut="8.18157805999999965E+01" cType="1" res="0.00000000000000000E+00" rms="0.0" purity="0.00000000E+00" nType="0">
        <Node pos="l" depth="2" NCoef="0" IVar="24" Cut="2.13484144000000020E+00" cType="1" res="0.00000000000000000E+00" rms="0.0" purity="0.00000000E+00" nType="0">
            <Node pos="l" depth="3" NCoef="0" IVar="16" Cut="2.87477355999999986E+02" cType="1" res="0.00000000000000000E+00" rms="0.0" purity="0.00000000E+00" nType="0">
                <Node pos="l" depth="4" NCoef="0" IVar="-1" Cut="0.00000000000000000E+00" cType="1" res="-8.77305119999999966E-02" rms="0.0e-00" purity="0.00000000E+00" nType="-99">
                </Node>
                <Node pos="r" depth="4" NCoef="0" IVar="-1" Cut="0.00000000000000000E+00" cType="1" res="-3.11096980999999995E-02" rms="0.0e-00" purity="0.00000000E+00" nType="-99">
                </Node>
            </Node>
            <Node pos="r" depth="3" NCoef="0" IVar="4" Cut="1.53936035000000004E+02" cType="1" res="0.00000000000000000E+00" rms="0.0" purity="0.00000000E+00" nType="0">
                <Node pos="l" depth="4" NCoef="0" IVar="-1" Cut="0.00000000000000000E+00" cType="1" res="5.93901350999999980E-02" rms="0.0e-00" purity="0.00000000E+00" nType="-99">
                </Node>
                <Node pos="r" depth="4" NCoef="0" IVar="-1" Cut="0.00000000000000000E+00" cType="1" res="-5.86571507000000006E-02" rms="0.0e-00" purity="0.00000000E+00" nType="-99">
                </Node>
            </Node>
        </Node>
        <Node pos="r" depth="2" NCoef="0" IVar="-1" Cut="0.00000000000000000E+00" cType="1" res="-1.17137082000000003E-01" rms="0.0e-00" purity="0.00000000E+00" nType="-99">
        </Node>
    </Node>
</BinaryTree>
<BinaryTree type="DecisionTree" boostWeight="0.0" itree="27">
    <Node pos="c" depth="1" NCoef="0" IVar="0" Cut="6.88612212999999969E+01" cType="1" res="0.00000000000000000E+00" rms="0.0" purity="0.00000000E+00" nType="0">
        <Node pos="l" depth="2" NCoef="0" IVar="10" Cut="5.14817261000000030E+02" cType="1" res="0.00000000000000000E+00" rms="0.0" purity="0.00000000E+00" nType="0">
            <Node pos="l" depth="3" NCoef="0" IVar="6" Cut="1.74141239999999997E+00" cType="1" res="0.00000000000000000E+00" rms="0.0" purity="0.00000000E+00" nType="0">
                <Node pos="l" depth="4" NCoef="0" IVar="-1" Cut="0.00000000000000000E+00" cType="1" res="-6.05815462999999971E-02" rms="0.0e-00" purity="0.00000000E+00" nType="-99">
                </Node>
                <Node pos="r" depth="4" NCoef="0" IVar="-1" Cut="0.00000000000000000E+00" cType="1" res="5.22573944000000006E-03" rms="0.0e-00" purity="0.00000000E+00" nType="-99">
                </Node>
            </Node>
            <Node pos="r" depth="3" NCoef="0" IVar="4" Cut="1.59267334000000005E+02" cType="1" res="0.00000000000000000E+00" rms="0.0" purity="0.00000000E+00" nType="0">
                <Node pos="l" depth="4" NCoef="0" IVar="-1" Cut="0.00000000000000000E+00" cType="1" res="6.98639899000000064E-02" rms="0.0e-00" purity="0.00000000E+00" nType="-99">
                </Node>
                <Node pos="r" depth="4" NCoef="0" IVar="-1" Cut="0.00000000000000000E+00" cType="1" res="-4.63158972999999988E-02" rms="0.0e-00" purity="0.00000000E+00" nType="-99">
                </Node>
            </Node>
        </Node>
        <Node pos="r" depth="2" NCoef="0" IVar="12" Cut="1.22156250000000000E+02" cType="1" res="0.00000000000000000E+00" rms="0.0" purity="0.00000000E+00" nType="0">
            <Node pos="l" depth="3" NCoef="0" IVar="4" Cut="8.89914931999999936E+01" cType="1" res="0.00000000000000000E+00" rms="0.0" purity="0.00000000E+00" nType="0">
                <Node pos="l" depth="4" NCoef="0" IVar="-1" Cut="0.00000000000000000E+00" cType="1" res="-1.21407031999999998E-01" rms="0.0e-00" purity="0.00000000E+00" nType="-99">
                </Node>
                <Node pos="r" depth="4" NCoef="0" IVar="-1" Cut="0.00000000000000000E+00" cType="1" res="-7.01476857000000037E-02" rms="0.0e-00" purity="0.00000000E+00" nType="-99">
                </Node>
            </Node>
            <Node pos="r" depth="3" NCoef="0" IVar="-1" Cut="0.00000000000000000E+00" cType="1" res="-1.38033843000000007E-02" rms="0.0e-00" purity="0.00000000E+00" nType="-99">
            </Node>
        </Node>
    </Node>
</BinaryTree>
<BinaryTree type="DecisionTree" boostWeight="0.0" itree="28">
    <Node pos="c" depth="1" NCoef="0" IVar="10" Cut="8.49454834000000005E+02" cType="1" res="0.00000000000000000E+00" rms="0.0" purity="0.00000000E+00" nType="0">
        <Node pos="l" depth="2" NCoef="0" IVar="0" Cut="6.88259429999999952E+01" cType="1" res="0.00000000000000000E+00" rms="0.0" purity="0.00000000E+00" nType="0">
            <Node pos="l" depth="3" NCoef="0" IVar="4" Cut="1.59227722000000000E+02" cType="1" res="0.00000000000000000E+00" rms="0.0" purity="0.00000000E+00" nType="0">
                <Node pos="l" depth="4" NCoef="0" IVar="-1" Cut="0.00000000000000000E+00" cType="1" res="2.12699436000000006E-02" rms="0.0e-00" purity="0.00000000E+00" nType="-99">
                </Node>
                <Node pos="r" depth="4" NCoef="0" IVar="-1" Cut="0.00000000000000000E+00" cType="1" res="-8.76753628000000035E-02" rms="0.0e-00" purity="0.00000000E+00" nType="-99">
                </Node>
            </Node>
            <Node pos="r" depth="3" NCoef="0" IVar="0" Cut="7.87894440000000031E+01" cType="1" res="0.00000000000000000E+00" rms="0.0" purity="0.00000000E+00" nType="0">
                <Node pos="l" depth="4" NCoef="0" IVar="-1" Cut="0.00000000000000000E+00" cType="1" res="-6.61590546000000029E-02" rms="0.0e-00" purity="0.00000000E+00" nType="-99">
                </Node>
                <Node pos="r" depth="4" NCoef="0" IVar="-1" Cut="0.00000000000000000E+00" cType="1" res="-1.13014847000000002E-01" rms="0.0e-00" purity="0.00000000E+00" nType="-99">
                </Node>
            </Node>
        </Node>
        <Node pos="r" depth="2" NCoef="0" IVar="9" Cut="4.88153636000000002E-01" cType="1" res="0.00000000000000000E+00" rms="0.0" purity="0.00000000E+00" nType="0">
            <Node pos="l" depth="3" NCoef="0" IVar="8" Cut="4.67743724999999999E-01" cType="1" res="0.00000000000000000E+00" rms="0.0" purity="0.00000000E+00" nType="0">
                <Node pos="l" depth="4" NCoef="0" IVar="-1" Cut="0.00000000000000000E+00" cType="1" res="1.14961877000000004E-01" rms="0.0e-00" purity="0.00000000E+00" nType="-99">
                </Node>
                <Node pos="r" depth="4" NCoef="0" IVar="-1" Cut="0.00000000000000000E+00" cType="1" res="5.90354538999999998E-02" rms="0.0e-00" purity="0.00000000E+00" nType="-99">
                </Node>
            </Node>
            <Node pos="r" depth="3" NCoef="0" IVar="-1" Cut="0.00000000000000000E+00" cType="1" res="1.73591989999999988E-02" rms="0.0e-00" purity="0.00000000E+00" nType="-99">
            </Node>
        </Node>
    </Node>
</BinaryTree>
<BinaryTree type="DecisionTree" boostWeight="0.0" itree="29">
    <Node pos="c" depth="1" NCoef="0" IVar="10" Cut="9.88383057000000008E+02" cType="1" res="0.00000000000000000E+00" rms="0.0" purity="0.00000000E+00" nType="0">
        <Node pos="l" depth="2" NCoef="0" IVar="5" Cut="1.40239501999999987E+02" cType="1" res="0.00000000000000000E+00" rms="0.0" purity="0.00000000E+00" nType="0">
            <Node pos="l" depth="3" NCoef="0" IVar="2" Cut="7.06388321000000019E+01" cType="1" res="0.00000000000000000E+00" rms="0.0" purity="0.00000000E+00" nType="0">
                <Node pos="l" depth="4" NCoef="0" IVar="-1" Cut="0.00000000000000000E+00" cType="1" res="-5.01737110000000028E-02" rms="0.0e-00" purity="0.00000000E+00" nType="-99">
                </Node>
                <Node pos="r" depth="4" NCoef="0" IVar="-1" Cut="0.00000000000000000E+00" cType="1" res="3.36351655000000013E-02" rms="0.0e-00" purity="0.00000000E+00" nType="-99">
                </Node>
            </Node>
            <Node pos="r" depth="3" NCoef="0" IVar="9" Cut="3.07405829000000019E-01" cType="1" res="0.00000000000000000E+00" rms="0.0" purity="0.00000000E+00" nType="0">
                <Node pos="l" depth="4" NCoef="0" IVar="-1" Cut="0.00000000000000000E+00" cType="1" res="-1.70583054000000012E-02" rms="0.0e-00" purity="0.00000000E+00" nType="-99">
                </Node>
                <Node pos="r" depth="4" NCoef="0" IVar="-1" Cut="0.00000000000000000E+00" cType="1" res="-1.00856915000000005E-01" rms="0.0e-00" purity="0.00000000E+00" nType="-99">
                </Node>
            </Node>
        </Node>
        <Node pos="r" depth="2" NCoef="0" IVar="6" Cut="1.46503614999999998E+00" cType="1" res="0.00000000000000000E+00" rms="0.0" purity="0.00000000E+00" nType="0">
            <Node pos="l" depth="3" NCoef="0" IVar="-1" Cut="0.00000000000000000E+00" cType="1" res="6.49435072999999946E-02" rms="0.0e-00" purity="0.00000000E+00" nType="-99">
            </Node>
            <Node pos="r" depth="3" NCoef="0" IVar="-1" Cut="0.00000000000000000E+00" cType="1" res="1.11114546999999994E-01" rms="0.0e-00" purity="0.00000000E+00" nType="-99">
            </Node>
        </Node>
    </Node>
</BinaryTree>
<BinaryTree type="DecisionTree" boostWeight="0.0" itree="30">
    <Node pos="c" depth="1" NCoef="0" IVar="0" Cut="7.44673308999999932E+01" cType="1" res="0.00000000000000000E+00" rms="0.0" purity="0.00000000E+00" nType="0">
        <Node pos="l" depth="2" NCoef="0" IVar="16" Cut="4.79868590999999981E+02" cType="1" res="0.00000000000000000E+00" rms="0.0" purity="0.00000000E+00" nType="0">
            <Node pos="l" depth="3" NCoef="0" IVar="10" Cut="4.24458129999999983E+02" cType="1" res="0.00000000000000000E+00" rms="0.0" purity="0.00000000E+00" nType="0">
                <Node pos="l" depth="4" NCoef="0" IVar="-1" Cut="0.00000000000000000E+00" cType="1" res="-7.50561059000000030E-02" rms="0.0e-00" purity="0.00000000E+00" nType="-99">
                </Node>
                <Node pos="r" depth="4" NCoef="0" IVar="-1" Cut="0.00000000000000000E+00" cType="1" res="-2.87518417000000000E-03" rms="0.0e-00" purity="0.00000000E+00" nType="-99">
                </Node>
            </Node>
            <Node pos="r" depth="3" NCoef="0" IVar="9" Cut="3.14310788999999979E-01" cType="1" res="0.00000000000000000E+00" rms="0.0" purity="0.00000000E+00" nType="0">
                <Node pos="l" depth="4" NCoef="0" IVar="-1" Cut="0.00000000000000000E+00" cType="1" res="1.07391535999999996E-01" rms="0.0e-00" purity="0.00000000E+00" nType="-99">
                </Node>
                <Node pos="r" depth="4" NCoef="0" IVar="-1" Cut="0.00000000000000000E+00" cType="1" res="2.57736648999999998E-02" rms="0.0e-00" purity="0.00000000E+00" nType="-99">
                </Node>
            </Node>
        </Node>
        <Node pos="r" depth="2" NCoef="0" IVar="0" Cut="1.01604965000000007E+02" cType="1" res="0.00000000000000000E+00" rms="0.0" purity="0.00000000E+00" nType="0">
            <Node pos="l" depth="3" NCoef="0" IVar="-1" Cut="0.00000000000000000E+00" cType="1" res="-5.89787997000000008E-02" rms="0.0e-00" purity="0.00000000E+00" nType="-99">
            </Node>
            <Node pos="r" depth="3" NCoef="0" IVar="-1" Cut="0.00000000000000000E+00" cType="1" res="-1.20733104999999993E-01" rms="0.0e-00" purity="0.00000000E+00" nType="-99">
            </Node>
        </Node>
    </Node>
</BinaryTree>
<BinaryTree type="DecisionTree" boostWeight="0.0" itree="31">
    <Node pos="c" depth="1" NCoef="0" IVar="1" Cut="9.83354187000000053E+01" cType="1" res="0.00000000000000000E+00" rms="0.0" purity="0.00000000E+00" nType="0">
        <Node pos="l" depth="2" NCoef="0" IVar="0" Cut="5.05512465999999989E+01" cType="1" res="0.00000000000000000E+00" rms="0.0" purity="0.00000000E+00" nType="0">
            <Node pos="l" depth="3" NCoef="0" IVar="6" Cut="1.56195951000000011E+00" cType="1" res="0.00000000000000000E+00" rms="0.0" purity="0.00000000E+00" nType="0">
                <Node pos="l" depth="4" NCoef="0" IVar="-1" Cut="0.00000000000000000E+00" cType="1" res="-4.00716476000000030E-02" rms="0.0e-00" purity="0.00000000E+00" nType="-99">
                </Node>
                <Node pos="r" depth="4" NCoef="0" IVar="-1" Cut="0.00000000000000000E+00" cType="1" res="4.23897094999999974E-02" rms="0.0e-00" purity="0.00000000E+00" nType="-99">
                </Node>
            </Node>
            <Node pos="r" depth="3" NCoef="0" IVar="0" Cut="7.99836348999999984E+01" cType="1" res="0.00000000000000000E+00" rms="0.0" purity="0.00000000E+00" nType="0">
                <Node pos="l" depth="4" NCoef="0" IVar="-1" Cut="0.00000000000000000E+00" cType="1" res="-5.25900237000000020E-02" rms="0.0e-00" purity="0.00000000E+00" nType="-99">
                </Node>
                <Node pos="r" depth="4" NCoef="0" IVar="-1" Cut="0.00000000000000000E+00" cType="1" res="-1.16354904999999995E-01" rms="0.0e-00" purity="0.00000000E+00" nType="-99">
                </Node>
            </Node>
        </Node>
        <Node pos="r" depth="2" NCoef="0" IVar="4" Cut="1.53969573999999994E+02" cType="1" res="0.00000000000000000E+00" rms="0.0" purity="0.00000000E+00" nType="0">
            <Node pos="l" depth="3" NCoef="0" IVar="4" Cut="9.82664948000000038E+01" cType="1" res="0.00000000000000000E+00" rms="0.0" purity="0.00000000E+00" nType="0">
                <Node pos="l" depth="4" NCoef="0" IVar="-1" Cut="0.00000000000000000E+00" cType="1" res="3.28585729000000007E-02" rms="0.0e-00" purity="0.00000000E+00" nType="-99">
                </Node>
                <Node pos="r" depth="4" NCoef="0" IVar="-1" Cut="0.00000000000000000E+00" cType="1" res="1.17840744999999997E-01" rms="0.0e-00" purity="0.00000000E+00" nType="-99">
                </Node>
            </Node>
            <Node pos="r" depth="3" NCoef="0" IVar="-1" Cut="0.00000000000000000E+00" cType="1" res="-5.83030693000000030E-02" rms="0.0e-00" purity="0.00000000E+00" nType="-99">
            </Node>
        </Node>
    </Node>
</BinaryTree>
<BinaryTree type="DecisionTree" boostWeight="0.0" itree="32">
    <Node pos="c" depth="1" NCoef="0" IVar="0" Cut="8.23473663000000045E+01" cType="1" res="0.00000000000000000E+00" rms="0.0" purity="0.00000000E+00" nType="0">
        <Node pos="l" depth="2" NCoef="0" IVar="10" Cut="1.08455249000000003E+03" cType="1" res="0.00000000000000000E+00" rms="0.0" purity="0.00000000E+00" nType="0">
            <Node pos="l" depth="3" NCoef="0" IVar="9" Cut="2.88079858000000022E-01" cType="1" res="0.00000000000000000E+00" rms="0.0" purity="0.00000000E+00" nType="0">
                <Node pos="l" depth="4" NCoef="0" IVar="-1" Cut="0.00000000000000000E+00" cType="1" res="5.98642415999999997E-02" rms="0.0e-00" purity="0.00000000E+00" nType="-99">
                </Node>
                <Node pos="r" depth="4" NCoef="0" IVar="-1" Cut="0.00000000000000000E+00" cType="1" res="-2.23711114000000010E-02" rms="0.0e-00" purity="0.00000000E+00" nType="-99">
                </Node>
            </Node>
            <Node pos="r" depth="3" NCoef="0" IVar="6" Cut="1.81370925999999999E+00" cType="1" res="0.00000000000000000E+00" rms="0.0" purity="0.00000000E+00" nType="0">
                <Node pos="l" depth="4" NCoef="0" IVar="-1" Cut="0.00000000000000000E+00" cType="1" res="8.72395858000000052E-02" rms="0.0e-00" purity="0.00000000E+00" nType="-99">
                </Node>
                <Node pos="r" depth="4" NCoef="0" IVar="-1" Cut="0.00000000000000000E+00" cType="1" res="1.17267392999999998E-01" rms="0.0e-00" purity="0.00000000E+00" nType="-99">
                </Node>
            </Node>
        </Node>
        <Node pos="r" depth="2" NCoef="0" IVar="-1" Cut="0.00000000000000000E+00" cType="1" res="-1.13144033000000005E-01" rms="0.0e-00" purity="0.00000000E+00" nType="-99">
        </Node>
    </Node>
</BinaryTree>
<BinaryTree type="DecisionTree" boostWeight="0.0" itree="33">
    <Node pos="c" depth="1" NCoef="0" IVar="0" Cut="7.97618865999999969E+01" cType="1" res="0.00000000000000000E+00" rms="0.0" purity="0.00000000E+00" nType="0">
        <Node pos="l" depth="2" NCoef="0" IVar="10" Cut="8.71901062000000024E+02" cType="1" res="0.00000000000000000E+00" rms="0.0" purity="0.00000000E+00" nType="0">
            <Node pos="l" depth="3" NCoef="0" IVar="2" Cut="6.29151992999999976E+01" cType="1" res="0.00000000000000000E+00" rms="0.0" purity="0.00000000E+00" nType="0">
                <Node pos="l" depth="4" NCoef="0" IVar="-1" Cut="0.00000000000000000E+00" cType="1" res="-5.80954774999999993E-02" rms="0.0e-00" purity="0.00000000E+00" nType="-99">
                </Node>
                <Node pos="r" depth="4" NCoef="0" IVar="-1" Cut="0.00000000000000000E+00" cType="1" res="1.36966286000000000E-02" rms="0.0e-00" purity="0.00000000E+00" nType="-99">
                </Node>
            </Node>
            <Node pos="r" depth="3" NCoef="0" IVar="24" Cut="4.02715969000000040E+00" cType="1" res="0.00000000000000000E+00" rms="0.0" purity="0.00000000E+00" nType="0">
                <Node pos="l" depth="4" NCoef="0" IVar="-1" Cut="0.00000000000000000E+00" cType="1" res="5.38132377000000023E-02" rms="0.0e-00" purity="0.00000000E+00" nType="-99">
                </Node>
                <Node pos="r" depth="4" NCoef="0" IVar="-1" Cut="0.00000000000000000E+00" cType="1" res="1.07915609999999995E-01" rms="0.0e-00" purity="0.00000000E+00" nType="-99">
                </Node>
            </Node>
        </Node>
        <Node pos="r" depth="2" NCoef="0" IVar="-1" Cut="0.00000000000000000E+00" cType="1" res="-1.05007066999999996E-01" rms="0.0e-00" purity="0.00000000E+00" nType="-99">
        </Node>
    </Node>
</BinaryTree>
<BinaryTree type="DecisionTree" boostWeight="0.0" itree="34">
    <Node pos="c" depth="1" NCoef="0" IVar="0" Cut="8.66934203999999937E+01" cType="1" res="0.00000000000000000E+00" rms="0.0" purity="0.00000000E+00" nType="0">
        <Node pos="l" depth="2" NCoef="0" IVar="1" Cut="1.01263000000000005E+02" cType="1" res="0.00000000000000000E+00" rms="0.0" purity="0.00000000E+00" nType="0">
            <Node pos="l" depth="3" NCoef="0" IVar="6" Cut="1.71476506999999989E+00" cType="1" res="0.00000000000000000E+00" rms="0.0" purity="0.00000000E+00" nType="0">
                <Node pos="l" depth="4" NCoef="0" IVar="-1" Cut="0.00000000000000000E+00" cType="1" res="-4.66805174999999975E-02" rms="0.0e-00" purity="0.00000000E+00" nType="-99">
                </Node>
                <Node pos="r" depth="4" NCoef="0" IVar="-1" Cut="0.00000000000000000E+00" cType="1" res="1.59790367000000010E-02" rms="0.0e-00" purity="0.00000000E+00" nType="-99">
                </Node>
            </Node>
            <Node pos="r" depth="3" NCoef="0" IVar="6" Cut="1.11228704000000000E+00" cType="1" res="0.00000000000000000E+00" rms="0.0" purity="0.00000000E+00" nType="0">
                <Node pos="l" depth="4" NCoef="0" IVar="-1" Cut="0.00000000000000000E+00" cType="1" res="-1.92486904999999986E-02" rms="0.0e-00" purity="0.00000000E+00" nType="-99">
                </Node>
                <Node pos="r" depth="4" NCoef="0" IVar="-1" Cut="0.00000000000000000E+00" cType="1" res="7.70564749999999993E-02" rms="0.0e-00" purity="0.00000000E+00" nType="-99">
                </Node>
            </Node>
        </Node>
        <Node pos="r" depth="2" NCoef="0" IVar="-1" Cut="0.00000000000000000E+00" cType="1" res="-1.16945623999999998E-01" rms="0.0e-00" purity="0.00000000E+00" nType="-99">
        </Node>
    </Node>
</BinaryTree>
